{"params":{"input_size":784,"hidden_size":64,"hidden_activation":"sigmoid","output_size":10,"output_activation":"sigmoid"},"hidden_weights":[[0.02049829172060735,-0.034980453302147996,-0.07434412564993399,0.020064641654323454,-0.02539970940112559,-0.0047003111001435,-0.0394898884738459,0.08031784822978107,-0.05204570844560793,-0.04724045082513911,-0.052751040288400615,-0.05055484991952219,0.02725420689264423,0.07559281610399175,0.056522380410160014,0.004472996666750504,0.05695386099823183,0.07140497612903575,0.07680621841799522,-0.050751679743597664,-0.02787008533699611,0.05342140161598761,-0.058387438318361476,0.09387541525609346,-0.058695273205077995,0.020388365578229616,0.006871929588207139,-0.06428127248050598,0.05229387726743031,-0.059609674653461814,0.01349716764717497,-0.09284162277019627,0.054717352967424054,-0.03591200297548134,-0.0919029610581767,0.08714809132231792,0.08389868669152256,-0.0758376387768653,-0.021320463893145424,-0.10476377710349444,-0.08343748520250172,-0.06301939324276563,-0.033713267127637066,0.07551830910768421,0.08112257130586878,-0.015659266978549868,0.03794914353455897,0.07756999351290951,0.017804179683057947,-0.08466287369219105,-0.016133759183082092,-0.03539322199464972,0.08665851208363869,0.001938455391709677,-0.01803111194571869,0.053482171492599005,-0.03177061447910199,-0.007963905464882431,0.07129278611429736,0.09029931459825355,-0.0679958020445677,0.010778313856626776,-0.02683715115805096,0.060194745294062095,-0.013695704419542265,-0.01030495602390328,0.04816821476805383,0.02892153338430736,0.10569787961344647,0.01135248314156586,-0.08227816960185182,-0.15005164710241115,-0.13063667163971288,0.028219035157452,-0.06776882224964521,-0.13423617044064856,0.024363257422083166,0.026146283023732484,0.02127420326037796,-0.059852528805085306,-0.003657180426698913,0.02342232552540942,0.03170893205652049,0.1129492981837462,-0.009634579759605882,0.032991328823746516,-0.10674606212656035,0.08881959331065926,-0.0011970606145232032,0.04633401615366255,0.06695766684874188,0.09239575644297977,0.026264883587482662,0.18018096673149653,0.1798243199687736,0.3812076528705718,0.25464634478422943,0.005264859239057078,-0.12894892305501052,-0.07091053510761153,-0.19725176485547488,-0.15295518041786824,-0.1827834744098034,-0.19635222810973704,-0.07499242788416316,-0.05144322838539811,-0.08523061616614423,0.028657168690205036,-0.0385171936861313,-0.02135811126518851,0.047194858648923255,-0.001410689443039862,-0.020406847836152948,-0.13403418490482374,0.07875000643293971,0.012708825781210476,0.013362137939969987,0.024999153914434073,-0.00709385113584952,-0.0014893953346433939,0.1545748004581954,0.26975648896953297,0.2636804552563714,0.5794288156534706,0.46947153596808366,0.41764169592832956,0.22501504561516986,0.033945500825471646,-0.4484879858094783,-0.5162523321756644,-0.31402199557092103,-0.28398304023332144,-0.20792685567009767,-0.3093409972770258,-0.19382956004263413,-0.08182470002674475,-0.04506851419224868,-0.04922979175986539,0.07617250700658745,0.02856230154734999,-0.06879499421577677,0.07653215653919491,0.030185810235967028,-0.013672621355534837,0.022367628786696365,0.10012241234612552,0.020750639904713236,-0.00673944258492154,0.0510845024290524,-0.06598270660419113,0.07306533965069834,0.47689483623652784,0.13487230125195812,0.24645241774682164,0.059678021549576944,0.333359173554664,0.16416032983929496,-0.27365065254731735,-0.35503058509412594,-0.5066620062497248,-0.5085065632682169,-0.6399497279201081,-0.47601114515076215,-0.35906201293696516,-0.2039377745131476,0.02395202207383191,0.14711684891753035,0.00883147332239237,-0.03943934270747732,0.050928049103913325,0.034916340711272295,0.005426447338499035,0.014295298583213292,-0.12747115646652943,-0.11053673515754563,-0.08484419809048213,0.03852871803233017,0.3000329431186764,0.1464564626729176,0.06898225547120675,0.32210647313690566,0.7250832734762889,1.2560667240565335,1.1304949326942444,0.41411723350219454,0.6229888234545292,0.3218157973819839,-0.5040572854425386,-0.5254177813365712,-1.0187722892891695,-0.9828410895360326,-0.6562383132860145,-0.3429821839483636,-0.14405508766158684,0.038498608197810764,-0.06003257563257461,-0.026429332692970445,0.0405353087567646,-0.027578464468207334,0.00008562455682019976,-0.10677789477578287,-0.3315692407500761,-0.06533251390689929,-0.12954116214363298,0.3533434145893068,0.5425441126022456,0.20014304861352336,0.7921020912424662,0.914645458394486,0.9199709206717086,1.689164320141099,1.0805388296865763,0.8536732084178432,0.37547916275207466,0.003101996271838819,-0.20956448724388768,0.16885062847954085,-0.28923308532607855,-1.0331472519864866,-1.204035652326717,-0.6442905994984068,-0.27701716151722466,-0.04380470925814568,-0.027385185631871384,0.002836784708097588,0.015961332330362385,0.03954579765995299,-0.016400283086463244,-0.04777100916411797,-0.23941504177609563,0.15620406848335064,0.3698712231744208,0.7708560136403004,0.1289438334267474,0.20167300959562992,0.374433262782699,0.5070038526790104,1.4462575949909033,1.9849162205360218,1.4988330265131735,0.5971703900822438,0.4583367962308799,0.46055559305042576,0.5124832188005749,0.017789608323324064,0.3273834156501363,-0.5459455245451342,-0.7635706190352245,-0.6228963275897323,-0.30018563132183274,-0.08730161934719315,-0.03719204443553105,-0.005302636871714736,-0.017809327645250388,-0.06227074349971775,0.0873227447806507,-0.005505418085100285,-0.1351810006485922,0.39899591594835515,0.6218130091559149,0.43190747652324274,0.2987551456361368,0.7210910796876809,-0.13274606192337873,0.0975545778929881,0.6253776744538312,0.48575604039225084,0.7619553392535106,0.26285379334943393,0.6607647086364673,0.62374158670953,0.5330422333122593,0.2844762736523834,-0.12286604410408647,-0.34544575364157704,-0.6540417791051225,-0.6785406408170432,-0.20719513984112328,-0.0642766648097915,-0.012772467837198358,-0.0016917571097876333,-0.09955992926107414,0.016496521953638054,0.08042726320777556,-0.13298739342426918,0.21612311656074412,0.5747004496573458,0.6605498033176598,0.4464639610533853,0.24069355775680698,0.438201427691898,0.05394220414984074,-1.1555615217647675,-0.6267152948755634,-0.7651594969416691,-0.5903661073945237,-0.02188977511076125,0.4495314685333218,0.52389658702399,0.5538510285177052,0.0546810950183306,0.017065519282069452,-0.06004707310332157,-0.2638379888280646,-0.3325712148821015,-0.09702025684088378,-0.05426746954626141,-0.05353892853815086,-0.03688727875193753,0.03318419937449152,-0.05811173691959241,0.05803237434040893,-0.04158932805155779,0.03172232987495704,-0.07100266147443784,0.20673329235562574,0.41407552827947364,0.08361401722963252,0.3849851236546104,0.003417466613378518,-1.2498096726358965,-1.6440769526041306,-0.8468038565407323,-0.021132762398607865,-0.02921792142693403,0.962532082146844,0.6083812005956708,0.40526421743386376,0.19280593203831894,0.032776204457682,0.3168499015843704,-0.3363793377976156,-0.2957034032052747,-0.09736219952792625,-0.08489872639211979,0.024807103531028555,0.05861706840716506,0.014184651140271379,-0.0021931203886743546,-0.013305537647480754,0.00446109888858737,-0.4756764526537956,-0.5562328100185341,-0.38623894745627674,-0.06462922927758087,-0.3711295203735443,-0.7672275656048905,-0.8070964020883176,-1.5378317693843193,-1.567906097458115,-0.27565670930004565,0.47288114063616643,0.5153199493486778,0.7733996995013075,0.15180149922174915,0.34201431334376237,0.49378886873835015,0.018880310111784284,-0.011056532923344548,-0.4302566935618837,-0.5586047152029672,-0.2012240328356661,-0.06921164025375472,-0.045308987405828366,0.004190894967867659,0.09527246992371156,-0.03673577886243542,0.01794689202930845,-0.3250479189295403,-0.6950254477190831,-0.7313044179793139,-0.49357269972660994,-0.4913127685980504,-0.7943549168869903,-0.10486002111677921,-0.567388286766602,-0.8263933572137124,-0.6763887387588318,-0.18899956112004354,-0.26725298814524373,0.09422443667577071,-0.16387347848093015,-0.4769647151554417,-0.31080105663948016,0.23015061696856545,0.4278671562586853,0.049229495822340055,-0.5060184131565,-0.4957840464569882,-0.17632392861309099,-0.07660394056726641,-0.0777866827629027,-0.002020348619354304,-0.05633418901590354,0.026916280035693192,0.02139201024568193,-0.4730686609386558,-1.166980276737768,-0.7447387753263321,-0.619318541084211,-0.46068643943573623,-0.7136290711003385,-1.1998610709473794,-1.1454788579840092,-0.8754332064522552,-0.2567833030363786,-0.08839068497034214,0.16370543037788599,-0.11578792281173585,0.17333508411223972,-0.4458533916148992,-0.343857866372704,0.27064023492225564,0.33323091536360566,-0.017185867989928025,-0.3764902565959307,-0.2510463619586393,-0.01399192257860735,0.059614124287732835,-0.0098707616260476,0.05662480178277515,-0.10517112448600305,-0.02916531667714773,-0.13132438709052266,-0.31974711919479404,-0.886857487219488,-0.16180395061099437,-0.14316926928657808,0.1680940038193916,-0.48344495103430013,-0.5384192937618657,-0.2092105481125624,-0.7519403774517469,-0.5015871159984892,-0.38445416570092,-0.4629040319503882,-0.5255099035370002,0.4101662791976749,-0.5571827809788755,-0.32750572547459517,-0.04784801176132348,0.020682120925065495,-0.10336034819630327,-0.01716081683322435,-0.04449200672260914,0.002848466325522007,0.041005550426795344,0.05073124444824725,0.1484833690237704,0.09687431181216431,-0.04665308145758539,-0.14531015998259353,0.0012066528591901944,-0.4418864720720998,-0.2760827872082879,-0.23557012262431198,-0.37631540960976273,-0.4533372837859163,-0.10043852853149382,0.07256171147373247,0.10757293435234287,-0.35220187716404716,-0.5415915693276432,-1.1282806643475474,-0.053194299347420475,-0.15597642365717695,-0.49909931235780874,-0.5311113046100144,-0.10657203146864329,-0.4562174830939673,0.0175675581018986,0.12609017690057753,-0.10453979419838925,0.09128751943512936,0.10409979735154273,-0.012089046987538196,0.008733674991888015,0.04483201057733956,-0.03552907240401858,-0.1078750330598444,-0.0241404057797384,-0.2320522323836038,-0.5932744910972736,-0.6160722458140759,-0.605025661764777,-0.7145625914652342,-0.09391977464649606,0.11122531619610926,0.15886331683483743,0.06516197341433617,-0.8133916575202219,-0.29380343583675317,-0.11779103725976722,-0.42207223930478044,-0.49149903278544316,-0.5592132554418895,-0.2140859008866243,-0.8636500416128496,-0.12030933360417531,-0.24660879356426363,0.058955995145164676,0.06050386590480374,-0.005412724927828337,-0.015385788386387546,0.0524809358016238,0.057935149311831684,0.054824024071846944,-0.03425927080397622,-0.04084135923082178,-0.007433409883472421,-0.27254050215160547,-0.4817745771225275,-0.5623030418755062,-0.3249028906403566,-0.1028535024581145,-0.01928873921274414,-0.3153193089701371,-0.1846623005402926,-0.6656368825777011,-0.6203111020613251,-0.25241044600540347,-0.16228445764593358,-0.16773910892534932,-0.10163379183599032,-0.6204872378724259,-0.8405673169061811,0.08736976347572883,-0.019598721745397937,0.07815816360794858,0.06053051343725981,-0.02163779403663222,0.004620527262578071,0.024957229149753398,-0.021152079199185506,-0.06401726394713056,-0.05915662302137881,-0.13073863289637166,0.10429684787708633,0.006912100156964371,-0.24140066092449725,-0.24926054985326043,0.07369592814601378,0.004644270531694483,-0.47007219481546053,0.302579952394951,0.36002215074410465,-0.7872321317308362,-0.15356641525516607,-0.22841434416501863,-0.2982917492831133,0.1350804102388709,0.35423403341560306,-0.2843135574034915,-0.3837962031739068,0.19332339920113933,0.04259963655626496,0.19667620869505115,0.05318402544537712,-0.042661506859015756,-0.03907759139132459,0.1461235091628095,0.045498056162403426,-0.015312797174839587,0.01814639921959065,0.13147398269681537,0.20206894585586746,-0.03089531371670295,-0.38105725981476624,-0.392176547367793,-0.29384049888782654,-0.10516977256125501,-0.29817935074528273,0.08830484345145385,-0.027341418035344164,0.005140829999651639,-0.4017144565427188,0.15178613303412866,-0.3057958730039487,-0.2230445818636199,-0.11799354047213688,-0.2205074282843388,-0.06075383323496222,-0.12406423573142618,0.072127125780009,0.3591982591258471,0.23125767388204557,-0.019493713098269246,-0.024211962429770313,0.008552098942640285,0.008091714980827773,-0.047889769480706175,-0.09757455432615378,0.02049953451620307,0.07915840530555031,-0.1956023865321482,-0.12369245056498218,-0.08136321133193727,-0.28129290711244037,0.07884975493711553,-0.27419230137511336,0.6087155799900175,-0.14088167397794976,-0.4624610504083172,0.10727795418909918,0.4570702102452973,-0.4155419932507172,0.19200488819657927,-0.027737916098129787,-0.10512578669872796,-0.18168717048394106,-0.317102494436507,0.19637532554041753,0.18629485396717776,-0.027108153556523587,-0.04321429288706508,-0.04740124587630347,0.038666143214566046,0.03328819206398226,0.03468324569453448,-0.037041883530917606,-0.07154270525191739,-0.08666301850459104,-0.06835779869128766,-0.07019900628665099,0.3202431994487622,0.024740136846256554,0.03208268477001117,0.02223663731336797,-0.06100124582829608,-0.050229308117381355,0.4398633174816602,-0.006378453835575026,-0.002668029287951666,-0.14294585737335258,-0.0324790037115939,-0.3304362978345573,-0.14826783986090217,-0.21550553047638663,-0.16550775190239883,0.2694002481555626,0.1545824319466485,0.043314588887741624,0.011278694210350014,0.08185455705140285,0.005079949781300175,0.007988184608665029,-0.05726638572764798,-0.025406215587354498,-0.009250844335099494,0.046989502384086446,-0.1502617470541802,0.07622246275132395,0.2048814682151289,-0.12893970890698842,-0.4413896979286004,-0.23059035048374474,-0.24787208597800003,0.14149846036130778,0.05771127967175953,0.19696126431288982,0.1515002561485322,-0.4973252639671762,-0.4495967410906797,-0.17411273593452875,-0.3587496886610894,-0.10927424423497042,0.2873622423990065,0.24153144647079494,0.26889765944425964,-0.06105516195674802,-0.006820658008245524,0.0008795127013323577,-0.03261353229342918,-0.024891415426235925,0.045803072874645946,-0.022635893797513098,-0.00419268021272988,0.17255047063618353,0.06568692752480933,0.3952400119186928,0.2938545938144095,-0.16718190050818757,0.045257552508589045,-0.37156841139289165,-0.25256718628592734,0.09394578643184125,-0.46667807620692386,0.4363025422477879,0.6522123537472678,-0.2934964430724923,-0.23352355436155464,0.08895424784388262,0.2118146683660044,-0.05600082250413014,0.11913161827341537,0.06186545586191632,0.04660280097599213,-0.054053245412605186,-0.010376646525312954,-0.012187235776710005,0.050577907669875695,0.02069579157620754,-0.006345734609776091,0.025545984805507474,-0.06262035182419487,0.01997187456204946,0.14648658689316446,0.320807074928347,0.6079676796274389,0.15043760453460914,0.1579813319562043,0.41968755259319496,0.2867428550548582,0.26120406246474204,0.6095051983112878,0.016178597364618793,0.5887007688082089,0.16806574905825952,0.5587699377858277,0.9923648496603483,0.9150913450818735,0.371178518146936,0.18690740785412274,0.013982026029454538,-0.0005811080856032553,-0.03279715271762531,0.026072251550434522,-0.031890552705777946,0.017612799478412083,-0.016960350750393274,-0.004989631964732618,0.09245594401788494,0.0075584225979229225,0.11807765387753202,0.18552469100409397,0.14663375668485765,0.32858590772869734,0.41007072002620076,0.3782145553140694,0.4543442508668465,0.25934650604943665,0.6882353062131795,1.0023457679427923,0.4815247260812832,0.7038670308926526,0.7879644675091788,0.6916882610886376,0.27184276335644386,0.1705276864105304,0.09765943529270289,0.07917025602243001,-0.010442238100983513,-0.0029721704239106857,-0.09506358117596758,-0.0050522638996668544,-0.030422622749209156,0.009799580148001218,0.0015013697384163526,-0.056053052767918284,-0.05373630898836122,0.008516039602650278,-0.03426156710314388,0.029625322086325175,0.01157116307304213,0.01397437974961038,0.022349174977785737,-0.003105692037453899,-0.008400200447491527,0.10426835860210588,0.1161238459541281,0.10475334647621248,0.15442369166012151,-0.06394292175216489,0.01672048420629437,0.17026975139656647,-0.028947005656102517,-0.027260984126132426,-0.008999762527492858,0.12305643575407854,-0.02827950627849623,0.003240616356336469,0.0014776735095805155,0.037928668322284496,0.055608303633964226],[-0.033670100072471815,-0.012835669653101917,0.0381696323780182,0.11155607378943061,-0.028212811249203905,0.009895160538905377,-0.10561033302614839,0.07532314725989246,0.013837155917995237,0.04966016403886239,-0.05223081227733847,-0.03714463875167427,0.06399070937488423,-0.01963589386794368,-0.02716317065220898,-0.002387776991663721,-0.014538054241951844,-0.027890914795741958,-0.04407589924156529,0.0754330053140424,-0.04970166864894641,0.03267995623470868,0.00811999271342354,0.018801726236146572,-0.002166542684642616,0.005010006663164353,0.03295869871232092,-0.055011664384905595,-0.0349755440387208,0.02865992268539233,0.04102704068308345,-0.04648647077582056,0.054195560905666525,0.029354430927966607,0.010383718866350313,-0.0606150881806283,-0.02213491710341265,-0.03713428724278801,-0.02634107442895437,-0.030781961583074335,0.013273014594663225,-0.0066886327895185095,-0.08249665787742536,0.05021115361402472,-0.01573999024915132,0.05216085842218578,0.0794056431783836,-0.01192138900250583,0.038143479841674474,-0.0277383024188735,-0.02426988675622968,-0.0019706063604881287,0.008819849947104849,-0.026128807778480045,-0.024080020776716983,0.04661832027622658,-0.05637840615359053,-0.05864404299038895,-0.09429394838469957,-0.004439706229203026,0.018133050526865122,0.0104015119579478,-0.030529068028595546,0.046234518830651695,-0.04459404192331729,-0.07153283681198552,-0.023665302071242438,0.008927192623011544,-0.008422270138015909,-0.11181099824663876,-0.08109764426254334,-0.15446877512219193,-0.16503433083763483,0.010713549122101868,-0.1185616835579522,-0.06318500057638277,-0.1024738982065651,-0.014435504056924722,-0.004656652229360672,0.05229558405865874,0.018219303258578352,0.03159132206495642,-0.05507033569524638,0.014620820823981067,0.10230446606411936,0.030787016741521095,0.048010274058356596,0.04449607359935729,0.030762662041405334,-0.034658694551060514,-0.051422213312098126,-0.09384770279880368,-0.1981718933094427,-0.22086236364208012,-0.2041866443202597,0.030313590999140147,0.0768415717969234,-0.31144644073090705,-0.13198790898430335,0.001529505373394583,-0.12611720500937737,-0.41115351254103233,-0.31235857742570816,-0.061790226235074235,0.1309640827994458,-0.13965001836003152,-0.07682574985321676,0.15750410335075488,0.0018409858244565844,-0.00044764308058208724,-0.014326579039378182,-0.02762364496012749,0.07968699281200237,-0.037060265782195956,0.07776563030384116,0.033382433152336036,0.02712775786653727,0.11169288121216626,0.0670535670147932,0.1190202829792709,0.2014102876995613,-0.3815949319579158,-0.2657351754142091,0.11394503671549427,0.08702913888974737,-0.007366240493839362,-0.07818971279347599,-0.3733103109577486,-0.17681460891594825,-0.5487429339303593,-0.13852913435259143,0.004941191025881005,0.13235516042788179,-0.30760197428644664,-0.1405561657839704,0.015931701987943754,-0.09632399581877071,-0.06116082714904833,-0.016344362178983243,-0.01203586645485717,0.07827742926931483,0.014814174558595378,0.016248895323315405,0.05096938774685795,0.0981896047699914,0.24447491210505923,0.3498747036693612,0.36767116571914193,-0.11207100572904861,-0.2889887363871566,-0.29682516340015386,-0.052711840693642195,0.5336836618223953,0.5662673024039613,0.009856992233437457,-0.05663960472179683,-0.5139286460240851,-0.5964723225448382,-0.09975087767302993,-0.2921257853626092,-0.6664195295389825,-0.2935556716781831,-0.05750182756765877,-0.01690221791900327,-0.04861416022228952,-0.03885918418806246,0.02826282440887648,0.029324698290316996,-0.014904787401740987,0.021971395194032475,-0.022834561065065092,0.2521143158192708,0.30090771216012707,0.31456752552637,0.279420063798302,0.2640455478410137,-0.11393808421273094,0.18761621228785863,0.009923680470588954,-0.06912321162399605,-0.031023104563546802,0.15637137292269718,-0.02185952181929151,-0.007563322621355783,0.4442486549105745,-0.13064734210203902,-0.4426628192100786,-1.043628620200672,-1.0609537491236398,-0.49895583426667944,-0.20679123818622555,0.06348530776951351,-0.010782015021262097,-0.1379823551255178,-0.05779042642081654,-0.037696918895333054,0.007025553607617342,0.011028045291710808,0.0051199969572518905,0.15671159331058615,0.2621500073845939,0.04483758531396471,0.22904446058434172,-0.03666334657775415,-0.1293536896628959,-0.003085138380664436,-0.7603155860508258,0.02999725037460209,-0.13866901797569522,0.1852976768676901,0.19248919417929214,0.5828615420472395,0.537023075350156,-0.033786496849762364,-0.7664494546497734,-1.5531170279011175,-1.0971286786157983,-0.6521035235793252,-0.38665048531910157,-0.19026951133930545,-0.15155964437936867,-0.04360894396960518,-0.10041571329366909,-0.04228691173190282,-0.041932538305469245,-0.02107447648541854,0.01303284547823793,-0.039152207061315815,0.29059784105241,0.11207847700752155,-0.14295595940199055,0.013862266234600226,-0.4334457009905475,-0.4590522459081438,0.02957897560163804,-0.11131799547329055,-0.09653837460890237,0.30748829390511256,0.4184017386206267,0.6042165342297502,0.33870947521165057,-0.31554758510454856,-0.8916849587270259,-1.463366669965604,-1.260504547757357,-0.806136076113054,-0.2743339649857975,-0.1107972303620201,-0.1667443852576592,-0.20049145800102375,-0.06297237494650364,-0.12070078066457146,0.08970251814417848,-0.09801086324057143,0.11178330333289076,-0.05720957970515652,0.15559629736843136,0.239427072428509,0.013492624212937433,-0.13301715600190794,-0.40878450620140083,-0.2063389703132012,0.23088544709196854,0.34925926678447095,0.23565078616868868,0.47353744674713927,0.8734233743062695,0.7575969632387758,0.13768504787221034,-0.6173047062657622,-1.234465419571877,-1.4108028579664171,-1.062596861408842,-0.5671383528037106,-0.18870873525621756,-0.06996679243285625,-0.18566615487315846,-0.1776959486691852,-0.0573455815510441,0.06822658655759818,0.09410297304972746,-0.16542811960741283,-0.09306796682416059,0.11695721389690913,0.12235179658233278,-0.01744196511677067,0.23983930661998043,0.3817164140847174,-0.34704934311359326,-0.5165270726536998,0.29433305238605423,0.4837870847321838,0.6655911595616025,0.4189633237393399,0.7962911298900963,0.42474760973149794,0.16536007305460879,-0.5424519675282234,-1.3510367055752206,-1.378346099140911,-1.0859767420013224,-0.7405699497503813,-0.384601409568521,-0.03927515780778005,0.05931249947051847,0.0098024955357441,0.003203233434146901,-0.016008955891361976,-0.01589884451444833,0.023735968001471992,-0.030107185982272067,0.07978597746435026,0.07508995685168447,-0.02532746169580184,0.2311509368043478,0.151900063922924,-0.5039323602014115,0.17321442182606628,0.2168685493448868,0.7310732948206027,0.525517041392824,0.49138194814457087,0.36287942620320285,0.5843429484040538,-0.021052826687645496,-0.5909201456141272,-0.6330675632235413,-0.9023188403366954,-0.7923759378470434,-0.6485527250684708,-0.3507719698000693,-0.216329576883112,-0.25797072154192885,-0.0714977065645689,-0.0715964659990899,0.0819549117655976,-0.08017437738782664,0.06759741560621856,0.00020129484789344732,0.10978287065023419,0.12740947917000167,0.009437118025902387,-0.1760821060053322,-0.02214760607809321,-0.23272553319671144,0.41680380462922306,-0.1362777311515822,0.2276420639019683,0.26680310402692614,0.06682580674740003,0.09524290062124585,0.29872620858130616,0.15759671659261668,-0.42794927546029216,-0.26255696303724924,0.2710410847111559,-0.44704346292951486,-0.3902983386485426,-0.22142937797373693,-0.14098157952447646,-0.07547848373701382,-0.01838080884826393,-0.24150289154890026,0.04036882078664095,-0.08526228278287737,-0.03455260212929363,0.06270832101437565,-0.06702507159835569,-0.04786418571377156,-0.03685635881862305,-0.27876662217339654,-0.545969388784632,-0.4216443207345476,0.1972034592992438,0.06457168632694975,0.7463031166264225,-0.05881483820737848,-0.011430207186813097,-0.32368866061249846,0.17571378883616942,0.07699083892418679,-0.14378950001386395,-0.36717580386891996,0.1399691853577366,0.0376159294907399,-0.28976718503762683,0.19601033200526982,0.31728624686303086,0.21820314669618768,0.2418822961993697,0.010006980808578186,-0.008782158400213728,-0.05719819858354474,0.10334474552358115,-0.020848633088220648,-0.016618967083879516,-0.1557531352350273,-0.2500800835872249,-0.2881050143212973,-0.713278643128144,-0.32958590406172633,0.04892480322996389,0.34623947823580614,-0.0004726060851424725,-0.3572226920273079,-0.05691989701280329,0.2388293503075845,0.08013449233064875,0.06102985199061416,-0.4196907704044699,-0.5462589604423045,0.10376862009889838,-0.19218980242748673,-0.1074688655724904,0.2108212542226748,0.5892313063508573,0.20264039567396963,0.1837713307118618,0.12168365359722462,0.04752871485451584,-0.06102887147757024,0.035273852104524286,0.09845071462598616,-0.036141511378371516,-0.2008275690574587,-0.31391431964348787,-0.281057546552319,-0.35772282974739034,-0.1997080981477593,0.012290746065509301,0.16013829300034974,-0.22201913587933497,-0.35435588629581594,0.24127353867332485,-0.012637661314887633,-0.3241893263153039,0.0879758973748392,0.04974062214892173,-0.29379267783849844,-0.06304326790726562,-0.1467645368680179,-0.08298412142559586,0.11229606123854197,0.16780250195764246,0.16900629523408026,0.11658546609476281,0.10587549109307025,-0.017258865174713724,-0.03468438009160122,-0.02814337229954125,0.040070588537026296,-0.06492396600514769,-0.23416894379032233,-0.3326400007513339,-0.22452039144061325,0.013436431195672094,0.06319003737818646,0.4421339673369703,0.27437466847293,0.3115317477279124,-0.1915254873856311,-0.1983443876625756,0.4572035695018621,-0.3750161018510369,-0.2983282232347659,-0.6526741769965576,-0.007793780878105716,-0.004115006007516103,-0.29717445810124354,0.0702915632388435,0.1291002598788161,-0.0705811134976002,0.25893863379113163,0.04555072125690173,0.046314714807761614,0.036723720713954126,-0.021629780436335375,0.0677671430194153,-0.018178944303983362,-0.030133936676157394,-0.19064407795076638,-0.6151556013776762,-0.09131712157253889,0.16281136547111175,-0.2005691152938858,0.20550781752576935,0.28519841851745575,0.46958597979179456,0.07970196131759077,0.049137369305597096,0.40605612689090564,-0.3359755726559356,0.09311164689231893,-0.02150601043673355,-0.2542809119352747,0.0750208261064295,-0.23744613104239523,0.3037529293810479,0.3756232574689458,-0.09054639378024339,-0.1500662819503173,0.27424558454119674,0.04595442461938723,0.07247565969230267,-0.07313336553751021,0.01088403981837374,-0.039556349033961345,-0.04050164609203246,-0.00039388990553441137,-0.6310458564218547,-0.42188795866522444,0.08428750151123532,-0.1828240779908998,0.1186711570288093,0.28389925086126633,0.5195007623612644,0.05042092346882683,0.07483831445301732,-0.4750466975012148,-0.330034186514867,0.14127663329211887,0.062236531992790396,0.0669825781476182,0.4138694615402207,0.205724147686171,-0.04935581601380525,0.2632485497508257,-0.18440151784863001,-0.34841412066398,0.1248928540380077,0.06463392358987231,0.02892667758946528,0.025765415549193794,0.036911819478567996,-0.12862187213209775,-0.086418036947228,-0.1445155297312829,-0.3036624164824603,-0.5541910610500334,0.07805771465161818,-0.36240597775137434,0.03353878405969991,-0.14870923283387727,-0.12266949400105422,-0.15500766327695056,-0.19114748334851314,-0.2572088900360794,-0.4862405653046412,-0.6348439233765677,0.09165254195170658,0.19600087550183098,0.2979418571078935,0.009779868518898994,-0.027203330580486535,0.14186102291632402,-0.06961349397521674,-0.21366236839450858,0.049689426130111916,0.11378708198931631,-0.008703916311306186,-0.015539703802843443,-0.09102972382062208,0.06329305080246608,-0.06792030131744259,-0.25487144925204464,-0.1395868583110502,-0.11226307528686803,0.09798482003528311,0.0785412506050813,-0.013782687924409998,-0.06307099367537608,0.020433131331547262,0.2999248935778223,-0.05753574443391184,0.2821458172382686,-0.15137912168091344,-0.12687541991306733,-0.1574071575713333,-0.03841335952424101,0.0650646515488655,-0.16349788062273454,-0.30998093215298445,-0.219896090487622,-0.1944542249540567,-0.01442619706033367,-0.10934806548433652,0.08499651065044424,0.022567670610452204,0.006427907678792461,0.04368535645773714,0.015227214330363914,-0.043757387468565834,-0.2544743820770125,-0.13477188624248107,-0.3233670584443031,-0.29683156720762194,-0.053674164384556404,-0.09060765415171053,-0.07869485063401911,0.042669659833148924,0.07470123531524821,-0.18639682503539287,-0.022530555290082726,0.09053069522569618,-0.3772206046258696,-1.0991651725174318,0.2269715377462739,0.46162627656680383,-0.2301088143260203,-0.44793826611374926,-0.15433883041618499,-0.21139864230190594,-0.039012608804465325,0.07778395493236064,0.012632817521761089,0.020187412621732855,-0.005555642322194673,-0.0664283200542558,-0.04699812627812251,-0.05348315369742652,0.04635381696122811,-0.022068969581914854,0.021180447872353337,-0.1501803214998632,-0.2736896107320943,-0.10348802231642429,-0.10880352165102936,-0.3502606292227066,-0.3315375872101316,-0.17632954087439687,-0.3327933260202148,0.20999449910831822,-0.7460636285553546,-0.3296229005715777,0.322080529322725,0.0492950036692125,-0.09331754649534066,-0.10389531611695592,-0.16023394939274654,-0.19109161906825026,0.05240787739218393,0.070018272335535,0.0108797748483868,-0.029104382416650285,0.015302623614322993,0.02390952676971754,0.010625234952426248,-0.006410220502730952,-0.028198220163179192,-0.18548968957931802,-0.1428102364522317,-0.04875108668884965,0.04256012254140953,0.3534561144592766,0.1202757482000667,-0.00395523158728526,-0.38173787607489307,0.10019448415066852,-0.022998561600745013,-0.27333336656770496,-0.8021778229034009,0.26074399773042073,0.11122548601300292,0.047195504931501216,0.2052853120318793,-0.10566108679893914,-0.25766328288771395,-0.19223960424697703,0.01514970411283897,-0.00862477602122163,0.051999618047669796,0.0632707204645089,0.029790093814238777,0.057385918827291146,-0.01802196458869362,0.05843595710061679,0.005427591086689789,-0.043578596456045844,-0.026000414366756035,-0.0354340381002468,0.060834107698229056,0.2603446277439283,-0.032100983410834394,-0.12366681229837695,-0.41469456332051335,0.3180126373491265,0.07200804571190515,-0.6469945133513025,-0.33531841423061554,0.2304586754390911,0.007174835201785918,0.09389150128833211,0.03204337004898122,0.1431569481020209,-0.11970711830894319,-0.19903271786282248,-0.06901716240208174,0.12035215051134933,-0.08662880946994093,-0.07792389103766495,0.013686523587241185,-0.0426488247350443,0.06401226722515961,-0.0052714210776123455,0.1086430570817614,0.04200862758079985,0.0940447514888083,0.04389290011742708,-0.11113637217372274,-0.1466427500971222,-0.18557188794705415,-0.2995147332488901,-0.2693329323775291,0.09190770729978379,-0.04428275277378933,-0.18194757205576995,0.07873199295512652,0.12928495089486167,0.030640340855310106,-0.1042153996473944,-0.1096034331594655,-0.14009251563203184,-0.05355360149707645,-0.05965648370263559,-0.14164328882412286,-0.09852614536099681,0.091182217304551,0.03902012037758326,-0.07385988244048157,-0.04312909067799904,-0.006213212681726381,0.1319859452736357,-0.0992040620475441,0.03839854756419856,0.048299399562216114,-0.06287444926270333,0.03936081885224456,0.09304146236133959,-0.038473867784050424,-0.0689854334772115,-0.10430972481695522,-0.000151520626311407,-0.02975519669687895,-0.10852816961627537,-0.12932419865959444,-0.12682278295180993,0.013798432393014896,-0.08024739344342345,-0.10606863721155634,-0.06831954692460913,-0.04708505998075362,-0.011545319851516153,0.07105304876197656,-0.03305257964916105,0.066314495799304,0.07458430292484775,-0.019857740059556653,-0.10371228393382471,-0.016283590142003354,0.007159272675677253,0.08341446328187234,-0.05597838558318467,0.020434599371758573,0.0020277926581003677,-0.07746663246072845,0.00506605590244119,0.018126737829815727,0.02142603620692173,-0.07762593859781426,-0.03110328252137845,0.08523588210405167,0.0030791138514686144,0.03979792940456365,0.02444424801815349,0.026725367558360254,-0.09845551576519021,-0.017127529324140602,-0.0022641016403170153,0.06675553339925282,-0.04247752479494286,-0.0768681580067678,-0.04505066270143985,-0.005734378907498057,0.04332489230073945],[0.08541133713286445,0.02572582174898578,0.03572022160375894,-0.02727884909267978,0.03390627800626462,-0.06720458318140536,-0.04554887965863842,-0.07768998226574651,0.046544913066906494,0.08077183804806465,0.01688718749354153,-0.041655291375950955,0.08351315988143279,-0.053271560438156396,0.0500168809249654,-0.022289927187793247,-0.02871118245441338,-0.06475774048478891,0.12795031744049554,-0.01679894094007843,0.08780387816790051,-0.00655988135950948,-0.08603894599507128,-0.09211520566361563,0.002007756877024841,0.03699836550239479,0.018901565129001246,-0.010565983397045115,-0.02450111655674348,-0.055987015832505226,0.09800440965620245,-0.028218615610406006,-0.015381989129771317,-0.09631138127425729,0.029756679836045696,-0.0097684397958147,-0.07115355390597719,-0.10581255758032666,-0.0747438696598999,-0.08086677194809333,0.012200380592323397,-0.07216945200330903,0.0781932291015514,0.08937321129452684,0.08377186474142634,-0.03048715467353917,-0.09168362171532066,0.021119803697068923,-0.09738585183640394,0.022554781723091312,0.03758031959316475,0.062498469554812947,0.0053190578809148865,-0.05590054327927929,-0.07191928946485839,0.033236955486347274,-0.038974571868073626,-0.03006956176128183,0.06617108510262062,0.013726277615500194,-0.014036114389596262,-0.046941065605170716,0.07734973831703805,0.0638861577117654,-0.0171791667201275,-0.006932648447996357,0.008160062742918084,-0.08639678917006627,-0.061442219529264465,-0.02825750226901739,-0.08921037513253252,-0.013886153079845049,-0.029471900044286445,-0.07555604966155302,0.037923518885316476,0.08594228070201416,0.020388454243160714,0.03966887181664527,0.006603266729527901,0.057728185851668556,-0.08295219553700137,-0.041084533240565026,-0.029255157006543818,0.041537993982585744,-0.023907052762580535,-0.02004893308697569,0.06325145806004598,-0.04773513840080885,-0.052886295824067134,-0.0022306011322864006,-0.019640068110971187,-0.0077240319929514035,0.14427399441332117,-0.11282095530431299,-0.10546981155770763,-0.13834582218367958,0.0067014347656776975,-0.20948619009790026,-0.24066931479050482,-0.23455378566607074,-0.17018158115214,-0.2561578713888046,-0.2218480858573325,0.17968675294949113,0.015139889821218583,-0.04418520693087267,-0.05658214395857583,-0.020642603259750907,0.008680507856997718,-0.059410396424797854,0.04406435769213475,0.14044721569975546,0.017873396125722342,-0.04338774302049138,0.004484466545860728,0.02337933673307167,0.05260593721901726,0.05199010055528728,-0.11066365496903553,-0.21218902824256483,-0.23896386470711664,-0.7092893394779465,-0.6496609897024215,-0.417069176376841,-0.7660299731231627,-0.6746640439797837,-0.44147420752341243,-0.46820021284567614,-0.346104991782693,-0.7630430382898096,-0.38338851464958545,0.39030248029634296,0.22740599426869057,-0.04638304818253157,0.03837709221878649,-0.02012522892289097,-0.14982358407578922,-0.025998205232182416,0.0689364351338203,0.10863491594842835,0.04331100508665494,0.01568708039614026,0.02319865220110352,-0.05245315295725038,-0.051737743248647966,-0.09629546895424913,-0.3484874736305737,-0.039741904493413846,-0.4181196911678533,-0.26749119357970186,-0.11810968160954795,-0.4209731958023485,-0.2513389414660386,-0.023963720706283834,0.31479629671209874,0.11544587452907783,0.4349026010886401,-0.09188213380309065,-0.05621239424493361,0.17867067161072364,-0.1036288752455006,-0.2966114542665078,-0.041563022602302456,-0.16939288447913842,-0.13974701713636978,-0.03577161638462997,0.009777514693196718,-0.01686026257229531,-0.018809764145813875,0.011126716381594003,0.07740154269184046,-0.04964665564192269,-0.031420222156513564,-0.1339754644604288,0.00591506989347147,0.2733013806928892,0.038959774918778056,0.5041889128537574,0.9446908263188328,-0.03241975387029386,-0.2364877065406906,0.2315885262564498,0.0661208406066246,0.21697741871521134,-0.029672285596160808,0.1308652068824596,-0.3967825879883028,0.17832337936024473,0.03652726826210785,-0.5048225869126325,0.10422053522911369,0.04567873101726667,-0.1353669051859112,0.07378432954184107,0.054234039083235645,0.03598980877118671,-0.05006685355599114,0.03412189449306515,0.08554401423470114,0.12249477557249401,0.028573526543908465,-0.14144681011073723,0.034893571641101295,0.046405769849902245,-0.09250949942256269,0.6022577057829269,0.7484041188466831,0.07257174395377933,0.3522058633341534,0.10483479890495226,0.3689880765522925,-0.19323430930840035,-0.30512131217577,0.8542482197089677,-0.30212633629514285,0.2983369789775466,0.16154762025744182,-0.4343968810762209,0.06315967614424606,0.10088588656806054,-0.1263001998686638,-0.10726388161608899,0.03811929383718074,0.03687083526849486,0.013717482762288138,-0.02005084112064172,0.010375729378779825,0.07882491581980078,0.049101353587279,0.07543639841887516,-0.4315735375948275,0.32917212033556265,-0.126563959778598,0.12732641852219406,0.05426554858504974,-0.09993577402818338,0.47022082873456267,0.41619227333442127,0.5834194824880622,0.0936378823041992,-0.22680018895606963,0.7713615606554347,0.1585507746310452,0.10008766142953827,0.07372152740000588,-0.5427819780002501,0.10590428446181041,-0.04255552564604354,-0.3387416282632537,-0.2804843074116955,-0.0011590519657005125,-0.0369599471980638,0.06400714212906403,0.028151177565473754,0.012634366714186007,-0.030714309525284388,0.08080691734163302,-0.021455978299370206,-0.1765840686081713,0.22727033175497238,0.16394828298775,0.22156664929716177,0.20071533327243635,0.6101307192577815,0.6594632189462523,-0.2518540134479435,-0.12572681757574686,-0.41864286137679635,-0.1929015017082244,-0.18523161765118365,-0.376428436695502,-0.11917255773033734,-0.3646521854867546,-0.1843760224853601,0.29829841510752964,0.021141005114355363,-0.3400198860456522,-0.3591911597432266,-0.008637042985264305,0.10904615362182339,0.00166302874113662,0.0025077381649198766,0.06504876486084989,-0.015377054795193391,0.16255752771957646,-0.22625934609802864,0.10741899922161267,-0.043922612644636344,0.5868399558067638,0.2807824959199902,0.5518665496463423,-0.029646806994556643,-1.1876390168371374,-1.7943381570261006,-1.3964154598026133,-0.6343567111417506,0.020778831322215235,0.23774607580245985,-0.15906482796220192,0.020081396111519562,-0.4179660978197796,-0.10530715891344201,-0.05935040755120258,-0.29114920319918014,-0.298647626344142,-0.08652081980920258,-0.04842228258745541,0.0692785910995891,-0.027151932399523446,-0.04239941083712561,-0.027909980355418446,0.04675980259186265,0.022974049178696405,0.044657814616702526,-0.013455710348981959,-0.34026404801041044,0.055974777378234475,-0.6189735115932747,-1.3094455444763726,-2.121095547200108,-2.950721701794748,-1.9267900498686925,-0.3125905329921481,-0.13522312527635752,-0.19044823395057411,-0.030223155894444347,-0.260803304178832,-0.21419298982663837,-0.19719190467011652,-0.18060775968097031,-0.23312012187923645,-0.06897021524425104,-0.09754627626898989,0.07615348621357107,-0.045164574147403866,0.002829104032222907,0.0755338725359685,-0.01773666706699562,-0.08339953211027949,-0.13143964903417366,-0.16401521432935115,-0.20211654097672307,-0.5239911673478782,-0.9127141454456865,-1.229727211582862,-2.30951874076212,-2.5929792240894405,-1.8807888126223768,-0.4409498535549104,-0.023026210728729648,0.5221649071632779,0.5691155674515005,0.24254065689567403,-0.16812022873908716,-0.07279238800056416,-0.4074422380367375,-0.1548718737791245,-0.2966461274923922,-0.2018773637706457,0.05009888197501784,-0.012145467324625476,0.0347793168624221,0.044927960064819444,-0.04013981146323225,-0.030379390476057925,-0.010960961273360135,0.04834670864072026,-0.24468248805462509,-0.3390719415391053,-0.797039404211901,-0.7554819639401704,-1.542000559405008,-1.7035799848898254,-1.787761263739628,-0.953197467276386,-0.263037701800458,0.30672592207834365,0.40716046049831084,-0.15574419658549588,-0.1131042016896379,0.03300586464071612,0.3222066436572023,0.08414604483920365,-0.14271625354856748,-0.13629350747982064,0.0016316695810151332,0.049454719537676224,0.274290361854957,0.07772508288304171,-0.02801515649025207,-0.05604885181123269,-0.004885806371024946,0.0052524256363297534,0.039465163944863935,-0.0539790462340908,-0.24734436865827106,-0.42822862315893995,-0.8847097900705032,-0.8972827911875764,-1.0701542337671615,-1.1006445622079548,-0.27402341602321,0.48509502671950727,0.15808566870583207,0.6028131998836563,0.45347373808698616,0.21749448848691125,0.24659064043853962,0.36058466683394974,0.7372178430129737,-0.24675684628481853,-0.050350096468111255,0.24882275643507024,0.27696010408775873,0.16594872549524434,0.021534685926346338,0.04035735063246538,-0.015169849915193408,0.001392250053315029,0.052951945995073635,-0.06420360867751006,0.10808966373840802,-0.03156357438841641,-0.17409375463947524,-0.41128336089591744,-0.5770093264641186,-0.6641508461436889,-0.4621702678274395,-0.3119188026563963,0.06199294664487315,0.06444800900586546,-0.12777726732702682,-0.021905497237984437,0.6413854525191675,0.5051181358729598,0.4906816907283061,-0.16244296573608893,-0.25120588866244614,0.26207950589975526,-0.12914484244149055,0.08323466566842969,0.06439237406612942,0.03415740579141753,0.12838153698248947,0.09698863800410087,-0.013859205611464937,0.0674656843658477,0.028339406061599758,-0.0216513097265677,0.10622440533299748,0.0028956863557269615,-0.2805436178949856,-0.30162390578395665,-0.12429630216586143,-0.257881530850315,0.0628437180460642,-0.27170476427947937,-0.2640800352429425,-0.09811021762078086,-0.3683671269564728,-0.1792781733683393,0.4076941439005193,0.08541594068705222,0.03343633809862813,0.04283637436514324,0.3198274552782429,0.33472784286578444,0.5324428530251895,0.08107449841369138,0.034054458838120694,-0.20256926804814898,-0.10402770823418621,0.14189967245569068,-0.05858780471825098,-0.04611541606196205,0.0058709680699151464,-0.012458146315648134,-0.009461455029163571,0.0657771972448931,0.00861972285960621,-0.1736863593885557,-0.06748146408606955,-0.28094019942187537,0.18117119099904055,0.1237649347951381,-0.06916333651454194,0.18465053952901153,-0.058699650024058955,0.31199898409474836,0.33363840945705886,0.6873042798446232,0.000270929955217948,0.03576592324372897,-0.023069855146809974,-0.22811260682972595,0.11769010913437847,-0.6258737746775108,-0.0060234170439481954,-0.1253400273295812,-0.014821470173909735,0.1382987222943396,-0.016213001416916145,0.023082915758897725,-0.005776359105117964,-0.04119624287471373,0.03911839539642258,0.08381333685470499,-0.03333267743333737,-0.025552912087147536,-0.06228743119992602,-0.37332950869632514,0.004173030248485539,0.3364733365047828,-0.06693550928495284,0.031689373849427785,0.596067277994132,0.18951692322708336,0.4338526408459154,0.16184094230591786,0.0214966371529932,-0.1057712200386571,0.1170047320936569,-0.3123661893289263,0.4552047845647015,-0.32919093963415835,0.04950860361077595,-0.03866888526541852,-0.06515407100773665,-0.00694365164562327,0.05124566375746985,0.05512767256660682,0.12695994669778995,-0.028756511851571888,0.002929756045376272,0.11096215722292524,0.085124507047466,0.07266245714919667,0.039635960756632185,-0.022767076295392805,0.03327230623182843,-0.17768803048688245,-0.3247470569699061,-0.33705547498469135,0.23457109942559254,-0.4889204903859383,-0.14380528651597452,-0.12131667813352284,-0.15403062155922292,-0.7124197483923912,0.09398909145309194,-0.23461209617238415,0.19026000225397285,-0.19612088507053413,0.1164325546484263,-0.03865745583706881,-0.2990632970746924,-0.09625989774965708,-0.021470466102952317,-0.022240825029648713,-0.012066785308287442,-0.05331648362864418,0.07107413189475809,-0.027623403858663114,0.09233019661571397,-0.0214345579083387,-0.06526697731550492,-0.0225578815668176,-0.10303619712309728,-0.024707145529826693,-0.350221747569468,-0.4880504213762896,-0.3528110842462643,-0.549389339443976,0.013401941785886645,0.5033149688947751,-0.2449946183625995,-0.44824697027599825,-0.1469187923540638,0.028079592342288198,0.1343653945571152,-0.009330685071684447,0.4198553241328868,-0.12604288393223342,-0.3234928116808386,-0.28170778577227806,-0.07260426705898626,-0.11177853967294042,0.04592460785454453,0.05140302013618682,-0.035851523576323006,-0.08783417107290982,0.09322688043114129,-0.07049045481979935,0.2262023274820216,0.3620148444727565,0.15395687670177916,0.08540814476167478,-0.2572869423127385,0.43409926420937306,-0.06543847457452871,0.03214127284728158,0.22174101775410965,0.05389745758229745,0.6879990538985111,0.47731981186331246,0.17235351348489764,0.10393981664779472,0.0905003736190314,0.28973756382829957,0.47286590687331004,-0.04837241317790408,-0.3654724312675999,0.06437370633344662,-0.013233880819104184,-0.004584054616849383,-0.074341180224419,0.004237757732505734,-0.009131412130912515,-0.020870975241320564,-0.08065913052054823,-0.04081699770859498,0.4134769718810952,0.09787404307712531,0.0987256242048064,-0.2637185179179869,-0.03485567354225892,-0.00014248611093306763,-0.10341532005963817,0.037957250884521954,0.06295185104714077,0.03840939961797376,0.5664423587421954,0.6157996461008955,0.389782734732647,-0.3684662162532275,0.3927946824856521,0.19432577556694586,0.37095507855891,-0.26829980017180716,-0.13985208509500863,0.03760066676828069,-0.013354808534978538,0.016312065914172787,-0.024952361432459193,-0.007127491291948241,-0.037664056705332974,0.013357642877525777,-0.05070071427374486,0.005713878491616978,0.23194092420718693,0.4317156726818437,0.524303150081105,-0.05773548633061408,0.04848428158150365,-0.5061608935640848,-0.1961064083506542,0.08967234100593588,0.44293908389734743,-0.37580340198556617,0.09167698672644028,0.0715802307827721,-0.17299881071624484,-0.14258322576837604,0.25712251724178714,-0.2245852971890261,-0.15026009733193577,-0.1960757507557671,-0.2769183121837546,0.012906621188753938,0.10291772589262457,-0.0514610321394281,0.1282538316364525,-0.018109231281552486,0.040333412904951904,0.09156282770107231,0.09968631243255788,0.329755264546795,0.2548401930180938,0.1647010642138321,0.19056280332389292,0.25660645346150096,0.28219518342278094,-0.43349286268261816,-0.13671358379102366,-0.5050638681232889,-0.354339503217081,-0.3248463807824327,-0.3765883018644121,-0.45184445200937506,0.14228252300735417,-0.5110717473044275,-0.5327241928418196,-0.2385048115587282,-0.13682459363906793,-0.1666444382284918,-0.002162895326598775,-0.07115625762738471,0.010364508304782126,0.10392373883388434,0.010786538518981693,0.04847232092928838,0.0027886938322644068,-0.058395018554854884,0.024705985303442757,0.1589885727057119,0.04798915487469136,-0.10026066017640226,0.13415587366529316,0.3783981039206029,0.5939445874926287,0.2547703143490437,0.020906284000626368,0.23213593071720676,-0.2957286336002749,-0.10056661971171932,0.11697411295036707,0.30394314971191444,-0.03512532923149915,-0.3765856668319782,-0.4159278973640227,-0.1849195984549004,-0.2769398055460073,-0.05708880230567187,-0.07547982237673662,0.05310022942876274,0.06380717093817093,-0.00408946404337951,-0.05143357668071736,0.06495052274449564,-0.05214835259607248,0.0329242943132128,0.010626172227036348,-0.10613159725619567,-0.3628148874933121,-0.3421358118101992,0.03572551340287909,0.10250331180838815,0.2726502808466912,0.11418036317025809,0.05153123431303451,0.01589177745621024,0.030051207401698626,-0.029581234932699197,0.09337290233396782,-0.044393921562357296,-0.201874718343341,-0.13411186228163757,-0.061556501646712725,0.010287274734526487,-0.18853543296810174,-0.1150186779541821,-0.10020994083382717,-0.044379160806830964,-0.021889992972017346,0.027605750056377623,-0.05283314413165693,0.08652451929472323,0.05768264976066054,-0.1166807662755762,-0.05096319144439427,-0.028244725593904688,-0.037606405182897214,-0.02604612101707332,0.12993848780941547,-0.026660992039020972,0.08529812576196642,0.02278344949497018,-0.04361683017915984,-0.01814246763364962,-0.022810601996353316,-0.053139844972790895,0.02038145501486577,0.1331993913216669,-0.05463107909640512,-0.006016526120573832,0.03546428291934868,0.012847646962850297,0.011072387441273871,-0.05654594416004794,0.035285942504498534,-0.02399974066573663,0.07853239273829117,-0.03475433898861899,-0.03121239677910878],[0.07328043740652052,0.004643523817330196,-0.000982459738488457,0.02480161420546492,0.016809258905310816,0.06957057026273626,0.02467728869593835,-0.0127525227454671,-0.12911413985279246,0.012417216417801894,0.01043567682339306,-0.02748978061570781,-0.03300958270795365,0.0899087407258029,-0.13304223509521365,0.0819641605689916,0.08158749609241146,0.02793245744725851,0.005946673471882553,-0.04021802610648361,-0.019200548041623043,0.06267330412512662,-0.015484237215911545,-0.031927245028886095,0.01091392101726937,0.024986567245857967,-0.0031607132597481677,0.04007731441329263,0.006471958999484744,0.02058195858615331,-0.04152649935225761,0.00019319423648039475,-0.007013555389101233,-0.029787117455948822,0.06984941731434666,0.05679722063270763,-0.04703526907612897,-0.0709980688438849,-0.029582872219352827,0.030991687978058926,0.019267916828958027,-0.0037478960497709926,0.07971195360215044,-0.09904799274278493,-0.09694387128448988,-0.026174555044586777,-0.08574637270193625,0.0062437275707375285,-0.014657996919145816,-0.17280904047264634,-0.013453556134513855,-0.06978165518744005,-0.03868144878185749,-0.007959797153665965,-0.032081058041481154,0.04940082155472196,0.03476308551961183,0.0020705923204372384,0.04477189603214687,-0.13829236651909962,-0.03234455739918298,-0.030218828939091193,-0.020966901364069764,0.005108501072860496,0.08214912290970706,0.14742929811109198,0.05736455191488882,0.06905923465165902,0.0859487948189592,-0.06258906597097148,0.1536103821684219,0.02314735062299156,-0.11550921597018493,-0.0951142240759111,-0.05905307369010215,-0.055431786236627215,0.021634290543010193,-0.14404736777706342,-0.00045652116200937287,-0.04025788784160724,-0.04365572472665803,-0.058261252276921215,0.007706473410441957,0.06729198332191878,-0.06366755698274008,-0.02477554071682426,0.07581474716309008,-0.031606318280746955,-0.00688474659950299,-0.051130091378775236,0.10370520986425291,0.017782825994858538,0.14179655173762273,0.1872356927951233,0.18928007934773902,0.4830855923440164,0.3615855120795318,0.4115325077519531,0.38056326397421075,0.13769709114481637,-0.005346359737793283,0.10940032156291504,-0.14825347651268017,-0.3451026778235207,-0.5414839903263267,-0.29785847623667294,-0.2378034484672882,-0.1544638421081366,0.03908226847651967,-0.030324506262341854,-0.01599379899457797,0.04576024916731866,0.15332210830335086,-0.10644609861582593,0.00216963293039174,0.03090948643904878,-0.02481092556348139,-0.08512112695600235,0.14512654236853317,0.09390526198875576,0.11790563840737782,0.06193882073385588,0.10143142061614878,0.4605760668330865,0.3481684202694143,-0.09020472801054247,-0.0409762321210043,0.10499971046080475,-0.14202054440811873,0.36206416486739895,0.015607502770529781,-0.5551031814230829,-0.36364342599457583,-0.5508376147566101,-0.3625887209103889,-0.13175314195024657,-0.17247056153366216,-0.11573227550422875,0.018614913025851013,0.0661956355015407,-0.046665303313723164,-0.018845996735029538,-0.003886897874000224,0.012444207808854009,0.001474364074207633,-0.2870934950995754,-0.17585116198493977,0.034922897517841466,-0.145344644020862,-0.06901787433098186,0.3120871222372875,0.3618072232408048,0.013864960682334638,-0.27960676794837663,0.13858314834848295,0.03721939928555007,-0.45429495038131035,-0.18802593505125476,0.12206410991120145,-0.4035974638288755,-0.3110268549185996,0.04772279424700287,-0.18874246686015003,-0.30159131524449206,-0.15229052637700358,-0.013166821834269577,0.012970419700269456,-0.09905972769161073,0.020822773051200387,0.04533661841392442,0.051116890505015,-0.09388866494175015,-0.08977527279223213,-0.41122015150750646,-0.3447100060146505,0.11168868674975968,0.08832811619108229,-0.1039322223355084,0.17309517467797228,0.05673323816018292,-0.389769413408419,0.2083019115998785,-0.11273414743624774,-0.1994734442156635,-0.1756642015261149,-0.29365916054128655,-0.0026209584165959752,-0.23235467200577664,-0.37809882827361263,-0.16265526954176487,0.12733111523630022,-0.24898384216560845,0.11136009901415479,0.09655931946119822,0.006899927972494805,0.012039019965778686,0.029693166129995646,-0.00493602778697376,0.04016073537130209,-0.07670403989680126,-0.1462539389845527,-0.2711622112539823,-0.23574923741491977,-0.30917793948261396,0.03109171053565769,-0.09793584391775725,-0.20704228615794787,0.6375465049221892,0.2724006448102445,0.27074944221142094,-0.4372595123088635,-0.6411851791751468,0.16674256001020774,-0.32310295326511396,-0.0904873800975818,-0.39595386383610154,-0.1374202436767124,0.29819092208059145,0.24075611808888178,0.06463952227029736,0.1499769572990926,0.2123449250486035,0.06240903373443311,0.044176493798229514,-0.03172849326465128,0.031365230993465214,0.08838043761567695,0.0382230997973683,-0.2012256977116728,-0.6082041534356137,-0.22669384024091865,-0.2237751979068536,0.28947658436682977,0.34774079713822803,0.07901527822888643,0.33545247077397405,0.31628374327433295,0.18627214670771378,0.13136456806562993,0.035419752384591656,0.2605704369719736,0.13557357358475317,-0.05042151340119876,-0.04637225446206577,0.2179173703121834,0.525731294739645,0.32293669481129444,0.21234351180382738,0.1759644152455358,0.12184894845778,-0.009536687591309793,-0.10161001096007535,0.056355613927837354,0.0013431764124427468,-0.02968257180425948,0.18091595094787827,-0.14319582703406208,-0.28996565372415684,-0.393783085541668,-0.13580479317402713,0.2076956064932558,0.031138692886618097,0.3480965961089117,0.16507965936088378,0.41891208479006714,-0.25329231504646565,-0.7163284529962927,-0.4491925070866093,-0.20574635302507568,0.06497196872314856,0.14841278113011896,0.4294838687776881,0.3667633038172955,0.025835927712798523,0.29935759718826704,0.18892411707809745,0.09734039315369299,0.05104350720940897,-0.09472319259840341,0.001915714407803962,-0.10343322294421758,0.013158290381289794,-0.09518458018223612,0.1661504755653449,-0.04821504378785095,-0.03802316995732547,0.1731328241989948,0.1929813696498654,0.31697186899268337,0.012277469638847748,-0.006119025641067303,0.14963421647509462,-0.04563351643336745,-0.5659050837742016,-0.4561376662112331,-0.12549206818919617,0.2839194128605741,-0.020268723779707527,-0.18182074349462926,0.25190381503477627,0.5079211066691821,0.3972139774818634,0.19190801532368112,0.2774812063800499,0.12811837486023217,0.027808632739800786,0.06814275921397471,0.021673106227905897,-0.05287525633141135,0.022147064384035364,-0.30403565358281126,-0.0497930436794171,-0.23583179182478164,-0.31366664124873583,0.17294082264171667,0.6088959679995298,0.5611074524921952,0.05561643129503073,-0.11902843498773756,0.24189749666356186,0.07403039647010631,-0.4951117979262674,-0.3322354171990308,-0.22994290904534176,0.03148154008965704,0.6212590764625262,0.22237377245538192,0.6449318288365087,0.16725401801780823,0.6848096854415581,0.12884246931757712,0.1800230624663287,0.19673855939625948,0.15897824783927356,-0.04529240948835459,-0.02101957897103304,0.07521948912819057,-0.007016283781919965,-0.11804609753931354,-0.28653041058665146,-0.19235771183234635,-0.5178935193532209,0.04258725289356676,0.143414224665702,0.39415680720583757,0.863763552460417,0.717366764127605,0.4922637784739022,-0.07017296368692157,0.06296475009174998,-0.13741507732534877,-0.4185209494429256,0.08226307741697755,0.8994960062207142,0.3559293239620158,0.7043224545847165,0.47735665167528435,0.2710779919197345,0.18206549641122355,0.3060605080511364,0.33712228664033866,0.22856117695808656,0.03230870755731759,-0.05086052531084356,0.05432516163576008,0.05630816598929574,-0.11203972530824913,-0.1063082602412278,-0.17173563733441868,-0.6955142266269815,-0.6361052878048995,0.16715698344714558,0.1931056831272868,0.8367360196921486,0.7610665802162291,0.3741592727494734,0.019960567865882628,0.3316558177064841,0.13801540044302135,-0.02835756619295745,-0.26466891760130973,0.5674642791067676,0.2750216907044263,0.44463960245183975,-0.03213566095121339,-0.10243780093525942,0.32267687294377073,0.25891418051722304,0.37733868451212155,0.262497847959355,0.13814361738055633,0.05557367044638146,-0.04995344378566939,0.0009642696769281568,-0.00897200685830261,0.07658973999010732,0.05824380429307569,-0.2798916554423184,-0.4519338403211117,0.03004843068918414,0.09865680220049468,0.11356157115135974,0.01056939192874702,0.2978192232002464,0.6640617647956198,0.5376140024393082,0.4235910758507509,0.467418097168039,0.0734794571420919,-0.1779528352480629,-0.09994664929888473,-0.26521812846318116,-0.057351967164316314,-0.29925074723039974,0.00660417998400557,0.01188237721208322,0.3950092032890564,0.3345074519238095,0.10109022559394744,-0.012918078087509709,-0.05671082597747399,0.0064373479874179846,0.04782001700930443,0.15970417993745245,0.1105804764261083,0.016770773663070355,-0.2298046574723727,-0.3567408049430174,-0.050444009715771565,0.09363886377230039,-0.2106861953310657,0.3993896435661582,0.747207080116508,0.6755230132149914,-0.08584434330270513,-0.01719735422875603,-0.20483230705803204,-0.4481287002531657,0.0999019554660875,-0.0059812224543205695,-0.12054037442027542,-0.25008694720672414,-0.24005919616349197,-0.010588073281981004,0.2864686144096646,0.3508569175230168,0.10520055992192348,-0.0034644006930356613,0.011877671898394553,0.012247990521155556,-0.1091775098844854,0.028591114574342824,0.04882556348961013,0.026069780204221595,-0.07517692443594629,-0.1683019209221983,-0.2982121381267283,-0.2113733984356577,-0.04744891086937005,0.45750314892281263,0.9716033464241697,0.3959839722266182,-0.2206004709270389,-0.46958132221319954,-0.07058248581828508,-0.23140233300717478,0.00019772080169863418,0.05520564121055595,0.03693174827072999,-0.08803446623069969,-0.03265788016658013,-0.14071484479457516,0.04612528123028034,0.27256089230954317,0.12895422476463378,0.0042256616309955435,-0.004973463758711454,-0.013796457699785575,-0.057567438256530976,-0.211565998650717,0.011234544358103372,0.05349076213909633,0.028014439395071665,-0.31709947945624534,0.00669871805927997,0.23860586022756403,0.11445834380904873,0.8830996942478682,1.3239912311116409,0.12129482052575845,-0.42990810435683957,-0.2919786793090877,-0.20580449910815254,-0.04040758941167374,-0.2597424501702478,-0.0008335038333738643,-0.16191228701724864,-0.18719709868003118,-0.0813898080564638,0.0038393798902578388,0.26298738364459173,0.44237591394021136,0.09528718140225396,0.07579006196253296,0.0545643326082567,-0.05310101995738149,-0.03701305945409467,-0.09822816608827749,0.0834835254850968,-0.1172587211200485,-0.20065496096747187,-0.517547990658663,0.08232551970825114,-0.2330430995386252,0.1348355306054077,0.6627481943274777,0.7012723985196934,-0.9377362046080581,-0.45877060795499647,0.041130764929667545,-0.20709336132965492,-0.13873946367957313,-0.16456853164864968,-0.27211647922411697,-0.458453491370736,-0.39590673323466646,-0.10243512217088002,0.23181904919383753,0.18481140779648872,0.1002473767191595,-0.04244871827047958,0.03574175189122226,-0.07831796874188021,0.016311666862517237,-0.05546548797718966,-0.051331034962404966,-0.02910712824209092,0.07683409581255507,-0.11464300565427112,-0.02208830719288343,-0.49190348580041987,-0.05509596053125511,0.8191073820018858,1.1133973932393388,0.019320652614513798,-1.0039681813232135,-0.8488794082407427,-0.25427676114292913,-0.3837403386889392,-0.1389684142845409,-0.0628949521038668,-0.15789748197598488,-0.16550663073151264,-0.21047046387256804,0.1556408451284811,0.1722719213361066,-0.23748832563752945,-0.014490360868461593,0.07441259252672225,0.0486358008020198,0.06216984027964244,0.021873761553372915,0.11488061346825998,0.21834393568409957,0.41964731885348816,0.2994212537781001,-0.1185467277898597,-0.047135124051476185,-0.08986757885460402,0.24624655714952637,0.7533996831811316,0.9839479277782479,-0.03341760013765156,-0.5783823329516328,-0.9042065452115707,-0.05632622931935151,-0.021149359666423177,-0.19238699437524837,-0.12447316103758882,0.08339274157373033,-0.2780817189272261,-0.25682369893406665,0.1534101687780958,-0.14929620985504358,-0.15409641774982696,0.11690985247761071,0.10769699536728937,-0.05248150936408309,0.012941312900796843,-0.02611935276477683,0.17684199684093077,0.13568198421290376,0.48334820109959603,0.02639557635746603,-0.1919673545135032,-0.13504263034809458,0.06412833307537294,0.8214985163902202,0.6017974910253766,0.4363982944698086,-0.30388174218525676,-0.46385559386596203,-0.760581594806777,-0.2392464860231536,-0.11827520485563303,-0.3330359309766694,-0.1959625773857489,-0.4688696639411767,-0.4758161051307639,-0.25903720645707234,0.2882513666047488,0.28584621110218056,-0.056226662953700615,-0.005999725416988783,-0.0034789816196554206,-0.12062672511836056,0.08778594345814474,0.08595250455486209,0.06832973881116955,0.19178960748101598,0.2198016840109066,0.2201801712711652,0.09610965571534182,0.43901106380556654,1.053777102335471,1.2148738869829998,0.49486584501478104,-0.11439347681026642,-0.1557602005399387,-0.18233148919602046,-0.5672377392678758,-0.44521277536277587,-0.8352898624080761,-0.6835062073678315,-0.3895898777978412,-0.5601375153065133,-0.24073222738306999,-0.28156230198187643,0.33650107722669403,0.23454903849142528,0.021396438544120194,0.13881286797198508,0.06405106040429973,0.02589570355538218,0.03830300387531315,0.051531307740308875,-0.0020839650689171278,-0.00441550131786092,0.2208668818464482,0.35063250704440324,0.48462680739195724,0.7323469618327337,1.4693977715583983,1.2359121218549558,0.29030046881055765,-0.10564602030904861,-0.32874195652670213,-0.24535575242059943,0.007465577599144469,-0.18585086911265317,-0.4848191476081741,-0.39486400634100793,-0.3883063838917979,-0.5820251689557264,0.03854958791167322,-0.10535677760515849,0.40417248377063014,0.25240935207824894,0.11114562347740473,0.022764235711204776,-0.04354192016075284,-0.023804968270580054,0.0025141466381633907,-0.0703033857784349,-0.006465992752016978,0.027225975526233098,0.043846209947972274,0.2142896458750849,0.3261126646361729,0.5723286893679049,1.0015387536108626,0.8628087148661607,0.01337920082522203,-0.42075338320472566,0.012752720276074644,-0.056838974001445365,0.2489175985348918,0.20186069919555696,-0.14452233472796727,-0.2538492002073391,-0.06800888255630803,-0.23884680254261093,0.06972229952219743,-0.11672011158309863,-0.0633040600090787,0.003390936530548189,0.07977927640648987,0.11489372873148317,0.028661579752296513,-0.0007702835750240437,0.08647977838428333,-0.0027886426249757582,0.045333474253866295,-0.04513189186600825,0.08088324051074383,0.04877387128102262,0.2028975772139597,0.24515385398877113,0.16045026352217007,-0.07640245182424267,-0.11183655451891317,0.00433458867160321,-0.0014389383900278007,-0.20411520923287482,-0.11146728593623326,-0.0992874703964003,-0.2045008227636736,-0.025375414581083503,0.11175999763121101,0.3042014561240814,0.09624027960230536,-0.146493048207646,-0.05622155263873883,0.023325370973608338,0.0466137724470406,0.020890847139575064,0.025461507035592367,-0.02568496689931803,0.013996396681930959,-0.010180536020816406,0.07349024291969256,0.013179590807112413,-0.02349322397335479,-0.018362878409021108,0.06196044355473385,0.04300480993570095,0.05151363881725655,-0.04856166588152948,0.046604686447303,-0.044901039514803044,0.1962271618692348,0.009612645432042053,0.31593567865253214,0.1967419947798094,0.06355711605401543,0.19748645017650043,0.18711678093769862,0.326230679426543,0.1073298070404802,0.03010878854897693,-0.06744140194732805,-0.011574730568260243,-0.007102665543809938,-0.0011561691477619106,-0.07213793509561729,0.08115567216622567,-0.04197438024966375,0.05582647998952067,-0.00832983470039069,0.0017602345844959701,0.03167755533260283,-0.03909278685918435,0.04207400695262131,0.01879383940280089,0.07564614482208368,0.028043491001196626,0.04732910104627356,-0.024090279685586198,-0.03383285778331194,-0.0568421698654455,0.0344410607664759,-0.030246445505708222,0.01784943256552524,-0.1598133448920586,-0.08537965690726193,0.02125534279731754,-0.027803917475733037,0.08204619579334681,0.09743804533050732,-0.03159456291102902,-0.014784076191408372,0.0147579223031924,0.06022697487604877,-0.011710934576204778],[0.1172877444731215,-0.04759393254437107,0.017383787830329248,0.04024308879283103,-0.04974762867762266,0.02109915087905809,-0.002329813813669561,0.04102633910651524,-0.03156118113653424,0.024556091292156232,0.014413402156097467,0.008244462325076004,0.04516969870946248,-0.07820831373798849,0.07930085014739718,0.007571963701678708,0.06527083572626037,-0.028009426654665406,0.008656338277438483,-0.0007387148034982513,0.12978848005224386,0.036634675004566145,0.07171223902655782,0.010274184054215398,-0.034586613519050194,-0.0038743774748594985,-0.056252831599205216,-0.011304998992135086,-0.1537658373409322,0.045575931257359203,0.011108107141460063,0.023842025888445827,-0.09217594587749424,-0.09228691496574186,-0.011913833499562527,-0.05067262077916983,-0.16948583714422158,0.003973762346461051,0.04170696220232039,-0.05592224044688691,-0.12218675246404449,0.05735292773412829,-0.02078032712227811,-0.057334203905531525,-0.08736482553799592,-0.021530147796329183,-0.036626896470776,-0.0732931435032215,-0.17206152828038554,0.011255983880903615,0.03115368974654454,0.07146342142293431,-0.01920410103997989,-0.01671500558211957,-0.03295742185416376,0.02682427443990925,0.021063525328845714,-0.07065569082539182,-0.015742968539093478,0.032654048367125474,-0.06093157534791657,0.015257128373944778,-0.01402893079277902,-0.19026339193953493,-0.13162362702541236,-0.051809331161027296,-0.16907969666937717,-0.3378560997481997,-0.1038383036147235,0.04092280564821343,-0.20369957549574796,-0.42580392801407557,-0.34812152560234033,-0.336266821874879,-0.16972142065931872,-0.2620815956811133,-0.2051091788462976,-0.13630562224277046,-0.16075065769496008,-0.16316598778608127,0.10933582020914161,0.03546791224049789,-0.08023584390320651,-0.040823474469826954,0.018654494003801456,-0.04854288557098134,0.018980990063955806,0.015023516565893137,-0.07030679803263479,-0.1252610020337634,-0.20621593994077964,-0.21444222637011182,-0.38663032454587026,-0.42538849146648827,-0.22024567762206662,-0.41732573672696255,-0.22825049586190743,-0.44691783316158523,-0.34093398041585476,-0.44242487992639673,-0.40223525031584323,-0.36882839459972616,-0.5227890533047687,-0.3075967788643487,-0.5221801473281089,-0.23959344721414763,-0.14507792335494962,-0.1813350482997303,-0.1878015655143026,0.03394835670597122,0.02484628994231073,0.09442929328388919,0.006172266028285564,-0.016608785988500692,0.040930430635759546,0.06665308252317283,0.06403104760119979,-0.2264798070364835,-0.06785974272786656,-0.20478076471120527,-0.4506717250728215,-0.49914393440954863,-0.4004831098773092,-0.37405391729373566,-0.02255089642522248,0.3591375778205638,-0.09614335863772362,-0.2876823975393036,-0.7483951848521747,-0.09528117548746161,-0.2300753318524346,-0.3047898573552264,-0.4071948706115989,0.09012291454161929,0.02305835032183262,-0.26464083123500215,0.07545939716183274,-0.014729280860404398,0.050660755589550084,-0.03130270892997366,-0.007973522749444035,0.0037294743536388725,-0.005219309025952434,-0.08703909854491174,-0.07812333082522753,-0.22111071193389575,-0.2321518435641373,-0.3948452591979223,-0.47639967499741837,-0.12244498252322254,0.0482282632798114,0.10489041903539666,0.2834495762710362,0.16010790815001205,0.21934136419544012,0.40785676285877576,-0.26917891144311895,0.08799035586163693,-0.04498026803670855,-0.3244540012979473,-0.40057185040384546,0.03154514280419733,0.3232859797090646,-0.01575273357908017,0.06480156226583773,0.012939725662788497,-0.08888181636989854,0.05291029751553463,-0.0787336158009124,-0.012470779242008035,-0.06699155010308497,-0.0319212516822171,-0.16610054020716453,-0.25537055728405383,-0.15768926443107603,-0.11283781212006672,-0.050506987349111715,0.14833808801043236,0.5244724181128273,-0.07397919431892672,0.317404919220308,0.32356032204229473,0.6698523492537236,1.0022167818045713,1.1985646801447487,1.141791038869456,0.4360887759023616,0.5499868776080435,0.7165090644736516,0.692431285092083,0.7729816894614034,0.5256142572604977,0.057247784686839345,-0.025649958838963333,-0.10535248751093251,-0.15576640902224803,-0.08115701114323497,0.08993241656801763,0.00833927244199393,0.015043918793715716,-0.18833643274836595,-0.05774264315235548,-0.039413664945577534,-0.3048704445674696,0.13582572047846406,0.2259839639860388,0.05823415237486919,0.07884255340304709,0.43874530482812574,0.5677801127095873,0.4454048387593924,0.8179384817783071,1.0892340901691568,0.8168439721988214,0.6489310712128975,1.1842048203038458,1.0952943278887157,0.7512017370061904,0.7252138168722766,0.8174376152952347,0.22796038114336367,-0.04143767278521234,-0.17238293094806842,-0.04325505229355183,-0.08945449461051994,0.019549832420359646,-0.004938333704675316,-0.10655407111225572,-0.25372846067583216,0.0008794048275539603,0.1307260082753349,0.1705098343904667,0.11338478435921176,0.5803958524746813,0.3121665063681855,0.6969184594336095,1.09870692901008,0.5713647477615383,1.0896087258819742,1.045138409309596,0.8700571807134329,0.4066859453896519,0.9424905966876982,0.5659863102039848,0.3946640944543985,0.7169430663859271,0.8629339252665463,0.6572647918911855,0.5118546913811446,0.29786699062322036,-0.00891529629406526,-0.1056250430797327,-0.005865766076638822,0.017795815112493892,0.012919756050573383,-0.010235029243508137,-0.2705711458938155,-0.20071051849574295,0.2955377014351348,-0.11727750140808971,-0.17202225615375974,0.46701942522991663,0.421575970568995,0.20162739268555524,0.5102492199077678,0.43615008459648014,0.07166178851264034,0.5143849140843235,0.26598152067488295,0.610520209970172,0.6956608840257641,0.30147678983061543,0.34265668686897793,0.3569778188674567,0.31048019503345026,0.6114453721524349,0.26067273862912255,0.17649188283061176,0.0404206409164795,0.03323710070002261,-0.052759844457955556,-0.0069744098220939155,0.10716822510601261,-0.05994497109013611,-0.17423532907143502,-0.044193262493832805,0.1605297729062145,-0.024894026032575026,-0.011436064484904621,-0.00603281253142341,-0.30692786125653954,-0.3006852232533926,-0.1659401455091594,-0.5469324903989022,-0.623302399058527,0.055037228876754704,0.19751023010909452,0.10022206392893138,0.20051412161846863,0.23157424175470162,-0.09118828995953289,-0.20176816707548825,0.23451888438849552,-0.010271072386953763,-0.13544241928066864,0.07130098904837037,0.044839791779405544,0.0010060215088272745,0.03016611371990938,0.037421881525943806,0.0786376104990317,-0.1273737960674727,-0.1383725463060747,-0.17325304319469623,0.1392256744490745,0.08242303318232835,-0.11315862917821057,0.22911507596764416,-0.1744125665147894,-0.2850550612040329,-0.3280146018921513,-0.7002462593687723,-0.8478204125183039,-0.05566475949262895,-0.5635628254065225,-0.2725204463779176,0.09042345211964539,0.12869143154206047,0.0284209777647693,0.04278221550014921,0.09104987234174954,-0.5132871289021258,-0.31232277277451076,0.052755289267265575,0.0490577890915951,0.02186439161149664,-0.03903405889038364,0.02584163257036721,0.045272399743825846,-0.0764394123793318,-0.06971165098246969,0.012629945596355592,0.28409312793233643,-0.2312576951580006,-0.2908710759639068,0.12007261093501495,-0.06629105967473964,-0.5819762490054731,-0.26590876840062744,-0.14849955404566514,-0.6376773613536728,-0.11542648596489662,-0.9388496820990576,-0.32097405175970206,-0.20305460263250824,0.3426815992048989,0.15441711059882166,0.4445735792505239,0.27583075643095245,-0.4003043260835238,-0.24357898226613878,0.1589669358421508,0.11673546939961517,0.03197457863130781,0.060020250153754846,0.05396103335380749,-0.06063534902393156,0.08047471939387586,0.04805174180993227,0.10471445762523486,0.031622275675807,0.17082914627179813,0.007105024983178573,0.39396340754704473,0.48200318654715735,0.0388074514148596,-0.0178611180681685,-0.35696441040237725,-0.0691113705729772,0.35039978558968515,-0.3338603764962801,0.37976797964139125,-0.3523402091101705,-0.29999942629946014,-0.09436652414470677,-0.21781955887127374,0.07773218880019278,-0.5979647075273353,-0.42570622244379414,0.022203771751545753,0.19661950184459973,0.07977781741856539,0.031720553980786624,-0.052392520452218184,-0.03377220244756143,-0.07892563870870173,0.36112602464850074,0.19326712606255667,-0.1342970736245345,0.2836281789073344,0.23301945639526017,0.4862638844039755,0.17332640187952575,0.0017071525971497504,-0.047827886566976244,-0.4017498500797179,0.14500080515012362,-0.049388755063093974,-0.22060516636829994,0.2177045430440558,-0.4445811327357329,-0.4665543541949903,-0.5438390055218472,-0.5351544945663905,-0.5468740954005992,-0.5396063352084646,-0.5667515052221533,-0.31616996229682004,-0.06848152465531014,0.01584437924798246,0.06914051877150948,-0.015596193970187388,-0.04554116577963509,-0.07520890522484162,0.2624807238888969,0.15376090242724852,-0.2260671447899032,0.20001629045768782,0.47318222005339383,0.3242202240526414,0.5060956503319618,0.8819435314359853,0.043446429897891624,-0.977072588510313,-0.40141631416906676,-0.06523612254616548,-0.2618300605251009,0.6649511312070445,-0.45993706238117776,-0.7665729481899818,-0.6318864076434514,-0.7594163457395907,-0.058530230443567956,-0.22861461541607583,-0.4648232197468589,-0.3256706368802787,0.09579114261499852,-0.024083988167271093,0.10407658930425588,-0.005991690757869607,0.0420140921348989,0.12319244415990623,0.19594465608799289,0.08290053029175423,0.21479843493250655,0.3930460705377885,0.6098380369597689,0.051896700267109505,0.19781487283268262,0.17521298745142241,0.4228183905345159,-0.2693834948491167,-0.6320283595070812,0.16242111100186613,0.2657894810753121,0.3695888646611737,-0.5386739870138986,-0.38477644512662246,-0.2680682843961866,-0.38896731549090197,-0.12488357862424138,-0.1946778276079789,-0.4071650219843313,-0.5027505537378839,-0.179939381687579,0.007677886008734493,0.012791411591274119,0.039386101059908425,-0.0903408944058499,0.020075590686431055,0.09643602081114121,-0.13433777790121623,-0.14487587378223907,0.3093434283645735,0.145988805908897,0.5496227628043546,-0.08133093506801738,-0.2019688944188927,0.31392632826004824,0.21366586605694535,0.36637853925879066,0.5163971687655448,-0.12877301014533685,0.21129948719142475,0.015046446467469188,-0.10112173232846808,-0.4053909211086449,-0.5108575447051221,-0.014903016848281327,-0.2023376833563233,-0.21989469005653423,-0.4116514383332476,-0.011030074513807199,-0.03452903699898098,0.01614488991973557,0.03481170410792374,-0.009527528080574372,-0.13452149919476847,0.0808598801351435,-0.09443154240146395,0.0516368209811356,-0.19349885537562783,-0.29024594109687357,-0.12069575307095576,0.07504606232111877,0.06869198230604336,-0.33874977921268973,-0.5474613385997573,0.04434885726798936,-0.3500592422214292,-0.444705244236193,-0.043198681688684626,-0.23465502898588106,0.17967844859837112,0.10775639724476448,-0.07749465502821333,0.07633708081453797,-0.010678935258914564,-0.035739609508229936,-0.2811257437122093,-0.0022791238366261612,-0.028539205088375093,0.09314846100296084,-0.038886117783204506,-0.025512613649686457,-0.13792627677568314,-0.07144771672162153,-0.07710441424494745,0.045954186952961405,-0.13369471839297212,-0.41594936065466054,-0.49016986655199785,-0.14008304177899686,-0.4058249775543041,-0.3797353527151824,-0.34570320156674533,0.09816553882537615,0.12894877611075445,-0.02759931491226936,-0.16756993403274853,0.3275710621055483,0.1505360157870678,0.36235971979526455,0.4377117388717286,0.35858882227998795,0.289700512512361,0.12936402638043235,-0.011271962998970163,-0.04121339671141954,-0.016035956357731054,0.03314815579384845,-0.04050808691559651,-0.02177485725724192,-0.09195728307421205,0.03528844665356709,0.08066527256257146,0.2717896464463383,-0.37502368808448155,-0.2504323023850384,-0.5804523681981381,-0.4279485248923204,-0.10790705841514123,-0.05853437178588596,0.11218288608685278,-0.38541697926196744,-0.18885878158005534,-0.13103931781599118,0.03854193577147897,-0.43319264993658446,0.3888235137550482,0.22585546037383755,0.24914943774746706,0.36190961248067083,0.11551466472717525,0.2785188167893303,0.05790526501423108,-0.048079791004808047,0.010331579461858606,-0.058643665008745384,0.05068483064453815,-0.03949863643232477,0.012625784080368987,0.22530065408397346,0.2746138713995356,-0.03543349494302266,-0.3669168730689648,-0.07415194010018313,-0.3755821099771888,-0.5531856744076676,-0.2620971887091046,-0.48366448823331015,-0.17171674579262425,-0.5411002013034897,-0.4802221600546539,0.07263759493116272,-0.8849004043553845,-0.7786063033659112,0.09659034520809076,0.3193691727411801,0.44697022861396374,0.5429082804700799,0.45869362027527083,0.2746283902908989,0.0056535242444728144,0.08189056279448943,-0.020602079081043317,0.02653792723454312,-0.08496644269971121,-0.032769479699704236,-0.009456046374458143,0.1663958460139876,0.1626688729563744,0.18111974252665206,-0.033423571161292,-0.023979137182305068,-0.6234460865489063,-0.43242241657371255,-0.4807736625720583,-0.5853788652914066,-0.11033985635760031,0.12538536349496332,-0.30805284006612077,-0.06276776998996143,-0.2698943380513893,-0.19752613308643685,0.5748495096297455,0.1962125581990098,0.5388433709787501,0.68462143580771,0.469857073443846,0.3215407217673206,-0.014661158440813676,-0.10694395787721023,0.0208991332392085,0.012472423731848217,0.010686613969480422,0.042931322162892485,0.028231745187936145,-0.10831544806822012,-0.06872068179047797,0.09543170855746992,0.3542288542281487,0.17282476001304717,-0.6484973077797757,0.0669557398343881,-0.2921921090758521,-0.47870669442035585,0.1881488038178447,0.4193696546940594,0.27689486160483123,0.3086426888470787,0.8366801381650285,0.6420404046956852,0.6046339641246923,0.24086511786817022,0.31676143908608984,0.39807911892264586,0.18382095269359938,0.1308839156311955,0.11115952926880897,-0.09288795685706172,0.03835910109470332,0.00582382114098603,0.05113323429868585,0.015574741576381066,-0.10635668628769832,-0.032247675740365626,-0.005476044391741713,0.10856827554646323,0.09431375693633214,0.37725238344872586,0.5141996338242321,0.277949533582578,0.2780005576134971,0.20209955648886374,0.1281096075566851,0.3177744248767708,0.38074400473850706,0.4931602529178374,0.26682491237661593,0.46393518965856184,0.0801003094642464,0.10827142797071897,0.23273050298373496,0.2028718731836981,0.018029328195534478,0.06263715728904294,-0.049770678535067794,-0.05239105428269582,-0.026554790273066797,0.009748118948016077,0.06079454837153092,-0.00009761053360357977,0.0530993978446411,0.011619925553170074,0.04524542793163431,-0.012439760316327136,0.006125040165050684,0.09429265953811414,0.46953099579486207,0.4360038100690568,0.35384626663751223,-0.19289342767567666,-0.17824149209887455,0.04332090843588456,0.08256254974373592,-0.0588483570146057,0.2349273618392327,0.15468731768574345,-0.032841092711132044,0.04213027280830993,0.06063350148747824,0.06298986977389372,0.014635661603484212,-0.05243508629017215,-0.11085524544200208,0.039970712715546024,-0.011691427893516385,-0.05638693240867718,-0.03197076033096917,-0.09020924413955687,-0.04452454958729436,0.07788917021048285,-0.13928508287038255,-0.04995774606229897,-0.02418871752700089,0.05263006712153975,0.05049519477625725,-0.04207538798981346,-0.08121439179136324,-0.1605600712996072,-0.16146376040556887,0.012757025827223507,0.010129435784604035,0.08252742033347245,0.0397213559831049,0.006989899692248826,0.05962508205941698,0.08161259223714933,-0.06455736095758195,0.028596538088197287,0.15655983040131966,0.029327094950501034,0.0848000668364233,0.015938590519048588,0.0035854889773316826,-0.011559037036731026,0.022200813201223267,-0.012263898377469763,-0.026533786633724004,0.044496479167847255,0.012392237686705486,0.06149707035896186,-0.022587911280998116,-0.026027025204927834,-0.027505833974232053,0.08378498442560935,0.007572324373750837,-0.016972498392366156,0.010603026669293985,-0.07657683502305541,0.05813609244481177,-0.05457198643728689,0.05896411735876718,0.02236142367030447,-0.07936959576029964,-0.048904412275165836,-0.05636417836682327,0.08366585907549208,-0.045101354598077834,0.0356718796175812,-0.0860291905904927,-0.04047608073555163,-0.023311152967793212],[-0.023027044478522284,0.044600354745205587,0.028760936590809857,0.022892755910814327,0.005243537033387289,-0.008493861474381649,0.0896334948251375,0.0030430290467087806,0.09394375084578283,0.06972308070040839,0.006384140230552411,0.03953530968705825,-0.04684148932649373,-0.025124150968584363,0.013792074467322956,0.027746545033524955,-0.005501151745087787,0.04710823390932157,-0.07024762192514587,0.03661715835860452,0.019291796062264447,0.023979966458848385,0.022489743698992086,-0.006055949438075849,-0.005098570868267455,-0.02673258909251187,0.02426606909292177,-0.03052538906835136,0.023491122914561114,0.052981706999895954,-0.03901025731718465,0.0388177763665009,0.03533240305296389,0.006959908772389565,-0.013541478657822969,0.004695363842675837,-0.10623128609595403,0.059300256662209026,0.046880994275345464,-0.05702942670810666,-0.05966174948885516,-0.021887087786479804,0.02287237292434723,-0.0018027683664426119,-0.052805865199307085,0.0505026896446062,0.021681554524192743,-0.08918832825862069,0.012652531099681117,0.0017129527213174329,0.04777508666479296,0.06165209086997946,0.01641431667086013,0.012855805849285718,-0.13151025636878805,-0.026589511556426366,0.025487853296565808,0.042246399815728,-0.007414238916855973,0.05549822504751109,-0.008043596386653149,-0.052437515866696385,0.056665265925699156,-0.01195376703166658,-0.1240637080113586,-0.1568685621418608,-0.25048565592105526,-0.39198873857052347,-0.19771260666839838,-0.37642436316316613,-0.3231177947003358,-0.17409748666422234,-0.15800076588799633,-0.018875307583344044,0.03998931034563254,0.02809748649257946,-0.006430970483169343,-0.08795475289622519,0.0013236770997070823,0.04937800337371951,-0.0009604134958409446,-0.03258130070714267,0.0818232247320121,-0.039947214988931765,-0.012097734290497038,-0.04447306357376835,0.03290354297209979,0.0034158168544111103,0.010750260992146933,-0.010389391102191028,0.04648055323179283,0.059081870296954275,-0.032238787920668664,-0.27528144783589975,-0.47819837292298284,-0.6658616415201462,-0.6034079819972445,-0.5527595315640982,-0.49522074259607474,-0.25102542387151866,-0.16856765519677358,-0.2548227656358106,0.06609188719600555,0.11699828382702673,0.15156371960774145,0.26380005300768417,0.3936453880502501,0.07912055280673179,-0.050349963898711964,0.15711589361844408,0.02610115043479974,0.07479067401833943,0.04178024390348432,0.053010715772432916,0.06648246871509303,0.010157502701008327,0.016621492954207572,-0.05596001851958788,0.08457608080068106,-0.008164676817844519,-0.10216008042533481,-0.1251834849253789,-0.29912569258830507,-0.19408352402517168,0.007959166257938995,-0.5041617261447111,-0.43116168300752117,0.3679560199354296,0.37020756140593025,0.6418239325971294,0.20927878414937232,0.09486586339913566,0.03420334166684694,0.5912293665519082,0.5722307554385152,0.5962757284046838,0.5575030912607656,0.4923575067519876,0.18278276204288138,-0.01538820681201712,-0.11221708640067941,-0.03873311553088327,0.012813888776103673,-0.026899904336957575,-0.1036757812558246,-0.09280937846392985,-0.1785246278100529,-0.09906377609007432,-0.06850212433882041,0.1035450672875847,-0.11936403153018656,0.26046765821201767,0.23372045961200927,-0.4421194102186027,-0.28002981301845964,-0.049190087287130604,0.064901757465544,0.33397649062020035,-0.2523414677136204,-0.4079846076468843,-0.08669550966455307,0.12708365262147756,0.3938407111501432,0.3680888676666123,0.4507334968773657,0.41987071189445685,0.04495275759452299,0.03523922103365991,0.008760029637564181,0.06721032542190016,-0.08274238052086273,-0.1289664704968084,-0.047551970554673015,-0.08361357557834258,-0.2371762053967364,-0.27409958026670483,0.11388769495085552,0.0974859902806661,-0.03718460879841686,-0.21138130374672848,-0.15347473364544809,-0.6103176240465835,-0.5155235067496589,-0.19716128054042925,0.19239934876843987,-0.5926258453014605,-0.42732394813033264,-0.16583226646764243,-0.5691210015025535,-0.37258371142146457,0.2929012104366923,0.41377406635307606,0.5533984534270336,0.3309708214684576,0.1150863832493148,-0.06719317584415749,0.010230294437926031,-0.13915764025430044,0.054178603673777824,-0.12863701559175855,-0.18170176786247758,0.004967888164917039,0.10915905348044223,-0.025100310851235427,0.02439516064370125,0.3551485018612967,0.18479109377449895,-0.22589213392387364,-0.8619183104282699,-0.3258172584051291,-0.5806967856819334,0.03265967927989593,0.26671945391197077,-0.19791266185546297,0.11506683124368436,0.27843974464338495,-0.025411144354675487,0.06979099816820133,0.3166002775269877,0.25750209768020926,0.36039461749065865,0.49048606151084306,0.39151389885172,0.016100429346159954,0.027841866542111494,0.05113356465873548,-0.015905922565963074,-0.0485969258521098,-0.2860840797970901,-0.09113838200681579,0.19885541631824513,0.21788787713427524,0.3664240032557946,0.3339881292687007,0.17422838130743656,0.38472144036189043,-0.23668545478000186,-0.01148291663337486,-0.1026065722546306,0.41354747586274604,0.291997989060556,0.14450863575133327,0.02048063150299803,-0.15144843289610593,-0.38159428840919296,-0.011484559168917267,0.4368699990344353,1.0506056485489355,0.7199040271765405,0.7802364688411595,0.21494256614066587,0.05220658691091666,0.07429609983350119,-0.06560054494159538,-0.009603449233630938,0.10087520339061049,-0.25360733421262566,-0.16606292500664996,0.5594684984568825,0.3543895339603556,0.5923637737443597,0.3755718346362848,0.32966177741400643,0.15565703834304864,-0.4573860896604491,-1.1259060444473763,-0.8394906426498847,-0.6810508311417109,-0.31282714636617664,-0.0996386020369749,0.19154691440074686,0.1361184927215861,-0.39259564794694396,0.3564897092455504,0.6853843619404013,0.8098704849489714,0.7851212925445773,0.7722710945270357,0.23299582954059886,-0.05362036846055658,-0.054587927767523664,0.053221515085032985,-0.033329104040728016,-0.06301749086207563,-0.05010857670652702,-0.2271168378811403,0.18869418871881638,0.7680486297301418,1.0090333464638925,1.0272893840038337,1.008991644060457,0.8467429988591261,0.6196039707411899,-0.6569465253697351,-1.3034302904938866,-0.9955165369022559,-0.7965079129173853,-0.7610746485871783,-0.21914693760567575,0.16905475221930472,0.024492862292546852,0.16695261897582384,0.7134632069109665,0.19467121378433996,0.6370353277465927,0.586711151453374,0.20973317395936783,0.07216961924784254,-0.07841106045936261,-0.05361025280499618,-0.0007629140144656215,0.018356270924230696,-0.12135250616352358,-0.11014003596686199,0.17910327671858547,0.34551354376450244,0.895355396702673,0.7090325177712721,0.7870239089976864,1.2545056453439583,1.5758655948893092,0.16994821182955777,-0.4469185858144281,-0.3653048101024851,-0.24897480209627368,-0.3562602137210546,-0.49764164405909916,-0.2860332473725159,-0.30029066882613825,-0.400154235749155,0.2714330238008568,0.2627354087098224,0.301733836116138,0.39948397125057056,0.15779458159342405,-0.019329735761131495,0.07240170045246958,0.09163709057090254,0.015735690097668027,0.1059073990258414,-0.13368569836214664,0.012531804293921103,0.14962330873768032,0.19934775487697878,0.35330468726449543,0.21545602762884472,0.11528996034777568,0.9740129331950824,1.2795147413839811,1.0559090441852657,0.01716373204693761,0.1616852675413251,-0.0025169447606725546,0.009866780896474954,0.06412390025585216,0.20061787096322742,-0.20387471013775774,-0.08476775243594632,0.017329400036522394,-0.059888188569193895,0.02977213043884142,0.18236615298978817,0.15764382920876935,-0.050080523321141386,0.04934731617348391,0.0470285789032484,-0.05345705451602477,0.014862275716066438,-0.08590185807678757,0.014568910961086893,-0.4874843409147518,-0.08947621566030377,0.4941972942585292,0.41882783727634887,0.2944951063468173,1.333825131263603,1.2248039503815764,0.8129805188375657,0.07705595023062774,-0.032898052709429595,-0.24355466974784387,-0.29631763865531124,-0.17008723556993005,0.3620855685100848,0.6594649206267224,0.4833266476707912,0.29759795563884733,-0.11651236433681117,0.04683411893148969,0.03629688092619591,0.07764502237513352,0.0030473824576816443,0.005112422909635593,-0.0027877217885906294,-0.07970908131200549,-0.10617373614362915,-0.06569974758713243,-0.13964588788423032,-0.4675676917839575,-0.07221099982168454,0.21581608650315245,0.24229329257747018,0.8527745496135273,0.26500472755210386,0.47480598659971385,1.1087935196730363,0.6989495466864093,-0.48730514823841203,0.06846689751362907,-0.074188329344659,0.24226548876015166,0.7309860775977137,0.30621304966992824,0.442437909121816,0.2159306178007422,0.029856919123037815,-0.010189501692602673,0.05105912985055149,-0.0588232323637128,-0.032913664102055165,0.04068924671732623,0.004983427610822405,-0.015009031184878237,-0.030471642820006733,-0.08851532493808317,-0.69354383847964,-0.6100322378385015,-0.1852229700488769,-0.3497160323274351,-0.4018256750440427,-0.01819208084747666,0.23729356182654618,0.4098834288488251,0.17645319466965229,0.6527654052420285,0.6664647990558804,-0.19170708473597398,-0.5115716756062688,0.2078888141645407,0.13084086034327638,-0.29750610485132806,-0.04925376656643423,0.13819166180499529,0.17361559890882422,-0.0497059540484468,-0.08299404560368938,-0.06248340585516906,0.018536966225139243,-0.007435581406521198,0.02352684354990541,-0.0011872743472132435,0.05618475498125314,0.08268752504730448,-0.5332237253730232,-0.625628413804268,-0.9567145452152203,-0.5994954412736736,-0.9223113476743598,-0.652386058495945,-1.1797512354317483,-0.049988103461872484,0.26163548251293867,-0.09445906797926615,0.45087256581437946,0.21715551756982276,-0.7515834043749836,-0.7801783063463564,-0.6813104790442329,-1.0211396165520028,-0.29911926667605154,0.2992127407609177,0.07347654455162908,-0.1315261805471688,-0.17549935705450903,-0.051386284566760254,0.0324399598551308,-0.007672261420003101,-0.02644373496801781,-0.07430221396291486,0.004368941557114663,0.18514263423865654,0.00031708004094010777,-0.014758750759175177,-0.9934848799864722,-0.5636558317917247,-0.6573579783250003,-1.0259586282512332,-0.8762164408712876,-0.679648718155422,0.2241241792659847,0.0032960247483677305,0.1363500694058046,0.169573051001918,-0.7784623242919132,-0.12784428656292432,-0.7389621549885825,-0.43905237408483416,-0.10808559099752403,-0.37477045150449934,-0.03547589379113424,-0.11103669029259879,-0.07414408462941027,-0.14535503228104868,-0.03299696864761328,-0.032346376522840295,0.049044950389393785,-0.059253967249105755,-0.12598797423598948,0.2371006088790331,0.3199384244173132,0.4231927085709523,-0.3039473781124399,-0.43464442062660696,-0.35077386263080945,-0.4622502848710218,-0.3941068068698817,-0.41645483371112796,-0.16578565716899277,-0.009436394845755487,-1.0621614641328394,-0.17676124858191108,-0.07295846637158322,-0.8263129790326103,-0.24423879185703204,-0.522107581191007,-0.7148437805974827,-0.5693620796698904,0.011748129834930812,0.13721935733124427,-0.11262218302533565,0.044565515582127416,-0.07715660051382467,-0.022475533880501376,-0.06824254561600973,-0.02697969418915482,-0.13959458901059782,-0.09602015102083872,-0.1071096647968895,0.04343162117434525,-0.6098234903109415,0.23600686943997254,0.2521830149936558,0.22905195332967793,-0.10603835807832418,0.024357683174367605,0.14171579165879747,-0.34807266369179085,-0.4840148329053445,0.31740844201286805,0.1375910895764697,-0.031343467709131115,-0.13805863413905473,-0.6289532604006123,-0.3041893907508772,-0.35278189314033226,-0.1448305799436461,0.07062023468295221,0.10623781541680112,-0.010985442422802172,0.04479282783707378,0.018783058531668773,-0.18311314699769274,-0.0453772286944906,-0.20831633022049623,-0.380065812919623,-0.2835505594178402,-0.3884420597014836,-0.5149487710991948,0.35558656260699295,0.21182575317480973,0.2732387890825863,0.4731269847634229,0.3915227611054379,0.28535739683320405,-0.4911894175949696,-0.07960957511793167,-0.3570685359261153,-0.1296538048365412,-0.4674551218367737,0.006500499649582785,-0.09147009509412035,-0.6636856977365674,-0.23187854770344404,-0.31505611590132593,-0.2209791690687648,0.032607085118864884,0.01307093240325967,-0.03504937000042596,0.020939763306869544,-0.03410625236803979,-0.047563653744836294,-0.24793943533712826,-0.20924036801701681,0.003320273669057544,-0.09451799381408532,-0.051652597313084796,-0.015533897449436073,0.48679160900535295,-0.46155840209323334,0.006282022654968126,0.28189339809433006,-0.024440836581388223,-0.5345536139003566,-0.25132227174543853,-0.8171393355291124,-0.023874816504624852,0.22280527315024323,0.15746693791429825,-0.1847213733212202,-0.24387857382742584,-0.16720580117637437,-0.24181502028915056,-0.07185363297742291,0.009685995853146978,0.04434663841626884,0.07633921706062724,-0.03047272647303727,0.01582652991010484,0.005773789722016448,0.08140404581266614,-0.10732652872421079,0.0559986644899962,-0.06223585346015632,0.1150193458004808,0.24448681538837838,-0.1376516208653311,-0.0024051631162574907,0.10587989764155914,-0.04358595576406811,0.052691915285396476,0.32683703563006944,-0.25385460208100336,-0.7037414825540853,0.14336543634578897,-0.13003660369453127,0.06040998896854363,-0.3228029308429121,-0.23798762530678663,-0.1471690041244567,-0.15313118184336488,-0.011581588638730766,-0.04816360562177564,0.012524622691892228,-0.0694525008884035,0.05512937352405632,-0.016981555447030013,-0.011581504733136457,-0.057891492577776614,0.1190531030529569,0.16596163267641287,0.16765839591215506,0.06202986769795833,0.2465377047951858,0.0751171203692421,0.36434911929248504,0.19808699319185308,-0.042744286380185494,0.2151113800917487,0.27229283356591355,-0.8624009462101913,-0.33251214814316005,-0.5529171133569676,-0.6302368029972824,-0.4930905660147173,-0.5381836110491558,-0.36022380574361834,-0.1015045814452477,-0.03423891812518903,-0.0636479052022836,-0.16783227660923908,0.03231058910661203,0.0017724216657535852,0.08197083806251801,-0.04910453645404762,-0.0033806872263088066,-0.06077754433692322,-0.04408197202978197,-0.020134481267994338,-0.09751409068962842,-0.04952489668195553,0.3784363795674403,0.7100709939857873,0.5357981230278065,0.5318510027126699,0.20645226712038642,-0.05590961649116707,-0.3850818372109522,-0.6528990293027573,-0.3100510186615062,-0.7458492059619221,-0.30498200039699275,-0.06363571123130121,-0.1556587295128076,-0.11418715940203772,0.06673287647381526,-0.15116524474421472,-0.17339226958456755,-0.030098842227575036,-0.1111820583303314,0.06836108675656916,-0.04473897847427715,0.027280134592239567,0.04902007975890292,-0.02669656368659092,0.018841736835179222,-0.10626655370961158,-0.19336737262766746,-0.28043332952451033,-0.1503010691306935,0.09817757343582365,0.12127216684250335,0.18579017806487325,0.013975954370074638,0.4521757808892253,0.25084324886877934,0.4090300139649983,0.19716629303413616,0.08431010413590524,-0.042749903361142476,0.06327712306440257,0.12312745039465692,0.11787185842697362,0.10536379591712841,0.037813874996672985,0.027764528477280743,0.0011969921283421557,0.06639941601089942,-0.04475885171339626,-0.052834577065522546,-0.014905176689338837,0.04662046413180166,-0.011195062041187141,0.001716566495281598,0.07608705002185143,-0.05497754823655034,0.027448535277096082,0.021459996233813325,-0.010522361913640487,-0.0505182692075886,0.21207896807150653,0.17924767797904845,-0.012436476959328802,-0.0520839995931084,-0.16021130005290002,-0.12989952354275264,-0.3064120022790714,-0.28276653543124175,0.01962832734262967,-0.10299829441099978,-0.04628293725113609,0.08129190094969091,0.03699384366811547,-0.046754469237248276,-0.10267470184361188,-0.06915956199430413,-0.01991592502898465,0.03848234800755693,0.04073126461855101,0.07201668679975166,0.06266022650107725,0.08195088531857583,0.07120701348140748,-0.03314696723815901,-0.08942961243432788,-0.08626756809409332,0.0378496702792967,0.039362001950401064,-0.030225576739124155,-0.08415936391297042,0.013788032709568498,0.05938338159385542,0.06329499586375324,-0.04924658954550547,0.01312347043033893,0.035408482963391455,-0.1168212289000607,-0.047886734092027955,-0.03829916517748927,-0.021984505907577643,-0.06067191244011334,-0.04173621239914017,0.08237163509215942,0.01887417280864535,-0.049605448979909775],[0.05305553721434196,0.04639643081309121,0.04142818896316494,0.05170766484689995,0.01128879725673889,-0.0007953598981797538,0.06529930865329382,-0.018334314570942842,0.08412042609852625,0.06441345784738207,-0.004407759773889317,-0.015985148070551156,0.03574709751591755,0.028386214948700632,0.0014627071970371075,-0.04558813313324564,-0.05877823955300735,-0.08787389741710579,-0.0019180032961718639,-0.009226147408869081,-0.09968322521768425,-0.02730082491740411,0.01830686718550913,0.011357167445862262,0.0293489905318023,-0.02325611537068609,-0.057764309091358254,0.0059712790132793415,0.03980912188926818,-0.04592731470761306,0.021626676980532722,0.05339074566204642,0.12653825141404335,0.04364072065784845,0.0024002917415938594,0.002328082956685939,-0.013148981212575715,0.07113147574929742,0.01823388150096146,0.02909325808853351,-0.020796153947744086,0.01409528921809665,-0.01856118385192614,0.04884187164958352,-0.017346422599820235,-0.07038881423398637,0.06331907250414376,0.003173886507957027,0.01304676417782796,-0.025692378615267977,0.06582806663902852,0.036239986031796616,-0.03257332129643583,-0.03109363031303048,0.10612932292395703,-0.013025877454283998,0.01024178859205387,0.028453574585183987,-0.04743553209983261,-0.060654012349294954,-0.046524787050866066,-0.08182455624289517,0.05213194637886918,-0.01820518113567001,-0.1218441750853338,-0.007916261622714757,0.007887459773795418,-0.10183648575034238,-0.026697358696705913,-0.04851435531531824,-0.02675126602920125,-0.08667246767106104,-0.16724325783088195,-0.0271542696350046,0.07040077674910337,0.021969307279255845,-0.011705455504423427,-0.037241497257227925,-0.004470327448542668,0.011243250562412738,0.03092032544464316,-0.009893031804743336,-0.03294399402487713,0.06522776817851314,0.048949666933437164,-0.05502424997019125,-0.004434894686182223,0.037891538852557444,0.01958976871037529,-0.043639038962159295,-0.016754854507643684,-0.1109792930220726,-0.05226404216341714,-0.0877800684063663,-0.1056531162500763,-0.23811458060895377,-0.27709140295783646,-0.4154196284491292,-0.4542208317793804,-0.5152249312406948,-0.25613392002011076,0.3824879777381527,0.2642982454529806,0.013267769994533647,0.08401053582157865,0.18598280272319387,0.17853580412947812,-0.2705840187996022,-0.2553624473669806,-0.047600349884652796,-0.027242301678702088,0.044354065355785253,0.06583861871626923,-0.0026507758816931583,0.09531483409522169,0.02286176680971928,-0.0555905073271612,-0.15231530413586372,0.02117829112034469,-0.05997638319964238,-0.013016278644936223,-0.11009685551946528,-0.2588542806808386,-0.36323935968025983,-0.5094925851070119,-0.4969721497611787,-0.5391676910344555,-0.4671574749144022,-0.07412010633178988,0.34085944280759034,-0.1531024788131004,-0.3360935470512794,-0.33975830506274407,-0.3300604957750839,-0.19395714083168894,-0.09255317757291401,-0.11858941171716807,0.06294788411939493,0.04019842568865584,0.09863603242338807,-0.03081160260378069,0.01947228085004492,-0.000633841919122893,-0.0091406647340808,-0.06122901203918891,-0.029923267989617832,-0.07441466426519666,-0.1575069718210651,-0.23831167368737874,-0.30322080490751874,-0.49107636833054985,-0.6980244853547922,-0.9776964492363863,-0.5814103019060813,-0.3346600025177491,-0.29348196669977794,-0.1856111387300859,-0.2385712421794494,-0.3389912697540624,0.042645943858476226,0.045413034117311506,-0.8096560251649423,-0.4561855662220193,-0.42301151924763014,-0.2544965098585806,-0.10831036261549525,-0.007499967576909904,-0.047256367857404905,-0.045678343020007055,-0.029506353766637516,0.06299829378025922,-0.010785516396690127,0.017938017537492613,-0.022218501956636966,-0.07037212746062789,-0.1865305934865652,-0.33583650327865033,-0.3028612142775015,-0.740842010308029,-0.8993792241176949,-1.0081816951653348,-0.4428162042879197,0.07787316355347887,-0.03271067998578864,