{"params":{"input_size":784,"hidden_size":64,"hidden_activation":"sigmoid","output_size":10,"output_activation":"softmax"},"hidden_weights":[[-0.03634034746250724,0.06706556895295855,-0.0933975994851735,0.00002734589186416154,-0.003834975659780386,0.011303833552681573,-0.032055323560076426,-0.00137414377570485,0.05675775545210136,0.01948842231110727,0.04288301603092745,0.07348354354962375,0.0999372527939606,-0.08013567841197242,0.053213603017918214,0.030773245105387773,0.02749239062323411,0.061449992142585216,-0.027959916225376465,0.018732891319245146,-0.0422342098399967,-0.0010943727177331278,0.05562058250391643,0.005106402488569428,0.07508595102741858,0.037335515231092735,-0.020054193270676684,-0.09948690713230954,0.022744552952988932,0.07533867828099997,0.06856301470666767,-0.03845255225031549,0.036594670770383225,-0.016216035218505887,0.0001722426509067118,0.016986925401189092,0.07186936723649791,0.01997390507442861,-0.04084246567633422,0.0025673400721449363,0.05414497944354057,0.005602680840975942,-0.06453376493794456,0.026302543068520003,-0.011884020743991376,0.1683645072081559,-0.018676109201336562,-0.07912783011808107,0.028110452785403393,0.0610419763627336,-0.044247087951576794,0.08700097741258225,-0.011699679043697718,-0.07136157486246807,0.09248435460200861,0.07713941956640424,0.066142992005668,0.027819764132437096,0.014699359530857834,0.06283280792143137,-0.06664157915262395,0.01769774044258481,0.020711609829860225,0.0408359294313853,0.03288017741033808,-0.10398262107660211,-0.018514790707233546,0.05938258399664103,0.013038101225997743,-0.038002210341935336,-0.04386925502082048,0.011562139684214535,-0.07547760782225467,-0.0008077399331508675,0.025689847338470878,0.0371183485107708,-0.030866490931940705,-0.046614255180649836,-0.013128877321366899,0.02480892967957545,-0.009671490282861538,0.04733056734257367,0.018724178054164736,0.14201896570421352,-0.02106092685646667,-0.04008933512265319,-0.01792183887424767,-0.03623388704994209,-0.07136180868644913,0.05959191348288159,-0.03181056570205183,-0.02539878258883876,-0.012265387607759382,-0.08556109672894864,-0.10641069061237382,-0.23202491157216232,-0.17078464114675362,-0.22065588328859018,-0.31981601858555414,-0.3483182774470373,-0.503396954159143,0.0021221218523132003,-0.04200013308822476,0.0770713900518354,0.02063334886638855,0.1041658095526395,0.11621589814324684,-0.03758679524068554,-0.025068715359392535,0.028675109165784442,-0.019234008639060614,0.008840429705134724,0.06460570358465886,0.013841591258148524,-0.0021385220986535293,0.02210129912058855,-0.035655893202313424,-0.020120529764610998,-0.12230273729856443,-0.009999931763723591,-0.026461144005195846,-0.18932668232540198,-0.1663658658239326,-0.36506073393547206,-0.36922046383921936,-0.24810731102006842,-0.4660465174537442,-0.40933865892299975,-0.1927227609276159,-0.20425388696300067,-0.04981007656011678,-0.18842578218431516,-0.12332623093672965,-0.013912613934842949,0.13767503501616937,0.11663194138781226,-0.0487149405441079,0.040348570421812446,0.013878397525564676,0.02280424353350806,0.04523256225326767,0.06584151844427415,-0.07026299563126018,-0.01246003476324813,-0.06070694499104888,0.01721116590639467,-0.04379714297272591,-0.07955888465643696,-0.07593027398016083,-0.10410115130736111,-0.24288342915767167,-0.3252417856465616,-0.3553809618114708,-0.14848045775583832,-0.10171306155297337,-0.30289014802959596,-0.0957765735653242,-0.2976072382919235,-0.22398787317891558,-0.4142311595884991,-0.2965389533805079,-0.18564902079383444,-0.08439574687477401,-0.07284279404559713,-0.03940539247405857,-0.1410753108638746,-0.06628258027609024,0.007190117712329506,0.07151799841569917,0.03741372686539046,0.05401105867709652,0.02186901029639514,0.010904476702509866,-0.06895317212240684,-0.025532346593789272,0.014517450644561962,-0.19488796021985522,-0.16329105564885782,-0.3110068461916718,-0.1569041157800367,-0.06333047490044416,0.08687208046486644,-0.020062478924086927,0.03074380822904195,0.0014531940139812735,-0.09938367482007096,0.11832810455480512,0.15769923784486653,0.00048093961793228927,-0.26735191328390745,-0.12522078465461425,0.06555757720151606,0.02364781851062525,-0.11560921817178356,-0.0685998855810072,-0.03891627895021711,0.005078542391331339,-0.03518093836805226,0.001549277796582025,0.04568075908983867,-0.05065885830080035,-0.14728569501891478,-0.11790177703606584,-0.1965217725750049,-0.319480424618735,-0.2698769845567363,-0.26698332719587836,-0.2463116934504243,0.09186169123812638,0.3042525549818461,0.20105227818293464,0.07884728893954687,0.16812865185579942,-0.03143491395160831,-0.1587558724813649,0.04071568111540255,-0.25937574245501377,-0.15598916542832048,0.19009411389776426,0.29346487772200713,-0.36669877840848847,-0.08334719870148102,0.03758979515759843,-0.021005757215482652,0.013146873411739313,0.04777242232965175,0.025732283639807382,0.014047972401283117,-0.1838869413201771,-0.012232237598589225,-0.04848515840951979,0.0991140790550912,0.04993910655112057,0.0027270577228894837,-0.3344409501717265,-0.5871609035438429,-0.1972887312274425,0.43873102393684216,0.3719429172934628,0.47068879834893007,-0.15018882760644536,0.18345047772342535,0.1628738258163924,-0.15234972135909794,-0.21161126150266693,0.03485280162246619,0.1323750946060613,0.25889075396804745,0.11735994096306701,-0.011894887251177945,-0.03496814158645474,0.02188768883301271,-0.0018384076522891038,0.0024901744868048425,-0.014832721137150557,0.00862266026040442,-0.06339489737860378,-0.026637343273880013,0.010219722499527354,0.18276478799299556,0.17655678867811048,0.06494486051817834,-0.39729300928705247,-0.8211198826657602,-0.10726897550090607,0.4079531926448432,0.5545613177375421,0.34823131072400215,-0.18824336816986068,0.19572241720317304,0.6303963250011466,0.4397562886391828,-0.09545411025620179,-0.009243650983956606,-0.09445055690931276,-0.05330562923765078,0.21536917022884247,0.0895853398880894,0.14488307211903256,0.07922026222698318,-0.03418664709879855,0.10500179316062112,0.085194670993127,0.1271579322005677,-0.03594170747699436,-0.10863153545914055,-0.11461633991165895,-0.1544473172293883,0.020219235740790382,-0.045670409794336085,-0.11950241520791613,-0.3015497357708827,-0.26864255335040493,0.3216407780713069,0.4336904806116683,0.13544868654576028,0.18686844502266248,0.38518488276646107,0.7947827348387878,0.6139401227234054,0.08571823068270304,0.11810050092932932,0.16698556102568604,0.2556869447457846,0.4221284052967305,0.3279743521816015,0.1708643457330804,0.044799132014034355,-0.05236169459817649,-0.07651365028526852,0.02210677664721285,0.041524179414715916,0.010854822755675916,-0.08051877170235465,-0.15444608914064786,-0.2329956444253501,0.16829785219665494,-0.035814662033008905,-0.006036366373688848,-0.01974141403834753,-0.09185310882538868,0.6007311415618214,0.3185821866755357,-0.17223809812345092,-0.028685883529944268,0.17820593155778494,0.3528061914949643,-0.15189428254603,-0.03762430929281106,0.2092358739259236,0.19121896259244311,0.04706400205326493,0.28378485796899844,0.09456256432065825,0.043050561067768806,-0.0619664760348067,-0.06927832323438084,-0.0031782484496069986,0.011226625590074606,0.11823070295257052,0.07327408487908212,-0.11205955121663949,-0.10490482717894628,0.08980231796095872,0.05346530481902358,-0.1169788351390474,-0.13293816106238315,0.31791276867665724,0.2092676030360495,0.7682090896701105,0.3347889331910556,-0.08532227942583566,-0.07341643542005054,0.02556310527671555,-0.1692114067235994,-0.24157564349005375,-0.33344927780408107,-0.19363958043476934,-0.34306975617446894,-0.028915785340028914,0.03689528917486656,0.14075230905589212,0.10037385151652382,0.01673848763782923,0.01748024429303719,0.020316457585719497,0.02158111605754951,0.031048947237852578,0.031832416833718846,0.1157166964061693,-0.05715131529071391,-0.02859126258468163,-0.02238472191093787,0.36558101778618424,0.18851481188566754,0.4183804030205506,0.11089673141348728,0.05865566050313795,0.38912256066969003,-0.1009684921857518,-0.35289852404283556,-0.2408685459365309,-0.40662677693510946,-0.13530344096638572,-0.2194437972953906,-0.21625135738211756,-0.3251990104241089,-0.11755995659398355,0.1386221807590947,0.1084704274161866,-0.06345832049851326,-0.012619809936282842,-0.04273751951534115,0.058027887004358854,-0.046353580730140675,-0.031141593139771315,0.07033990250085469,-0.07432381968596079,-0.20283522010067995,-0.24742785711570725,-0.16243702011305985,0.031494878379249705,0.0861560754728937,-0.06071643889233987,-0.01781092965230951,0.2339703103374623,0.2546937223622529,0.11495267299700905,-0.18705255801098217,-0.275353315577955,-0.09206166116528132,-0.161643071718846,-0.39818106811030063,-0.227376816230554,-0.36559392434452503,-0.31223460306146045,-0.2524000363800235,-0.04917229192287328,-0.026441048694020784,0.02776264024242717,-0.04073431053417641,0.022915685919270977,-0.06579648714472348,0.05918722748697695,-0.02559940014909555,-0.18884139923257312,-0.0674094890347693,-0.00790956941984052,-0.05557678535245014,-0.07713290006866827,0.1756961990722349,-0.030350458053736803,-0.05723636699935284,0.0710668762051888,0.1954327622457441,0.14639268464858582,-0.3649426781697145,0.04188227835837523,0.27916397171083984,-0.3095662780469503,-0.29150846880737863,-0.24349631881961697,-0.057906621660780776,-0.2742033529822784,-0.23883186310641424,-0.13584856203682164,-0.0206033403397781,-0.04927197714039544,0.04626862169499892,0.027604859054995476,-0.07642051568364143,-0.0043118560434531935,-0.0704316825381879,0.09446574015557888,0.11815655873542737,-0.20929157304594187,-0.12726870851156755,0.059299626785699715,0.14813202611998333,-0.04834490855938921,-0.17762033159686252,0.20120198556412372,0.11228701900976222,-0.3928169512321353,0.0032891501184450418,-0.22459772793139968,-0.040921385339065766,-0.2079345777207088,-0.35274713281867404,-0.3517984056797499,-0.2856026911096834,-0.2587858639143113,-0.27473268298712006,-0.16318711000576117,-0.18842560614686965,0.06647545795413785,-0.001941492133630388,-0.12526275779631474,-0.05316640993539931,-0.08965959413797646,-0.11968657546675136,0.07485648949957542,0.06441931096018354,0.017145313961175617,0.11125065444945637,0.32643280796597207,0.28610252036831746,0.23611317226607864,-0.06625159045320901,0.4538533663292122,0.08513695496162237,-0.4145300159077839,-0.7420371044862029,-0.6253945048311839,-0.22870631151791743,-0.21044226706386124,-0.08555203217449586,-0.13049100162746724,-0.0694906661630215,-0.08902955358034444,0.06963108817316423,0.06118564085110801,-0.030640941418199792,-0.021486660273492508,-0.030074039104361332,0.03052768375822082,-0.01687460147561243,-0.16307876773516766,-0.1409458117076706,-0.3290916681413057,-0.410289492780574,0.06957200365001076,0.1669052547562565,-0.2863170731902738,-0.10942953134928343,0.30752095612584485,0.01666794112605865,0.5484054382437975,-0.033847295147519635,-0.7946173070035569,-1.1337634564304042,-0.7524537420599017,-0.5602062198492266,-0.37689565616516096,-0.1374750362988565,-0.2546795362069112,-0.16548306612907268,-0.17380575215594385,-0.13611489248212866,0.08655596890416395,0.07121098603614776,-0.014301817118661304,-0.007591777934892205,-0.13260517510656794,-0.012276199122830803,-0.16598688675686651,-0.41694179440057505,-0.5357684014865728,-0.3123214379771826,-0.04538809684865578,0.17210050824335776,0.09280476872220862,-0.20614020240638245,-0.14641299329618093,-0.12838297217735675,0.46057002726536567,-0.004895130963258562,-0.9637369652186281,-0.8784982629296453,-0.6021656893482905,-0.4359324408667711,-0.4959276295205312,-0.3162921839729583,-0.2682789121069651,-0.19322092916853473,-0.20382126268309556,-0.014738283139696343,0.06869074224528506,-0.03091325859367131,-0.009183400058072073,-0.0657376967927666,0.030290827340421392,-0.08517213410871012,-0.2553797381316146,-0.2697017946417206,-0.23454404113562569,-0.03815618873580661,-0.07637637488744277,-0.015570715487036674,-0.11054732088208924,-0.10607430293779592,-0.09068513548708358,0.17863054144286566,0.3356558298228455,-0.2951463362167537,-0.6990665007267444,-0.2232823663676671,-0.359822466109902,-0.5956853119372207,-0.5918887064783032,-0.15449170622397718,-0.18787120855124012,-0.06734103078911374,-0.03415280031645007,-0.006232178012496207,-0.017975070581631464,0.036514044417542704,-0.045370350474990905,-0.05808566006286649,-0.025996480801841693,-0.008532038107732032,-0.2471085893907798,-0.26558191903273853,-0.20388302902153896,-0.000903973630983494,-0.09117034441637985,-0.41979614552012967,-0.04153828583932976,-0.1041300144393057,-0.19996993680252234,-0.03882302833957952,0.11892575869728782,-0.27127582411240386,-0.3550015128546039,-0.4759654489446105,-0.5412195344924811,-0.46040323878322037,-0.15526814483776769,0.11141727638131935,0.04847249636045179,0.0023777443155723315,-0.08416484612406791,0.0028332775646739018,-0.11587797967756613,0.03248044683314053,-0.0700207485507264,0.023762739939812056,-0.05043048849664603,-0.1371404128312423,-0.0733948711590363,-0.242116765606849,-0.16421032064881383,0.27028511270561,0.20473819618395614,0.3186012440522328,0.4222671196908311,-0.10264129422062761,-0.17444969988461648,0.012314180557411595,0.014703740239060695,0.00010615937644473693,-0.43031450166773894,-0.5118232094905919,-0.33824171399890995,-0.19644014036118707,-0.05842877526141212,0.17230184707676421,0.08561596226598246,-0.0004177206014111009,0.16258427082780758,-0.03555383720691768,-0.03909671790890042,0.09481997521153568,-0.020946235159940447,0.030433572674875512,-0.013009677852836266,-0.02110083105244383,-0.10636384318994205,-0.03771794986548374,0.07897637186331484,0.25583339095340535,0.35222538897479,0.1690616155226564,0.4388407052401889,0.2418642687737311,0.10548940974906076,0.1505669624668298,0.20107817004424827,-0.34551694394604276,-0.6814330196378879,-0.49758917563033317,-0.39561956979258417,-0.18086061461808048,-0.2538451503489264,-0.0035390676037174626,-0.009272699706184934,0.01533337796159826,-0.03221404494031524,0.025402243566212346,-0.0035985144932127776,-0.02917580788705922,-0.01993800136434112,-0.015509137429529044,-0.0676589591984956,0.012558093026556987,-0.009765641320696565,-0.010386750755122423,0.05103543980814097,0.03326622012237573,-0.09409707278091291,0.2228698561063452,0.18968601722089637,0.21103456751924354,0.1330442404091343,0.17050653799450785,-0.08051749385834647,-0.40098988095690746,-0.43215646920348677,-0.6362935647387234,-0.4858351494841042,-0.41441813478137146,-0.1323563709454919,-0.13077908468415603,-0.17790907905571748,-0.00567671969488015,0.02504562018505521,-0.03951309475963959,-0.07798581245136166,0.0029878844449354623,-0.04108540782960519,-0.014861467479849087,-0.003699738450836708,-0.09350866161458718,0.06429981301093642,0.0559601102378782,-0.15698813008879386,-0.2930499036763445,-0.22580820066347382,0.03486344901836728,-0.09011494284691768,-0.26154064779764125,-0.03630815753953298,-0.019739421050763303,-0.14246646985872713,-0.18049179206636165,-0.2933890878678501,-0.37507850095840495,-0.26149399055954353,-0.07730608128260817,-0.04792777984361058,0.036264005884179634,-0.06642369644883786,-0.027677613592237294,-0.005333637806409257,0.06005643190727202,-0.018911506279794595,-0.012467667716830447,0.03601415354260179,-0.05397688972027774,-0.04957856251757803,0.11915558900588998,-0.05377902971571984,-0.001034203218962042,-0.0999222977826939,-0.06496295922387796,0.05141854544118198,0.14349020235591473,0.15010803426670863,0.05735555818486681,0.05528313424952554,0.21477582415996366,0.19737050949711094,0.1157352812459321,-0.01605779539850174,0.05293465861737619,0.08061527903707014,0.037022430129216445,0.10350961782668214,0.027956144953163915,0.09773596014434986,0.0555752893068923,-0.018491619572491097,-0.011481193014153554,0.04473558421216251,0.021641717085161636,-0.020073174549105167,0.014687785140237143,0.006232936793694881,0.08024951833509379,0.010298608575985298,0.07096968071401094,-0.061843617305228034,0.005007824708474442,0.05039387010802633,0.07688846796506506,0.06576441569040066,-0.02509945986763956,0.002997270476639616,-0.0558005205156976,0.026162062184005894,0.043779549760037395,-0.0570365724595995,0.0834607545337521,0.021917852649957232,-0.04140803555108904,-0.06014184635854907,0.024739694625637538,0.05285771844189063,0.03673170620057493,0.05562331435222211,0.04992441380206274,-0.03999885648052718,0.04199751451406601,0.05412979051999328],[0.02050537704741314,0.05099448072802537,-0.027552795851913555,0.09462196492198069,-0.019567829256154055,0.04185755028049277,-0.028066728063902233,0.041347428019206676,0.05442316420371959,0.036107891201990164,-0.024765296515355546,0.002984734993171816,-0.05874230736819225,0.07630500849956344,0.053207265409546824,0.12814521344804264,-0.0424369500290574,0.032068981525879156,-0.00872800408140625,-0.008120084944003882,-0.07327186621646406,-0.1301252210665852,-0.075016428050475,0.12531350033608368,-0.08740817720863872,-0.00004707501895917763,0.05048683171903366,0.002403587245715779,0.048982063030527344,-0.03240259118552188,0.06762403131084146,0.06423367620569079,0.0954790306770217,-0.0593357604415637,-0.025351951613041043,-0.046637582530354764,0.05254508300807452,-0.0004687688679649699,-0.0950664474198273,-0.01813136581047452,-0.07894407643882845,-0.053334596106040695,-0.0180106951791799,-0.012046578517306278,0.029867571499821475,-0.01776671099628439,-0.05196289453342908,0.02030801754263805,-0.003937533510689157,-0.04809436897947069,0.02970514147389435,0.06705204681601265,-0.01148648059122988,0.05434969869355853,-0.009881815034532324,-0.08597555810973909,0.08990172576617987,0.0489241357391316,-0.009536596689834788,0.08803402800674111,0.07370674832947594,-0.005393580135479177,-0.012033855445952488,0.010974208218833882,-0.10866077535436199,-0.05525481132372035,0.1089028838985032,-0.032628931970902435,-0.05718968220651421,0.05259184336796148,-0.1157355209860753,-0.22570165475843415,-0.08854524966003309,-0.02684886190402045,-0.0050698048371527705,-0.10046158250094532,-0.09830120529098137,-0.0036736113525898,-0.18191157471708658,0.039776936723097386,0.027828958075855042,0.03690573804816994,-0.07223525376113883,-0.03289436290477058,-0.03774243185339761,-0.012049338678095397,-0.08321141280311568,0.06662600543159825,0.026513016195885832,0.006000167235785871,0.0605793643650345,0.029308712259174773,0.09711728871861752,0.18954514447046836,0.33265123205716807,0.21291492848396426,0.4341963604944415,0.40620953659908327,0.2978385420513335,-0.028961831690829287,-0.07205655680856728,0.003886940496320652,-0.2009817420616512,-0.17401539214346282,-0.16195026017157862,-0.19157772843323595,-0.17745706570249659,-0.16466722671950956,-0.04466010326771824,0.018612379440666387,-0.09684954630361271,0.027884690511608294,0.03220855792557365,0.0662872140792394,0.036695432839209126,0.06606771693694632,-0.05098668816182884,0.06338862303045696,0.09084927317156247,0.22345064721239963,0.0988897184978939,0.3959590785021012,0.4042275757303552,0.3730344173685073,0.22535677705494694,0.07190050921810706,0.2022181795750329,0.4120211433089981,-0.19625490862416728,0.02231970421902323,0.2583592771705389,-0.12432870655442708,-0.30471803579274986,-0.24666923355667983,-0.0904745260309172,-0.05605567659035775,0.10944383609622732,0.11099634058035103,-0.06260001582056172,-0.036531329118896505,-0.01581409882509207,-0.01745698621907733,0.0655605580370186,0.05355073425324368,0.12994238262750563,0.11073417981526061,0.4231398307861135,0.2771356570819676,0.0011171888176133233,-0.0009153981572587954,0.01138168946396692,0.09120527999466689,0.18007309392362936,0.6007754321172332,0.4531903463304332,0.1804543502662575,0.24820105674137896,0.4919024065743873,0.30894199603567246,0.2111474273025327,0.17055744962234742,-0.18009022943281866,-0.2024657950970864,0.03713782890408128,0.2453331543620811,0.11333359542014748,0.036391792881198405,0.002163450708103518,0.10540483837966942,-0.0032501897316733414,-0.06964254303787126,0.08921452179722794,0.09116860771970407,0.2532688755601666,0.615735019220799,0.11026040880934995,0.11047736117698813,0.04396977053814781,-0.08923454877197151,0.17991745771076592,0.0472730171979404,0.41342350604736955,0.6994600443328436,0.06000245203850974,0.10447098939411162,0.1475215426902473,0.2370702917685264,-0.0036407431171200273,0.04346692666126959,0.1195057121546385,-0.14767700994109276,0.013166933347040326,0.13520721073150077,0.11706692988479735,0.029353075114175647,0.014779034822932666,-0.0191313859194558,-0.10599092010687676,0.039685679499840726,0.1257832687928118,0.09737781475365949,0.38133861577030675,0.37984220383112466,0.1942233969016646,0.17365308618831068,-0.053679548354520754,0.023056940126319345,0.17094326987461986,-0.06373269037902289,0.16282223863075204,0.1262791399135812,-0.3509734038723466,0.26508052906603413,0.24403727719237844,0.1681283562676744,0.38366888185430514,0.060045276595529204,0.07252933770243225,-0.08206082598463209,-0.007440723382098317,-0.03545189433535196,0.030242592873252146,0.024555480895590558,-0.07437919927541639,0.0017354315125500393,-0.008021995579254695,-0.016436144195533468,-0.04522928381237079,0.1544016179224062,0.23862625496444545,-0.03845712045287498,-0.04767437047063861,-0.07731802414265011,-0.26525256168681144,-0.30245396605859376,-0.47423116237389107,-0.18597067750229904,0.07430151875370958,0.17149140791670922,-0.12071417769724092,-0.08799993549201088,-0.05942005799206188,-0.005210456153020407,0.11793330965290864,0.1700647140999654,0.32374277970570453,0.12410873673769386,-0.13049421719713666,0.08242636444554512,-0.007814024897678679,0.0011710851263690603,0.01456993098401599,-0.05393112073579828,0.029513713873612856,0.009377906983661385,0.006833580317625761,0.07170357644064934,0.16826790007355702,-0.14928362778237303,-0.014879049801454918,0.023492532105265997,-0.3902732303459134,-0.5800582910171502,-0.402568041144488,0.01642381803511146,0.2100301755187426,-0.2160037454998454,-0.07978335391181567,-0.06335666679421208,-0.17980528867390572,-0.24327249528021497,-0.5220071421608089,-0.23974112790621807,0.3759663088870251,0.10704501146998367,-0.14963295271296598,0.01916730669135715,0.0526098087771589,-0.006169553106782682,-0.05678396562426594,-0.04313377035205602,-0.11523476614088463,-0.012480252526162186,0.07265846664327323,-0.03584694916171281,0.044133319003581147,-0.050350158984390526,-0.15509418690437454,-0.051430652045229786,-0.24333406937376814,0.13302420586190503,-0.14854167606415952,-0.12635768423620933,-0.1906579479152057,-0.49729292049607093,-0.220419050788796,-0.08400192414775107,0.043297207580722995,-0.042176339106403095,-0.4224828139968105,-0.12627233003038324,0.1339648165865572,0.10627415075822927,-0.24862917108420546,-0.14493028236972152,0.10281813111043937,-0.02374341389424625,0.07794836351491716,0.030778181846141527,0.01596875352746206,0.06532769327683795,0.03278623861329488,0.0004841289762877251,-0.19265944523364248,-0.13562129064536937,-0.4216482461623822,-0.2862234714630176,-0.2818293461465691,0.18355166299096506,-0.385931850011056,-0.1284449756991859,-0.11831663197098191,-0.02122389803564133,-0.3589236272779708,-0.4488944418830692,0.1926076277223948,0.10307951131734305,-0.42038596942653644,0.008728850584019045,-0.17137015670235622,0.1359843146167729,-0.12741563574130915,-0.25638690038533507,0.03879629490269321,-0.019112960101964123,-0.013642344720072584,0.026327277671336174,-0.012754332090335262,0.047656513914518056,-0.12117835854223805,0.047706477006278565,-0.0960544218351431,-0.11051878744352328,-0.36808400624245025,-0.09688377757558005,-0.03333441575684443,0.3313153442285538,0.12613732836900035,0.3781068208422038,0.014599455447098224,-0.15375838912017295,-0.7322934034663907,-0.5759846594534569,-0.6190520980995449,-0.06937656477780561,0.25367542035858964,0.2971655267535932,-0.09236722954313088,-0.02856991646669108,-0.005297495329866003,-0.21996844381900024,-0.007504580809581697,0.06603897426130118,-0.0753429469251352,-0.10597149110499077,0.1720811595876529,-0.07614049414011578,-0.056914247188297885,0.14705421040089356,0.09468494548464244,-0.16893108206709653,-0.15079619297079505,0.08681937024337137,0.00988023721828696,0.36170417908472485,0.04006538656605824,0.2128637012160602,0.10819029941613802,0.15922989152304293,-0.5252732282912791,-0.29619072053985546,-0.34080902514099676,-0.3182029310303882,0.3282523948261221,0.3404301969059345,0.38333881051200314,0.21622026152034604,-0.0898316520697038,-0.11464757945078567,-0.0001741926747092869,0.027916250366544604,0.05994361296861262,-0.050682136941985645,0.0673311279826067,0.004668298992445232,-0.0039141476041508515,0.019183043544003374,0.025917817511595442,-0.1748681978600165,-0.07473361901894904,0.11389438675335943,0.06736890927851066,0.26289956230699896,-0.29425327401376367,-0.009690179097122414,-0.1638427816410226,0.1356153691358945,-0.15823138215769655,-0.6562383366392964,-0.5857142751805793,-0.31792171128744706,0.19286319316051131,0.250885010191082,0.20115555077820135,0.1952661382995006,0.2215302861387256,0.030214834943358502,0.05144055749347435,-0.024119757972696415,-0.04302751225494026,-0.03454403499451627,-0.06643256689810877,-0.03926770331769413,0.04517120260148217,0.11276294710298454,-0.10837434420446958,-0.1318149704932921,-0.4968760292674171,-0.6032978080706387,-0.3470287919269075,-0.05300850821580414,0.033647986404667915,0.2339489234065125,-0.1518662163832735,-0.07336759156065581,-0.4777779772312952,-0.4441358193803676,-0.6162030265632558,0.02678509296231756,0.24847353388640905,0.15562960892560224,0.12515186548821666,0.2906213688017635,0.1838601617229554,0.2087549487916597,-0.04331558400503978,0.11410293649070304,0.020420875670097788,-0.02211746455505411,-0.009355246206027248,0.04153556696734736,-0.008105385030804189,0.11112009080504186,-0.33634972879571506,-0.39126376690542525,-0.7034321900982264,-1.095044777400385,-1.1911559368449385,-0.8367311689650764,-0.4475376038294382,0.05026904327220844,-0.17032394695333208,-0.47525401895748876,-0.5322706370502174,-0.29981493591780045,-0.14414190163295532,0.14877764188956968,0.2548637782616837,-0.22994955111531026,0.24989959019081565,0.5203968064029845,0.23196969504857268,0.22961038109522103,0.10799778463189531,0.060578930851559,0.07829647585290127,-0.042699696374303174,-0.07972413478306381,0.059066459675709386,0.20696632239173732,0.11155727615477838,-0.21752987658860815,-0.2034393066028443,-0.8275108554235179,-1.1217272079386642,-1.200421927098706,-1.1015482202950708,-0.9264775666014545,-1.1306686208642032,-0.7303553849742058,-0.9964669821156689,-0.7274082016067962,-0.314013582747161,0.024211327054838336,0.1133987241287404,0.07000593723342625,-0.17082950136907332,-0.13670567492068497,0.2662693745367436,-0.005267295448311321,0.005173575769024052,0.05154578850444797,-0.03951702117228648,-0.010324237057191734,-0.048343813132513465,-0.010138471846758843,0.08738274408798723,0.14415729820772302,-0.028270752028971217,-0.14830388554708523,-0.0029074574977279648,-0.4657838791891397,-0.5676884202194711,-0.1934767506126338,-0.4677283012667928,-0.757627967837193,-1.0141503961665144,-0.7996109639559338,-0.6293643274469493,-0.25173337316538963,0.03102537658796475,-0.19878659226757472,0.23646360999495195,0.17487075956937354,0.18557833413641894,0.4088430131980292,0.3745332926398243,0.0027656362791471188,0.15405033383940384,0.04055552455994718,-0.04721602648062363,-0.07047982231840645,0.036337634273282036,0.04211205906806615,0.022155882785123523,0.1762565297386687,-0.10633276906144994,0.03271247126136246,0.04825956094974684,0.007447148062611246,-0.19981350672294002,-0.2456279257943715,-0.21122120185812177,0.09254126665301225,0.2993157336403731,0.47534920566886807,0.22315298755184743,0.15056570745045594,0.04982946135123956,0.06673430706029888,0.45371825763482054,0.24992069426337807,0.3950117276349303,0.19638173465175154,-0.06367903594017468,-0.043672197558067914,0.13231042205212062,-0.18519833954400197,-0.0032095196503195097,-0.05226178460896764,-0.024919426031014193,-0.07658347634402429,0.07484935351142438,0.15509798697693122,-0.007128449919914142,0.2202165243674771,0.4883488774864502,0.40126559802454165,0.07547920969730314,-0.12320421535533256,0.25243459322622297,0.5649403787881461,0.7040897382626266,0.868545697421614,0.5692713341398218,0.08804131251412713,0.23713225812669655,0.06640274115651637,-0.27080680365209364,0.04146193044624978,-0.12369056582511703,-0.20754815502116816,-0.05842072538478371,0.13311226862767897,-0.023591642332392686,0.027227738455659754,-0.04173683321641787,0.04069140715612042,0.04731633827656063,-0.019464842218338954,-0.0018838982579244096,0.03938940525686234,-0.04067608588356436,0.07271835493193365,0.30507420420712617,0.45154253631729296,0.39968825791165047,-0.030601765624315998,0.4750923327888198,0.6660717033565423,0.6434150013991576,0.49818766026274347,0.7622384998134337,0.3897456514531839,0.01944299842062675,-0.34620792943904294,-0.1917351655849756,-0.024467462027940694,-0.23159663871271666,-0.12305787712122257,-0.0969351067819381,0.13184882236114298,0.03965564637616866,0.022084765135843988,0.019549299259899473,0.06198039594673184,-0.03297508237502347,-0.0028980702104377948,0.01055286906529968,0.02910194093855995,-0.004184573328157746,-0.034027375879416046,-0.060236760310434886,0.1502330858580479,0.34008968003055406,0.5615736711410226,0.4812910975681927,0.4660015182907353,-0.02479557056839929,0.07902791558476942,0.417320819656343,0.3321023413346968,0.10782624109738134,-0.18502659883197906,0.08584236435942866,0.2860585971182791,0.018868167110023364,-0.1866614986701762,0.06282100339428756,0.08918614006401558,0.020696364800502492,0.05244584722129448,-0.06836384449787548,-0.0875507089348399,-0.06217721781643098,0.0635318573155642,0.009865998371462069,0.021592215471175624,0.1577407114453456,0.13899345973591185,0.22503478929381537,0.218184353547867,0.16001909542234063,0.3302012399653025,0.6933264831460089,0.916478450371123,0.2377323399984756,-0.07229795705802447,0.3563918109049816,0.20082825802223678,-0.15548298785684203,-0.01876383182265299,0.1514208051944353,0.080420231231496,0.05352012000901105,0.09068686905911552,0.2010332559659609,0.019602681259866864,0.02799214708509407,0.0463268552011478,-0.04541090767246979,-0.04143378546745682,0.021542687064405555,0.012406195736922108,-0.021388673053235274,-0.05264423254318552,0.0428064323633266,0.06572122358764183,0.25967213167844005,0.4208230369295597,0.3681220720995282,0.3158045099298771,0.08203874640384028,0.1605649107856295,0.0599587287383326,0.10608370942199684,0.40418986556829206,-0.008781213282223827,0.10801139682090029,0.43545251146263475,0.19461103348640685,0.003288023132482182,-0.0066402147588336,0.04736974011081954,0.23482568493633604,0.05329390175588955,-0.006787002516213217,0.06139583623023834,0.028319005774146262,-0.027362363719414536,0.012066135139375855,-0.016651934054746076,0.046239960059877815,0.03051694506565492,0.015170546835694501,0.06158628840162218,0.08085603581825666,0.08927900316593321,0.18877765405718192,0.26257995099161324,0.36073520174788126,0.19006356619690104,-0.0007223313248769171,0.05892759002850178,-0.12259022073433487,-0.10065170144914994,-0.058625107184019636,0.011372152826756335,0.04518754427628241,0.20101933629686558,0.06387313683455327,0.07867601052999015,0.0941119479754196,0.032210353092535136,-0.013801415644431408,-0.022494288311017564,-0.012259284547355895,-0.0390002809419049,-0.02586323748874667,0.07494638875322848,-0.007369289838608342,-0.00788452008591182,0.0376346501981744,-0.06682036518428838,-0.009251106238743248,-0.03973228611201902,0.06026265028066524,0.026479762008135465,0.07916502517101678,0.1251560948503171,0.1375898472059936,0.15784754220912098,0.0006753418387756234,0.039465624461613655,0.12383286688523731,-0.11224082351384193,-0.06604976787965548,0.02768312074552706,0.02044263250373195,-0.04827464846220797,-0.006900953930004139,-0.018156078533512084,-0.010420592599468346,0.06677738312652308,0.04800240391047486,-0.01715195954166783,-0.0026202494183404537,-0.07032624740887101,0.03034825619447727,-0.034805586232054736,-0.07930967790569524,-0.03836582643112704,0.08969276378045585,0.04984617310897916,0.025340942068618758,-0.0312692308414253,0.02735615635760494,0.046027674922012575,0.003721527237485467,0.09684344406958391,0.00825200865121428,-0.00358871235857644,-0.02669312779713914,0.04755137080080562,0.05667394689530589,-0.04644153014786678,0.03127674257095624,0.058679735188354835,-0.032109293672244806,0.001429482316297329,-0.017116060460423535,-0.07670917788761664,-0.0009077178910220453,0.013616900586509436],[-0.07637219610610635,-0.005049503825409152,0.0028059847321989396,0.010038387610005098,-0.004110017144789907,-0.07079516770452728,-0.039929784988861516,-0.01876819328146763,-0.01540452204753247,-0.02709950497640413,-0.09285803664676504,0.016213410143137097,-0.015121258336932255,0.009534696354376834,-0.005580344675172284,0.05434659120615323,-0.0004077628885857066,-0.019966578925523847,-0.0771155922074953,0.018724441385319847,-0.023611455384389798,0.04442734618633913,-0.08307068038992758,-0.030922844879670532,-0.10213092506959054,-0.021466151232290974,-0.11171229629741222,-0.09184909013825031,0.015352935065463074,-0.008359481706608362,-0.01858972917766732,-0.00941163521205637,0.02263470400571405,-0.12505833002663927,-0.09357688701273371,-0.042181362968776795,-0.020860878735787212,0.01234904855978924,-0.06407420344194006,-0.00009177194621018774,-0.055455131744985314,0.06808195825870271,-0.0016463737032639432,0.011516282970070192,-0.03543411780865654,0.029862774266751237,0.04636860128804855,-0.04453559629781099,-0.022892238633367937,0.07005250670834479,-0.03641669543267072,0.00616689713697018,0.010117585857219894,0.05197061009898519,0.0033438564150057525,0.004052585966654926,0.08414796903961949,0.05168512838164369,0.027999402803389955,0.06162846759651169,0.037936563569334135,0.11537053390817524,-0.027483027840161104,0.0019037977299663216,-0.12415527270330372,-0.030764582155443632,-0.0286300044443694,0.0067448812777567944,-0.0550430854149054,-0.06135720099611252,-0.035475963377033654,0.13268058544126346,0.21438795827355753,0.16345758456457463,-0.013389180068234963,0.004442377361596678,0.017150760157354967,-0.013796837291471093,0.042424497642306935,0.010442427796232114,-0.07915526934406518,-0.02766465550687015,-0.0062012905852481,-0.07103205694441513,-0.015754328195792647,0.0035775950582597163,0.07305086696870111,0.03020062050607917,0.03619619379390711,-0.024933153540062085,0.09167685966828451,0.03868892142063694,-0.08456254461000588,-0.1170901804206798,-0.2846965764342308,-0.36105576880871837,-0.26274890762855874,-0.36950183155054656,-0.18240125553287387,0.0694755152688981,0.2940934620083021,0.4095060001365276,0.2526152363984417,0.03830525364254438,0.02640758377328426,0.06591573141682014,0.028283221271759754,0.022921624729443722,0.0730794736823826,-0.03990569997391189,0.004803328955900414,-0.031447669967852906,-0.019332617578611884,-0.00029541256261353903,0.02372946060692313,0.03788159472067257,0.05832948665760513,0.09957747777312705,0.10960076896789242,-0.013758592070556465,0.08674509553932881,-0.0459519847292677,-0.08689306179473061,0.11057290341409239,-0.12846052050847273,0.1873210659075277,-0.007756839532370227,0.05092507190121019,0.2313720808685416,0.08991264893706642,0.08405445155601239,-0.029172387790180037,-0.05496403130987528,-0.02948461818080556,-0.04871982479834062,0.09689744400980711,-0.09459508851792696,0.08875681986524747,0.006276263559519645,0.020097971579107553,0.0013687118188923412,-0.0626174951316301,0.013185899026809719,0.0028288860280362934,0.034068957702019786,0.32370805522779994,0.3368027934218273,0.12997302515763484,-0.08289103140224315,-0.03677281499375474,0.012623733331388762,0.25308119541705953,0.10118989778836353,0.34476568883773573,0.07389822525403617,0.512081349527444,0.5926141534935578,-0.31672221170520826,-0.17056614126045888,-0.1510002108575518,-0.09505621913506257,-0.1731751636706179,-0.23370608193122183,-0.15003978910895366,-0.07455890492924067,-0.14211948447125045,0.09332425192351189,0.013908525454394574,0.032817996051397645,0.0018415956426683956,-0.02283419106475292,0.015027903028140744,0.14174132514531287,0.23709457396625022,0.2177599760990212,-0.024759646455584657,-0.2415547101364725,-0.08145117391113268,0.06114431880258568,0.31677515518259963,0.0783236960251579,0.0029370396029380396,0.10974606990859968,-0.08514938273491283,0.19844027546209808,0.05920794277760674,-0.268019767740343,-0.242017191917027,-0.13793908834878904,-0.3513654868008331,-0.34897626491087813,-0.2703538552424926,-0.06839358244101401,-0.009032704578703003,0.0772435176477799,0.04307460354399154,0.001569037635299142,-0.056571641673279216,-0.055154668878513995,-0.029318412740355345,0.10124685170434071,0.16031100462572037,0.08736646962661992,-0.0055291264613929565,-0.395550853087599,-0.20865010175838078,-0.12174634092075504,0.06560765607480816,0.21284166248918185,-0.14358648284307313,0.20397246270470315,0.0033902567013495122,-0.21198502495672214,-0.30211951119731933,-0.5097505430857369,-0.16632996553632498,-0.0750329358214121,-0.2779931879693344,-0.4172487574465815,-0.40982880255550075,-0.13548000078399908,-0.07576247224989328,0.12148056113361465,-0.001658179664493092,0.06693560649464891,-0.02234640138286152,0.030947129814207483,-0.0877566605837524,0.14228003427729194,0.138250295507331,0.11500715493492056,-0.026362488980974624,-0.11653117070022302,-0.05378629380662539,-0.3158621965358246,-0.3099392649952632,0.01117536806434483,-0.1571699389095185,-0.06116184723734273,0.06003983653966624,-0.48356926174999026,-0.37013110785227804,-0.4417862340218044,-0.17480528912216084,-0.184259342962415,-0.47624753548449406,-0.4785883303648276,-0.46087606655571584,-0.23987976726004787,0.020201850496665324,0.018920104534266378,0.1299464494896415,0.061008841968311266,-0.028553231315858022,0.03129354274578272,0.09576509655464047,0.12381162751966006,0.009208083921097846,0.20016153588079616,0.08609461055811318,0.10542804173879233,0.08553495693263141,-0.4735693105661367,-0.23849186769139666,-0.2814446311482245,-0.14168681247226114,0.11318310869482444,0.4922987407129202,0.11656974431300929,-0.06222835740910274,-0.2355657472281156,-0.17986822109131828,-0.3190449559405647,-0.39785365142404494,-0.302131450383001,-0.2844619948228356,-0.18384108197435473,0.10343731395676946,-0.06149730484026838,0.03194524387316443,0.04092304633203707,0.06270840840494453,0.03601479394031515,0.07088154492010693,-0.00918851411835451,-0.10918247548949271,-0.16006241615886177,-0.15463111603573546,0.012442889963181554,-0.163991581505103,-0.3419826858945194,-0.03804444668255837,0.015234596962571826,0.042898103338791016,0.49626124270326005,0.7944728855874598,0.05045452950957666,0.22340054805304976,0.06633735154691521,-0.06692868786923156,-0.2854222671588591,-0.19420598333704273,-0.20149487479392733,-0.09594498432975204,-0.1229521720860889,-0.04027822834959723,-0.05117099800511999,0.015023917147115848,0.03551315302469379,-0.0767398698573881,-0.12649052340375927,-0.007093648644078095,-0.12481584849879562,-0.2234031022380604,-0.35316888000508956,-0.037332285233655296,-0.3102329277087735,-0.265991738905341,-0.2176144058446943,0.10517712377863711,0.2726954736435815,0.32619922310644506,0.5198170049461801,0.2753186815815216,0.056091422419973204,0.3270958246653907,0.39239603577301024,-0.13894822219056308,-0.03840364989203293,-0.09844922833395059,-0.12252315788689597,-0.08843038062230939,-0.06991610548776608,0.02770494044681626,0.1059648042156437,-0.023485551535476663,0.045940118871014526,-0.07714252267922557,-0.09005786435552454,0.0012491192168201878,-0.04261872259329257,-0.35994537271190663,-0.15188466080088284,-0.17632377786975456,-0.10084200602542924,0.30433064919228375,0.49146996683833927,0.6793082590440445,0.5064820839909748,0.38871829645290185,0.047936880722914854,-0.12112687782258154,0.20584009327500524,0.012609886190567077,0.10547002426775692,-0.25897329447093603,0.009408108390109976,-0.02087005229449038,0.00895142990472446,0.0050574598995176525,-0.026322386979353383,0.00207703784552982,-0.05848910488571686,0.08907788126240687,0.025066000975685353,-0.04892232401359658,-0.03955177512700515,-0.10176742798532393,0.0024617204569258437,-0.26917877589548855,-0.13360317758842966,-0.0732756483747476,0.28052867044621865,0.3370946886151285,0.4111997548792384,0.26207889878330487,0.3629615654557997,-0.1570599221015557,0.18675022341504663,0.09609477526953514,0.14060627214684263,0.09874620280746099,0.026859936008223163,-0.35664227983886304,-0.2068424742377517,-0.0024757012000868337,-0.19337971767711606,-0.1361129470675895,0.0026109290915016918,0.035952308806962104,-0.10090434243152734,0.04550341183723149,-0.018212955878754072,-0.06331204960588659,-0.032012124454330736,-0.010868323771690684,-0.04471363564864618,-0.24822821895215963,-0.23390943640464412,-0.1426507648579563,0.08966575851711099,0.28630520729230824,-0.006907213160499079,-0.2569049318982109,0.21130611278062353,0.025949048313049245,0.19667841397711422,0.18790808458229794,-0.05614345967579425,-0.1314372798132827,-0.3210899131970326,-0.40328448239405557,-0.23275399457241933,-0.10558937003600435,-0.059186620368203054,0.020159600196600437,-0.01827805858733442,-0.04207461566877254,-0.0303083539476697,0.10231147429229484,0.04970602270398849,-0.04896622351767936,0.041979778572292036,-0.08781282163533934,-0.0031524289948614216,-0.2425555727045206,-0.2488378889955685,-0.4643930442253314,-0.39044508491424584,-0.11794221487665107,-0.28451892687832303,0.07195159097471762,0.050305579290006695,0.27129169515492246,0.14743280374232226,-0.0685177926109442,0.06267413183363485,-0.11833093113425502,-0.26652105714653507,-0.19618665635899685,-0.10668164500895744,0.10260430805686171,0.08947644866424537,0.012371593177499161,0.01058210479572926,-0.061777317633299175,-0.0017187045040732642,-0.019967926772515174,-0.0920539754204048,-0.05534023962990879,0.002243145236586397,0.03743632243565307,-0.04514411423576215,-0.22720066541183398,-0.4860254180293731,-0.7101291809758142,-0.7364054854104435,-0.5626893028807091,-0.7144987816122336,-0.2188902350966919,-0.2906881877936361,-0.08645780151879312,0.003260805518909976,-0.16247158434046913,-0.11493465025804735,-0.5251084049700757,0.07805918382171623,-0.2515295877204155,-0.22833587226231258,0.051060125020200096,0.09534885671480144,-0.08583670754011873,0.014471056982948245,-0.09896031253837678,-0.10106315727325665,-0.03771798680094624,0.07347678362012022,-0.005434872873969134,0.04301003831958196,0.0365124202208266,-0.2837696342025668,-0.4553280653833704,-0.6295113959617498,-0.817449358132794,-0.7611557926778584,-0.9999504937122053,-1.081828534646846,-1.2276096650447037,-0.9455189252891446,-0.5442009751526082,0.0336905914083542,-0.12499205413137181,-0.19422190187609967,-0.23590099921862095,-0.003721153792174466,0.12411098180766657,-0.13433391068714814,0.05957137654690618,-0.029508659225914963,-0.0248906789342529,-0.11941853831225085,-0.10832550131994752,-0.03973075529633142,0.017592894252225405,-0.11433961286478482,0.0010907083523510725,0.07386759885781076,-0.03229343703789373,-0.27403372023167666,-0.3316931765081047,-0.41905116355147326,-0.36614979901685,-0.27601368391141873,-0.46779163523556005,-0.760914523713581,-1.1536000537236126,-1.3274267779485123,-0.18479996796585044,0.05598719638831153,-0.1767225283247459,0.18767731957441935,0.4381995865082656,0.20690081897392745,0.23048185503956167,0.14510923666159997,0.22555515533642054,0.13187389422336102,-0.14459987428323412,-0.06370917745056351,-0.077789518678636,-0.002704780206877446,0.0005396679103042028,-0.10552698597429003,-0.043519599650309104,-0.00644899654001976,0.0031469370363297177,-0.2626145925647729,-0.12140972221718047,-0.27601242580890717,-0.08319217336014781,-0.11687079847929183,-0.07505003081787241,-0.4959188985452388,-0.5767105942961231,-0.6885457424703353,0.48770068599666333,0.5208145860856654,0.2968806684145698,0.5362924167438874,0.10154614422172485,-0.0756735111558202,-0.14086695333509092,0.07847785449174673,0.12735291045506747,0.06708575884229626,0.0569293392054982,-0.09883773267065925,0.05147978379249176,-0.037761965816323524,0.013062523043461182,0.017311080068572172,0.011166007138605024,-0.02156259559082965,0.07912352397215068,-0.16665688055874653,-0.30639402349561806,-0.007111468277858259,0.15072256223849798,0.3073059272150038,0.22973723901333026,-0.1634994714932267,-0.14587240276616606,-0.24166503927003433,0.2628644103168035,0.5225114158872939,0.00118175493063908,0.19873113715444654,0.07469418927685545,0.16845525550714271,0.03341105246495851,0.025226690138754518,-0.2672931545586401,-0.03423125802542735,0.0319303765803536,-0.05723337595689024,0.03616473750886528,0.020035253381944815,0.012298227637615275,0.06259448256194948,0.08242455897017811,-0.0409461660885017,0.14673331837512898,-0.07756642813398809,-0.013600675438230259,0.22716398280584066,0.294175939848382,0.3822036921699263,0.031025611162117418,0.26588857104299435,0.18162958256102996,-0.08640496439906083,-0.03863841137172626,0.09064719575647166,0.22152084834994204,-0.3723286573755334,-0.4279459200169362,0.319518723423774,-0.09482080470785685,0.16603161614941947,-0.04891505864331957,0.00141618034822065,-0.10549533368818761,-0.023544012000500533,0.11542581445474596,-0.04756848576749183,-0.03657829729188464,0.0485381918950099,0.01258001846312533,-0.0682894160408075,-0.0406320334134246,0.15536041248994947,0.08428845254717668,0.29560868775528726,0.06551279782983051,0.12248561963327882,0.006900194097192584,0.07435156936096632,-0.011612359171336751,-0.07095566226788776,0.10680950087466405,-0.17362517044974557,-0.02223575237480952,-0.3552530637334719,-0.07080356694259048,0.35251911713653505,0.11219030732400928,0.383576268213271,0.10082156995120227,-0.13435379409391732,-0.17393955196144784,0.0037989888161601647,0.0904465083965145,-0.007964288735672951,0.004461942788623573,0.03634888858594763,0.05602768339776607,-0.015332576919044218,0.09638036238418408,-0.08108592324137504,0.01388591158994548,-0.026997862016535718,-0.0737912768503714,0.08238518684985612,-0.016427061118870823,0.06580747075308689,0.19905889252562514,0.4029111547043805,0.35889731802720287,-0.07022778541893361,0.07582309052094781,0.17897254610576424,0.23422996637918553,-0.10055417113293172,0.006044773767515548,-0.033405421436586105,-0.23350904564924865,-0.2775493584119333,-0.024364372017493682,-0.024958836884719754,0.03854435779260529,-0.011902856040890928,-0.04877169235764828,0.0200029095468093,0.08644466429845311,0.07710900183162563,-0.04227157858323467,0.012171399873977098,0.03306462978908242,0.06824176848555302,-0.17071425935335388,-0.07328444078922904,0.1480542925755757,0.17715470841046266,0.2855947489522684,-0.19437138239786203,-0.24215358202948822,-0.16893846794147613,-0.341149576229877,-0.24216083745061026,0.11639791758669794,-0.1431694184045079,-0.3120962776997366,-0.13693731320290925,-0.07791830708314913,-0.0636701125763446,-0.02595330732886439,-0.04880844480386784,-0.024145532090353562,0.025606861182383648,-0.019803510130910734,-0.019693680114716876,-0.05704093156037947,-0.07755405982027858,-0.07765662359646015,-0.03428511476800898,-0.08259213642054679,-0.08814645982879771,0.053519177532876445,0.05371984006119693,0.3067880591077509,0.19992478476355416,0.03619487421543328,0.14536707031267557,0.1078642517556472,0.12196005095652306,-0.21940891731832377,-0.3490515315266124,-0.16886476848367227,-0.1845201060633042,-0.2034018877143086,-0.0974558707292825,0.06108401566115818,-0.06321424214405308,0.021317295970182285,-0.06556977667806749,-0.08677171162527861,0.06064222754590259,0.002864388792574676,-0.006311005781460927,0.027289543431479286,0.03507091375932409,-0.022955297164592683,0.0741243195463226,0.03764863408662697,-0.09874186130900255,-0.05040429972951241,-0.10764242142573102,-0.01738506127065716,0.06362806268069753,0.10856936994137702,-0.019733123092591103,-0.23408997854116317,-0.06627518826614143,0.06985734066643193,0.041439832681641905,0.15049771852155222,0.12136826619747602,-0.026182958000556568,-0.012636721189968725,-0.02551197154559573,-0.037369004345198534,-0.01610571944036596,-0.017064315086417065,0.025383913322758335,0.04447774857078695,-0.0286038949935025,0.025627031808038447,-0.003281197618470143,-0.054047136545299315,0.03463843988343703,-0.01745312515742266,-0.024098869453597904,0.03774696881114574,0.031099791653690128,-0.04337760680312515,0.015879039503123735,-0.08078958805167759,-0.13038039677725674,-0.009990510287075366,-0.03427535368714914,-0.010009334007183917,-0.05325448900701452,0.06201777189819715,-0.026571803511263963,0.02747135450855944,0.00552828224049072,0.034649033483069164,0.06000758703588594,-0.07971886762258644,-0.11254081887127675,-0.04191341942993129,-0.0046937387357472065,0.037213295645966246,0.017145939717267453],[-0.06807603918850225,0.09639123117607303,-0.07469177123438869,0.0488519547952435,-0.04128629616838423,0.044823960458894654,0.013962616025927896,-0.019816306529269415,0.011424967433625342,0.021789376231759208,0.014491383559677103,0.005015426375675306,0.019014624475711204,0.002854862469977361,0.07998122035073638,0.08924333714020163,-0.032892627093371124,0.0367788584881819,-0.03585826249788897,-0.06099874897021821,-0.009759376175638853,-0.03953768102776083,0.020034215190565984,0.00136656903664914,0.010623694066483476,0.07832523870308646,0.04282386756087957,0.02007081278549078,0.005719057083701204,0.008655076165347496,0.020999323140643587,0.000495946452203507,-0.06705492009087813,0.11390087951982317,0.07934793319306885,-0.026515954883152032,0.0008813881891511291,-0.0049457010950124565,-0.042972531504935414,0.03939091238255515,-0.056546259027215225,0.07575018805972657,-0.05774622924695169,0.02867751597905601,0.08124029065744799,-0.027134982391051173,0.009451013314126167,0.03324373130539531,0.06310195075623756,-0.011745588095173388,0.02438064877801999,0.061325085814871345,0.0389761618994293,0.004617977962026906,0.013824162046411285,-0.03972700649672529,0.029639948143784654,-0.051181305997053055,-0.005020406561812897,0.03057480858300278,-0.05150795554511103,-0.0334528973140204,-0.008854668817079043,-0.08308512795963849,0.05145274968488914,0.01278821608492906,0.10250320063041608,0.015927459043223766,0.17819635029284275,0.09401011997163751,0.31080808035674345,0.18876478084114018,0.11252259500010628,0.10957642972948595,0.10887809044211968,0.14811451519756327,0.11217348635877483,-0.06586031377911108,-0.10064586503959305,-0.05855530440739656,0.010502998420180881,0.006978118012738971,0.002426520963374198,0.02871885952725391,-0.011699594952628501,-0.020597752441519828,-0.0747526551498041,-0.013857698113933533,0.061445541620464283,0.014594966629434424,0.03752162569214812,0.0587907061530112,0.12089757525238957,0.192964018082352,0.28450667308868033,0.1663361892837816,0.09155626456149558,0.34867398321897897,0.506116943040009,0.26327165937953284,0.19990840846886287,0.2593380828516888,0.21669891770977484,-0.004834325141413049,-0.09706369810659121,-0.1291944289638743,-0.05544970158632191,-0.0016974860642840958,-0.009121053456357553,0.03106821930567732,-0.015151598995175257,-0.031330565577953245,0.03983043482910161,-0.00445912273179316,-0.11250996503893534,-0.048255903225854074,-0.057823599037263786,0.029557950570679614,0.060733842359873294,0.20731186362708193,0.28192486989659893,0.5134241446554892,0.42104489388616534,0.24480856040953636,0.0840866743835645,0.037035426890724726,0.0930182261424973,0.23120301822214995,0.3695009105970858,0.49279021099238585,0.5009746251126441,0.14912697506398678,-0.054284069879388476,-0.17519398036718836,-0.38472939664370376,-0.28504203007036516,-0.0916687432359539,-0.03515959210577651,0.007454661003044848,-0.042076022170236406,0.08182383283252562,-0.026014458576244265,-0.0028416749890595467,0.05597199176189746,-0.03968984539562589,-0.009913060726181026,-0.08322561921198963,-0.01815361334467497,-0.011677861636624499,-0.2014195554206039,-0.012211249102290865,0.20341817361207393,0.3508746621866989,-0.08981076999454453,0.016717744869488717,0.034375193015869686,0.3958204340550315,0.9275988644799457,0.701589111340715,0.36420835799173895,-0.030304631281389004,-0.04995128303822547,-0.38795217611961424,-0.3543116667139021,-0.21781512295928301,-0.007639869923216756,-0.09866276766582856,0.0057072244492533415,0.026293402482313495,0.023679202140510454,-0.061612239160107815,0.03796774551344389,-0.004172166397383534,-0.3737417859394473,-0.24468722620670844,-0.08827523173367943,0.025588954780894173,0.03482515030334643,-0.02013662664958571,0.2823467727888405,0.33020983565673095,0.2597906363044715,0.5519042719246586,0.6328630961837503,0.7437462611715885,0.53818651021047,0.012120582218530563,-0.3188458247436677,-0.2064432760521242,-0.37058505242480017,-0.37040914287101573,-0.37272470832864096,-0.0361065924708153,-0.006657644723982456,0.12045922738579466,0.033376863304433846,-0.05296564747600563,-0.006426053506583349,-0.10026641050889644,-0.05097368601165054,-0.03666078331393277,0.04831412908684806,-0.2629137702368033,-0.3110608176578821,0.3867152161248192,0.2551249598208855,0.1066194621719845,0.4307536412441272,0.43682507381129165,0.5171781992274312,0.38235582744325536,0.16201092203695916,0.07543390434034035,-0.881578324890786,-0.4736918670877608,-0.6696859549199125,-0.33151355023789,-0.0009186862403563872,-0.1776503084773581,-0.5645503813765637,-0.1562052468324089,-0.10878570141832944,-0.15201365539954814,-0.019429488101405434,0.019527556195178968,-0.005826454893303503,-0.049836251363073465,-0.058101418046707175,0.24398364535199057,0.03201363568590228,-0.07015098729965681,-0.32663438190494753,0.4694263188343365,0.3251579115649424,0.26472548307899424,0.5492480090285261,0.06969203778252445,0.4841716000395171,-0.24082410782073238,-0.9099562498276265,-0.48454642729094555,-0.7762059414698876,-0.4371069220593819,0.11148261165617059,-0.3961840283957688,-0.07688895595687595,-0.07030133365709376,-0.4743230783819966,-0.32828685630117826,-0.013014933263636633,0.011329588037441022,0.10897720472730421,-0.03315394317571279,0.026130246408257875,0.06432265704265518,0.06308188360066519,-0.00920316616195361,-0.08136948133178643,0.16926475399595356,-0.14769894177321516,0.5267924049376733,0.463923535035583,0.4006204571307417,0.42461895840759173,-0.42116819488476887,-0.6737498522484461,-0.8141424503618107,-0.3357749828305503,-0.17934780080068835,0.011301614425308052,0.013118094852704562,0.1386832618527985,-0.2873365526426678,0.030958814009788574,-0.1775518401123117,-0.29986937645217276,-0.19927878649784458,-0.2171490633604842,0.0012952253185108725,0.018404454214911894,-0.007732096570392083,-0.015140888861536009,-0.06963299960163555,-0.03517937989233795,-0.14673553611186554,0.1718562931368136,0.33285957296956203,-0.11967688471434271,0.30971470617211433,0.05949780381172625,-0.3157619397537271,-0.5282657882652398,-0.7517948969169637,-0.4928084209402888,0.0643443146634879,-0.4102659322734407,-0.13816399623207873,0.03930081956607297,0.5282935806465198,0.2063537941398778,-0.27927094732476315,-0.16447519195206065,-0.2828154015052245,-0.1057405938394517,-0.03838807400191545,-0.098615013730591,-0.0932928067778063,-0.007817030164413038,-0.028212854685760423,-0.06763026206001237,-0.02621805696391132,0.02058672663780967,0.06539446788621839,0.12180449862048849,0.1277221792121847,0.012958127038557508,0.1429802058951714,-0.23314840670218603,-0.6101746471964532,-0.557116688532318,0.08837269551554051,0.30256187213012004,-0.037609583341569365,-0.08783542721026248,-0.03710000996921067,0.19772011712473858,0.2675363545773783,0.06890965750298543,-0.20036857822295004,-0.03462500887799801,-0.2162107663380685,0.0037694032740161116,0.1585830387563965,0.0777006120810541,0.05157844985250764,-0.024587197518536268,-0.009208388088772732,-0.12263407705049835,-0.005591195080212902,0.055535026565426214,0.1525686604307035,0.11040832567954012,-0.21433602579475783,-0.22260835245851704,-0.10456838164638042,-0.21465735739697767,-0.43608716251694457,0.22639314049900522,0.23086128049949628,0.10223364442825941,-0.23745807035636776,-0.09482787894329121,-0.29008478164412455,0.09001883849762929,-0.4909941064346744,-0.34747781404936534,-0.3393292120778233,-0.25524195363394186,-0.31756347988160594,0.005840413478072607,0.23929619860239051,0.23007635312426122,-0.002961151472570402,-0.026218552667935043,0.04710166385218202,0.028208654596253192,-0.07860563049321295,-0.09741241470398812,-0.07775709268144242,-0.07842712719892739,-0.2383523158201419,-0.0558006089187682,0.16903016701496795,0.05972010593614518,-0.0609944268553426,-0.09489379405589851,-0.28252262036913744,-0.23022460478244589,-0.17533642427617865,-0.19898293786030394,0.055960788138034005,-0.2733711162117871,-0.43713626080431733,-0.09422829706056632,-0.04118354655187517,-0.21180391930720713,0.011255336431880581,0.19960576479343223,0.1457891324686591,0.08213242262522609,0.0935467557094555,-0.15813271908038637,0.02822971502144856,0.02157349169366108,0.047254149852787586,-0.03450698561866605,-0.14120422174253436,-0.14280815753687467,0.08403355556279651,0.027360157903137207,-0.10742935637742154,-0.2694524533682384,0.1867160090570767,-0.03073156227755952,-0.5293503231446245,-0.1739248085283227,-0.13404367143775023,0.08475353906380897,0.02414354857022266,-0.45855663239869476,-0.023140002612567954,-0.5073933489502549,-0.26502656976711947,-0.22737500486154968,-0.020958442960253624,-0.08925608332192403,-0.03087543232025523,0.15514906060528472,0.04996792104631267,0.03858100200447721,-0.021067986237890458,0.084878034251266,0.0274521204459358,-0.02168124025323378,0.0672342849429141,-0.0071957331703517615,0.05234755095924195,0.0008909067508779905,0.07626778999756259,-0.03380029476592873,-0.09553671656512834,-0.21280820291531366,-0.49266802545454946,-0.25373864929278417,0.29116266157802817,-0.08926245666533497,0.23642697192922246,-0.08947028955053048,-0.1897731858067762,0.09287304972281943,0.13223466221593097,-0.14522161925197347,-0.14580741974349137,-0.14879275799986147,0.10420895376082236,0.12766966513594838,0.0033864736841188584,0.08212592072093464,0.02371384200749664,-0.023776032572568048,0.07573332126437658,-0.01627768659747225,0.05392477878507047,-0.03668739495418138,-0.11937714411486829,-0.18821787012423968,-0.36494794949045317,-0.3322918176820416,0.2499199465058583,-0.040218476117345164,-0.3782764694153886,-0.20575718602942694,0.11094681640791855,0.11077976305436969,0.2628869067943852,-0.22102928550285295,0.0824687359003363,0.1790211337460414,0.2602168101057322,0.28580111108805933,0.2600729222450247,0.22631810606231176,0.30776439206346745,0.2212311432569869,0.02634264696022785,0.09441741663983659,-0.06575686108357573,0.07830166937392091,0.02653174291297802,0.019213591827555172,0.06465134494306954,-0.06577082477249215,-0.014542458429870493,-0.37058494958306637,-0.4171795968039936,-0.38294951983499875,-0.12055421743977328,-0.260847344766377,-0.5694809960234489,-0.3407883859535881,-0.6701461624837938,-0.1484966930900327,-0.46247707934617527,-0.13325586105432163,-0.10777653346913811,0.1457777499392447,0.08072129800062544,0.06149489762661239,-0.06656821408240782,0.016942079251039594,-0.05365486064577505,-0.03779639450190663,-0.099461790447701,0.02567146136019183,-0.08570654802962799,-0.05760026089358827,-0.02002486274726588,0.00045149618139673673,0.0627692878106287,-0.0046215152355784765,0.061095322264798586,0.14916175340198534,-0.49291401230242443,-0.31953815122363727,-0.154524403124834,-0.5660621521084418,-0.4660840116572147,-0.3355772391949775,-0.3905435360243746,-0.8793568013828853,-0.10543619696155546,-0.08168476293622241,-0.39999201413411944,-0.256546417080192,-0.29278461297284897,0.026953356556258672,-0.051189651270833546,-0.08025012115295198,0.08571351289479365,0.007336709702903226,-0.01475756861758739,0.031086813014781067,0.06556049251820906,0.0460632658933573,0.023381122690671132,-0.030884650975540957,-0.040843860706458734,-0.028171746464904775,0.026360175578634047,0.02477698034202862,-0.0925368140148229,0.0012597827004669534,0.13636968822131232,-0.21065304479006078,-0.21477619286703178,0.19243219109298043,-0.28146322079718566,-0.5954377256439586,0.14185443869268685,0.135983315223391,-0.12952515121145539,0.03859667807898875,0.026656448840425423,0.19022507175599837,0.20556320831165084,0.16296580929764803,-0.04941806050167591,-0.012871759927847523,0.06681965862481674,-0.042308852264965766,0.02673595921298887,-0.004860033495731069,0.030892418027349208,0.1382077663669924,0.07278488819691083,0.03570816796442038,0.03476230112185948,0.20413021446307836,0.350190466962567,0.2747304899032782,0.3527134087910727,0.022692499657225397,0.006041502936675295,0.6298503109327444,0.010203273131198624,-0.06718634729323436,0.006071541446991107,0.1889615226745146,0.06098332975393102,0.07276849574082941,0.4965676718631704,0.5896948939935227,0.48914607285889716,0.16370461086035265,0.1085781288609973,0.16203703307936476,-0.01313855528537025,-0.07706713543830146,-0.004921751697647545,-0.05220092258418875,0.025972263795988673,0.017457692939786943,0.1505534071011985,0.011448622218245856,-0.05176694831737427,0.22015388888581738,0.610076282154246,0.36923746830148,0.3319259767049803,0.333997200014909,0.3792909685225557,1.0350618509564706,0.5846580567986848,0.28997875510860877,0.36893228561061353,0.6386882185625937,0.16274464856761622,0.30439770124047205,0.5225913057898285,0.469730880272593,0.28841651966499765,0.3119294306934385,-0.05110599500445206,-0.0033445891378386327,0.05113565539972439,0.027898444347455854,-0.019328775791723214,0.032865385297517376,0.02721771143984638,0.1004394060877075,-0.06600164076274428,0.05928634251213533,0.11142819992137867,0.21949429846185223,0.2858842237837981,0.2000439141524338,0.0468836801415228,0.04522293533860983,0.2237621325780782,0.3750376703989825,0.1740719572847261,-0.23286151532187058,0.3146664433730619,0.24199681107530568,-0.03088445394297323,-0.11805173011897807,0.24927555405403568,0.26162561619524904,0.25256672552796444,0.2530536432027787,-0.013071354057048115,-0.01402838955522022,-0.07134201878244789,0.06817503523902138,-0.03457391157767275,0.023607488768941247,-0.003842360485404877,0.06386117016938694,-0.10721917314995048,-0.13531758820307535,-0.06961553798833507,0.07640449495571394,0.2540121570136255,-0.08724426895907661,-0.012218746448150556,-0.11070783388833032,0.05242572666571574,-0.05145834445282748,-0.05803336366911835,-0.20055940160173671,0.07897840628260142,-0.04652539430471353,0.16351527048828035,-0.20413645564266866,0.30868203052333976,0.42434208803053197,0.3484030886032174,0.2447852220375254,0.0576926311988425,-0.04405212073276533,-0.10641727126807643,-0.05243453258553103,-0.08154003062322063,0.07801120991386264,0.011762248548129154,-0.08799018134286078,-0.06593130168217207,-0.06381317857329726,-0.2836100633531738,0.18827084638571703,0.25816955438939365,0.25849549498338953,0.18379336882610228,0.23931742582229495,-0.04873173666059386,-0.021375369364692802,0.009554016295460068,0.3368306167771838,0.5230660220588019,0.14918758747121003,0.10956029929198811,-0.11866322743718331,-0.014181464849358867,0.06640897687630336,0.06399959054205569,0.19385647794951005,-0.04754024308992996,0.007806059320587311,-0.057233661307522686,0.004332138058396012,-0.033423202872971174,-0.012165952696353349,-0.07084508315009469,-0.003536710072209133,-0.08455151621262245,-0.009284710359553035,-0.06844051212005837,0.0377157498135753,-0.04595767689058188,0.13443650852153016,0.2887866317721991,0.06086227525684333,0.004940157442029686,0.2843073016539619,0.48163456784481,0.5247417289236174,0.3641586146790337,0.09798797946969384,-0.1735529728251495,0.044941573134493144,-0.022114983110746975,-0.17903077041568796,-0.13538832556254315,-0.07532626578277121,0.00006121802233029715,0.03689681815442127,0.04180022876982906,0.024665472060718993,0.04522480373200042,0.09827799947903092,-0.07693127723913362,0.01858251309804041,0.006351847955685506,0.009480129854252539,0.005910956137217287,-0.04955366274008392,-0.05141553226351238,0.04674288749193242,0.12046656545478016,0.10027816179734746,0.2055041496822468,0.17125511784944103,-0.010438340410304984,0.12318709890100649,0.24532065038461612,0.17684486508422487,0.09997258899851055,-0.125984806193783,-0.02121471114658402,0.1083144195772499,-0.040972776140850195,0.023867591994674472,0.048386909704577624,0.04068391623784335,-0.005786391918116808,-0.05659830643217634,0.012054718942527149,0.023111648393370248,0.030575954666466804,-0.08865475216374417,-0.04121796651473067,-0.03774351769791042,-0.01418328518782225,0.05295665805264649,-0.005171556297904752,-0.0972861192368513,-0.019412864624520475,-0.03064308899320809,-0.07125414280538603,-0.04986561609153023,-0.0021885929337253085,0.06845388787450499,0.04210767524141416,-0.017258074249079238,0.0070636528100378885,0.01153593072541059,0.10953798597468123,0.03422513689338765,0.0196528977346525,-0.0641409617627222,-0.08551905356918331,-0.059889102571838534,-0.01811341158282853,0.04938472652629412],[0.008797563971334505,-0.15502388551838803,0.06143768631112051,0.06224013590364323,0.07566770514260629,-0.058813692598775814,-0.045908727417880026,0.06980619544414274,-0.06289732077815371,0.03137735420203931,-0.00697823792232573,0.028997598266532653,-0.044560937015065506,0.01872222199844654,0.0017070205590354688,-0.03430547661623282,0.001529410133380927,-0.08098063218763832,-0.014478469340091107,0.005524655080351228,0.05931152504477789,0.008877184631219432,0.017799530490227578,0.011910773669790521,-0.08175663325225452,0.017422760183512992,0.012075037134059803,0.04331371963460368,0.03329921609744776,0.043743873892105135,-0.014471031410786594,0.028381605762690054,-0.07404379370757226,-0.018793211705701376,-0.062892107973782,-0.015497070909525863,-0.12312468056841668,-0.03466936523940223,0.0018094677114428887,-0.025898179531109514,-0.0731077269475979,-0.04318271730232388,0.05043987082485219,-0.022365017706533704,-0.12650515803207274,-0.039816788878527624,-0.09271271119997367,-0.061410096235773426,-0.11548940684588023,-0.22575953847599486,-0.24377700667439314,0.059920320094339494,0.042212076838532196,-0.04410449262435676,0.06769520763618417,-0.07062571879845453,-0.030014344435139617,0.07027984565763959,-0.008282946618571254,0.07240483407481009,-0.009787340616122764,0.06499817986412626,0.09496449637957895,-0.10943277044313213,-0.21344380894003515,-0.0729714495405743,-0.13465511941659716,-0.10915629155169233,0.009266907044954935,0.07262555733197405,-0.13633512221377025,-0.24875340537770857,-0.06859541402506897,-0.1987486169829553,-0.1740364256626184,-0.28724004035830686,-0.16906766485936744,-0.197359850069425,-0.29891752981111563,-0.1846867155242931,0.002541425672827162,0.0011834656533379394,0.033707821285910745,0.0016578621824746274,-0.00890358672923273,-0.03885745160345343,0.041346901951584865,-0.026773364094427383,-0.0662096257403146,0.04178407516814486,-0.08249339057235748,-0.1124945589523998,-0.2979698888738892,-0.42952424856966087,-0.18118471868060648,-0.18767070995106525,-0.20892672169862256,-0.3142784173031705,-0.4468997444789753,-0.3493316748754289,-0.09969544776415108,0.12236793717363122,0.0618402677598027,-0.06076927244841545,0.03096552826255037,-0.11029422278416143,-0.049982621031151454,-0.2167536997125688,-0.14470685164343725,-0.0003822733634274787,-0.07390400633206998,-0.042213087479968985,0.0962683738447821,0.0577502729742981,0.057308178958508794,-0.07953758553832084,-0.029031678205744624,-0.0797035656928151,-0.1431842950849803,-0.228751304354295,-0.35567168230480034,-0.4131798500496851,-0.35661356022529245,-0.30354482270987787,-0.33310910332885124,-0.17872456097194608,-0.36326152575799014,-0.03414413171844004,0.06585886072966815,-0.0782972265952325,-0.09594220517605846,-0.1694042986324017,-0.06313200901512687,-0.11597150322373996,-0.3452175882194386,-0.5175763439576729,-0.0705826793143139,0.06499087903108058,0.05448149865746034,-0.07520184102109281,-0.05025736184464663,-0.013821743917435519,0.02480772833086852,0.04729135460082312,-0.1405921140293031,-0.14252553763963913,-0.2942695606039631,-0.31821397688881803,-0.29021636516029453,-0.3006684971608189,-0.36841309167751035,-0.48793481583373033,-0.2701502990156183,-0.11951747004335701,-0.030323794308981484,-0.15125175063566232,0.06175025075499494,-0.2801308219470051,-0.36795892766480004,-0.44017634843055087,-0.3039135327602941,-0.3542370459733369,-0.3040312921235273,-0.5241403990265215,-0.44809511874472296,-0.08451337271199741,-0.0986466845369571,0.0470530039169322,0.05698299252880518,-0.059500772682269776,0.013423021529720221,-0.009923594452963643,-0.13732187319536387,-0.19220516298749757,-0.27398786962798005,-0.268702665036205,-0.12471561010347275,-0.14699304999758828,-0.3753294396066624,-0.6064481980914352,-0.13773747120878857,-0.26725425173271056,-0.2673624451272741,-0.46345068978273163,-0.5965707028069691,-0.6269242301497361,-0.24659189524637495,-0.32862956333016197,-0.10573177588037637,-0.17774456355761958,-0.227508559686302,-0.07481328284731517,-0.29307895015079183,-0.11490440646939178,-0.11856808831101412,-0.10151769623628731,-0.04018566469542301,-0.018508112739160566,-0.033860022925590066,-0.06241051176905372,-0.24422617477929703,-0.16263869917694837,-0.26240367802582004,-0.3710920502333073,-0.07429902536715616,-0.03260233666910016,-0.26284257250627646,-0.26484071910685325,0.2841759000482986,0.08746990411360112,0.09506929751898115,-0.14936975783491627,-0.24545979909678173,-0.0878442636547834,-0.39108491156402614,0.012510542219685691,0.15873245525944119,0.5189934152019233,0.3299016476681234,0.09434156946895196,-0.08324756611090652,-0.09435794029594619,-0.05791490831036094,0.01650298298220827,-0.019893237021306166,0.02528292875328049,-0.0046326683265089765,-0.18979435275707723,-0.31783749090917657,-0.3340029025575672,-0.2017720395169699,-0.22680922451677865,-0.1466080964805626,-0.1521479570802771,-0.12223708983615666,0.0013093636718538731,-0.06460361235405858,-0.050398256960751904,0.24384141726130135,0.4661244029557778,0.7622545511491284,0.43436051853576496,0.04520710907486491,0.1162912328504174,0.15536383921597405,0.30127084980015406,0.4078598819337173,0.5239062802601214,0.46453833201286676,0.20157832639359896,0.04200532640382432,0.007292667909587649,0.034645346123746854,-0.14275188639450365,-0.03580257973942253,-0.13735409755027447,-0.3316707665063029,-0.16978002452665567,0.05233758389450107,-0.2743808867473398,-0.24024894205353792,-0.13702718519994364,0.04390325255760381,0.13139623610765527,-0.04760411408095568,0.17216858101851795,0.40814062059349304,0.6076749025912972,0.22518214655806593,0.23019703846776143,0.20550249355683808,0.10953300582053739,-0.15575405823921595,0.16334014475000258,0.41934532038752,0.45351133396222865,0.5942409171540585,0.3469767426889637,0.0003657544435747936,-0.041269349887932204,-0.003045170146619898,-0.07314928908159324,-0.018904148881000782,-0.15442680300103054,-0.413249277485328,-0.20523649901293553,0.04353493934506118,0.038317700602327934,-0.0852052456805117,0.19906570315788252,0.24245292421531991,0.21042939543495204,0.3301793508790007,0.05577183877374836,0.35197283785292816,0.8118127769680058,0.4596512155497883,0.2949036334256967,0.21307876649715918,0.5835400759579452,0.14315947467012227,0.41563120838042095,0.28591305132174416,0.006664409399755326,0.18820899671531632,0.27571029037383415,0.08353068672167799,-0.05566769992120374,-0.017696072709407852,-0.028223986919734403,-0.08458127600427026,-0.27211046774660724,-0.41033617159505614,-0.23213971962834176,0.14474776594124364,0.13870594518056797,0.15827545520383243,0.16220043267193374,-0.0030323656904215415,0.23203535545856221,0.23131852843955414,-0.22880945078527645,-0.0938793551551852,0.8436594070049449,0.6066318607303961,-0.11908394483301984,-0.35797384912524455,0.02117751734193701,-0.002559524909789456,0.23608043969998782,0.35008989215686676,-0.016296453686440567,-0.05342027380863468,0.16174129703328635,0.12016575064502692,0.016061138692814062,-0.07621015241465307,0.017385456579356008,-0.10675492456099461,-0.18880629324038772,-0.3859694598574489,-0.06663644282161646,0.2825714266224245,-0.08242359341447458,0.005850552329428129,0.16306360243732854,0.038191430844656524,0.3206235314681074,0.48470733578505854,0.3894201590349475,-0.012865004584650732,0.2015377624054105,-0.10544490148630549,-0.0976585042742151,-0.07650782183762056,0.05324655636019525,-0.34150669361903024,-0.3483225453238045,-0.011765497452326641,-0.28912098592331664,-0.2357661459185745,0.11951788996631886,0.018394375233940125,-0.17452130558808038,-0.06099561159702634,-0.059683500839224565,-0.03544145316105674,-0.11801783796001038,-0.08745145125226338,0.11992641318606868,0.32512674083959975,0.5037030044497591,0.5041285148208305,0.7634065519115544,0.2302618077356029,0.2733676781724597,0.5208945982314774,-0.3688642041131184,-0.04787290680390879,0.24451440160822802,0.09599865656922653,0.28839742903419846,-0.12008736586609024,-0.5137256340161387,-0.32387662283405205,-0.16810031849796447,-0.048518174989086484,-0.5184732793341817,-0.10633991223101487,0.21257808652593185,0.08298982051223631,-0.0006939791880526878,0.033034660440193424,-0.00639642611894107,-0.031445937705395784,0.02447790801838137,0.12747140751058228,0.2632964822177069,0.6000141317093927,0.6593516922045496,0.542885441907546,0.33209551080868827,0.2918527332889286,-0.13784037730106471,0.13969926642623479,-0.5192304068690803,0.04502300571734375,0.0635567931575338,0.3797101039108845,0.601806948993623,0.23323704767421782,-0.17526895717791705,-0.04774513303428065,-0.2575615413570705,-0.34982912393227117,-0.43178484878418244,0.07651454356920018,0.08010078488691309,0.09427479526085122,0.0168842867641642,0.10044783272663378,-0.020788708259358957,0.00421323200206387,0.04754955503229868,0.2254304676063978,0.24153237928766205,0.7049099253730704,0.8003810038018759,0.4935797609469739,0.4623691173977491,0.17401109539423,0.041036019978618485,0.09083151501754895,-0.6827970428562824,-0.4545189435653809,0.39834495430832506,0.35023034472805353,0.4757965099668873,0.10664818165135352,-0.24376687960157026,-0.33793841347087217,-0.10107847955147736,-0.21030065871852568,-0.15278421927581853,0.18876378206275451,-0.028078174439047438,0.09746027361892111,0.015208424376469201,-0.0620372866803679,0.12343903339684634,-0.04982322070557914,0.023097176023914767,-0.0011075101501768713,-0.03773266166598143,0.3041632592775929,0.21543583184443965,0.15355103667112668,-0.1929005068472016,0.1931227329912412,0.17775994181243343,-0.05448881744488985,-0.379087040894047,-0.13676510299303185,0.39650255361480513,0.31250658160542083,-0.31713734181655023,-0.47396822201587796,-0.20052617711807205,-0.14370905566481385,0.028457231767707033,-0.08815980287376955,0.13339269486300434,0.1841264677333429,-0.007661374036878352,0.15882347656420848,0.0648418707967981,-0.014159611992084098,0.06353968467579453,0.023864028855029317,0.14390649544364553,0.01150071802575388,0.048041068134125106,0.23221466723834439,0.31636830069207694,0.09743655279876871,-0.13321141439316722,-0.021571802821351262,0.14025125260012414,0.010301499942273817,0.1298774874586919,0.3908310337594061,0.8146912224288214,0.08247642709845808,-0.36756746418201636,-0.33844349601246443,-0.11797711272150924,0.009883783167049333,0.10932288903569982,0.03893689716574848,0.09548045926394327,0.11724947483999647,0.01162589659882689,0.026250834100243748,0.017351324719190046,-0.00972428301522831,-0.007022600392320766,-0.05999643212225426,0.152431805500748,0.21829211607973337,-0.028382132126868336,0.15587438213494745,-0.25271317496870327,-0.09787407095622198,-0.3223848478758871,-0.41815065568666776,0.07318460432539246,-0.21481636095739526,-0.12054980029719616,0.20296276129227472,-0.030572578711476218,-0.5319142418068527,-0.656510468654899,-0.5300365563202093,-0.024074085503492493,0.30030497367721476,-0.004895300237414947,-0.02129739357310744,0.10670906421455909,-0.013640354083117909,-0.08794711109231025,0.03159416615321152,0.10468980626130259,0.04191912740200171,0.09670671277994498,-0.08440139655683684,0.013371681146535887,0.006625570170466424,-0.0005377014727434699,-0.12322218727794733,-0.3457453340156831,-0.5996815828343333,-0.5330476490308548,-0.4488104211657784,-0.2079222479375659,-0.3936536232236933,-0.17888977273794204,-0.3000950489947882,-0.08876897752991071,-0.28442602924994265,-0.24778943275991397,0.06047248484938828,0.09643997272208196,0.27723220929145836,0.16772045919718298,-0.033738152153307846,-0.19787543587383347,0.018420455984807294,0.008519766029306717,0.0484355812224725,0.003405741931437621,0.00367623564671003,-0.011079631333563449,0.011745403309459133,-0.16598590741409977,-0.13316975844480392,-0.034902581448397016,-0.19914927136972435,-0.4054915379258517,-0.6311697153272762,-0.4197183568982755,-0.4443604447148877,-0.1386014222399376,-0.1255287519689874,0.3368487410154405,-0.3342960402213399,-0.29249621674220544,-0.20689425568504216,-0.03410063514351566,-0.17635219149621997,-0.17498031098538278,0.24912868630695878,-0.12031629479849541,-0.2322021671414668,-0.056008921170605394,0.12910339725164835,0.13426475299069865,0.03694881644375188,-0.0011612934683677795,0.005365994726673461,0.005901740151830687,-0.025305839974410257,-0.019721016645493347,-0.08764246463283272,-0.15461351694579145,-0.38644273722832073,-0.43678411673105905,-0.532873556887981,-0.24183083407239997,-0.48824496651218424,-0.20551659027921929,-0.5534633522625156,-0.2994739670638294,-0.5329979655756028,-0.15386348703740935,-0.48940410767809944,-0.5417791482180306,-0.4795327365580889,-0.3730877450516153,-0.05835868894800456,-0.14363536662686263,-0.010090229122082087,0.13593589064917128,0.11592339138663026,0.07903965973202286,-0.1301111527389679,-0.05454633022771468,-0.04754776786307201,0.0027414519538460497,-0.05966994835228111,-0.05982752425565105,-0.1339817492695853,-0.3844081252045087,-0.31985736041878443,-0.4278799128489021,-0.2822785687756345,-0.21974673022574595,-0.12862520781012196,0.05467134745028785,0.14317804168062145,-0.007611548468494675,0.3063462025999176,-0.19817535941782533,-0.26214423157579514,-0.5629589791558497,-0.5491980623788544,-0.4748274491911198,-0.21940568692423926,-0.1486967480088316,0.1443345959567061,0.06369624948613528,0.2105309185759929,0.06833171600328732,0.04108680009651909,-0.0821244687516972,-0.010251172244827602,0.01021749657924585,-0.12944552146406418,-0.016703881200160184,-0.030324260155836225,-0.17560694342694586,-0.2802342812230426,-0.31114164163157537,-0.1172910484822132,-0.2605106617178827,-0.0009439642828256895,-0.1398877515337144,-0.08257890707023807,-0.21439231889625535,0.009633193473642342,-0.43338604781272033,-0.13350185467819567,-0.09159387156303524,-0.13242964692519912,-0.16423318504610307,-0.0578210046174011,0.11341615235102644,0.17849283231786375,0.08216456624041267,0.1499002498142461,0.001031634638904614,0.10764545784618379,0.017102111987693985,-0.04084837761752513,-0.035162854366993214,0.01092822116439732,0.044137030448656356,-0.12723225977340522,-0.1629407661019126,-0.10312477093900314,0.06820120616543303,0.1431715868252357,-0.027389140557160078,-0.27182286863621713,-0.11506407826985293,-0.3524958654154287,-0.21534867653989467,0.2058104786106015,-0.058806579502839504,-0.2769902191877616,-0.11730644245246165,0.1087915536906178,0.08195665552378296,0.1425725199030015,0.24545589870159767,0.21666736222683058,0.12950130559308068,0.10993490691671912,-0.024196635681052236,0.11917857877839642,-0.0639209767058491,-0.05802931567392181,0.046762621239311776,0.01179161520878074,-0.030857756037629556,0.001505402468127356,0.10468106277541052,0.0004487951415495036,-0.05987719572433323,-0.16166672997709744,-0.07793084174503653,-0.13048473934217636,-0.15314027938998098,-0.38669472313627334,-0.25349903439238486,-0.27122982714139915,-0.07135352540291369,-0.10091325595588332,0.08572693758355465,0.1491335794372181,-0.1201090693499783,0.12974911595271021,0.10106434929859594,0.21757199900524574,0.06342527736061458,-0.07056707763555714,-0.021344802382214298,0.04070360874935844,-0.01609438963261892,-0.042964427118119076,0.08422417370138155,-0.013112701885007991,-0.03992738189570751,-0.03204746267369503,0.11966194860983331,0.12738133125147144,0.08291602079259784,-0.003986768332898519,0.025714661031988294,0.039451587159970096,-0.05455094613505903,0.035807609876140255,-0.15833838186887916,-0.0010874674648009214,-0.08677617213487807,-0.1917947249170857,-0.22546991881006548,-0.1073241699649709,-0.16367903305648834,-0.006464706482495822,0.00780721427339063,0.008089711432612985,-0.0493552562879149,0.011082862872151492,0.061886658333422155,0.04597619282293103,0.03598840724572682,0.05267313671297627,-0.0387323046668422,-0.01079049983310641,-0.059025097310150314,-0.10272718084994681,-0.007656851204275961,0.009745437558864346,0.0978189095015301,-0.06410890113178554,0.10257673889930359,0.004722609996439489,0.05132914016615763,-0.11068966786714872,-0.15784735588484441,-0.021225406453036427,-0.08754027519545081,-0.04724720206719091,-0.0776688187014897,0.006119016300350286,0.030161836066017144,-0.006487514895783551,-0.021782096020662396,0.08443283110085036,-0.07620792838724254,0.09600491516561177,0.04347382153291041,-0.09063638706662408,-0.043731144745057016],[-0.023414264205041564,-0.07150415406989567,-0.007336311050137347,0.1248620032079152,-0.08943125545040191,0.03484383349458542,0.0374765145637902,0.013576283067885027,0.013055152637397127,0.0358675364885573,-0.050401516091059285,-0.016097571150406487,0.02843521373481856,0.0057144234822212245,-0.0966089315451077,0.10605523247756672,-0.026014224762140672,0.12456176243626033,0.022554084793181745,0.04835042140063884,0.13843340168810853,0.03877163565670086,0.028382574660879945,0.0676903655641695,-0.00171471049615822,0.024367196593655997,0.01817915034077687,-0.03762735795828195,-0.062172751711142664,-0.03601902792795933,0.019346438313023583,-0.04668026369312976,-0.00827851410362126,-0.026857465753982408,-0.008640084392540227,-0.08197830536686031,-0.06137568599496291,0.002709246138585752,0.03729468881228381,-0.013798464021901281,-0.02503741416577693,-0.014432013263099668,-0.01414464492027615,0.013429477852014895,0.08310174672957656,0.000820656794180063,-0.07179256160445098,0.00029257167312701175,0.0386399488075475,0.029903647870412338,-0.018607293625951975,-0.04922748355175873,-0.015482822759371925,0.09235710256546743,0.033218325994745675,-0.00316283759520297,-0.06294405373529598,-0.02942899614742506,-0.0622741015581243,0.07103821068083332,0.01137415917430067,-0.0657005531687244,0.029159640323711978,0.002952390202106575,-0.08547269708579239,-0.00006300272205127952,0.009394111715033748,-0.14391821824462805,-0.08594759427524763,0.11160726656934605,0.008565699035568097,0.05412640673706922,-0.015132652336475207,0.025242436340745345,-0.035631653738877424,-0.01612381994821701,-0.0892180860079795,-0.12673553839493082,-0.091894053172957,0.0390601260598151,0.042759349775811056,0.02380223229081325,0.008415143006965236,-0.07744711687391516,0.08499285607860337,-0.016474709603558964,-0.01667160614064585,-0.02260807303453037,-0.09329454737709295,-0.04868542575545107,0.03054566166523079,0.043684695619470845,0.00916399180835389,-0.06622112392875425,-0.04004336192181071,-0.19921726176109117,-0.04041011856689901,-0.24885278253926707,-0.2866310701934532,0.024019124843726217,0.12952103629202066,0.1257329889390353,0.24786581958357393,0.13659995360552646,0.025471623226867815,-0.07886469103040268,-0.07107416074259455,-0.07766236595875352,-0.08024778252271912,0.13508845368006206,0.006328246445910018,-0.009012966647931888,-0.0442346653168359,-0.09060012591565737,-0.001097100273300857,-0.05150458400343898,-0.02203617300409672,0.04223189217224538,-0.001192046428211907,0.10474999307216522,0.008247596522889662,0.03229997601835829,0.13450275572866727,0.07370433000515005,0.059773096767316514,-0.029050742404221494,-0.035615959582078666,0.2354396751330065,0.1652447816245089,0.11701771085863648,0.15634148020924693,-0.13017371488190294,0.10417863955904931,0.06845033135804987,0.12117289934733118,0.11557666367626057,0.13119711173879584,0.14636493918425825,-0.0015904610253254273,0.0693955547606367,0.0411189125128062,-0.14861045910616433,-0.019967535859338133,-0.009689368017254217,-0.07615313576950691,0.052555660893987124,0.026282508331650925,0.005677623039520262,-0.1514381371216279,-0.08996645518869797,0.13410819111057146,0.19548980095788632,0.12011780285647149,0.3930931879367332,-0.19173798770873005,0.07457037291598413,0.2865840212914972,0.4017037748288225,0.2803575878946176,0.24235693399773944,0.384615422772495,0.39355742994922277,0.29437733146225903,0.29089077482253184,0.2204514335166517,-0.02354018346724393,0.052600705955432245,-0.03593016526489794,0.0032397979766452555,0.057581415528971704,0.005288481815585772,-0.028469196239461175,-0.17619442383539158,-0.10623414619715159,0.11137519103397854,0.16407535552110916,0.025268889173102747,0.14156859256151805,0.2119698402695141,0.20710979335948448,0.11679331574236891,0.031140979818546518,-0.00905900184694941,0.21776162209966646,0.04871432323653552,-0.10419291645204454,0.20646283907555663,0.1607299569747761,0.4284460990990189,0.25911975982118646,0.03535582526712236,0.17996281171292064,0.22646173823784835,-0.03694025680045061,0.0474216542423777,-0.028227723705086347,0.04835614005623568,0.04927089204514952,0.019919240210966298,-0.03834135401562515,-0.07684432859093057,-0.10794243161391301,-0.032758495342995186,-0.10436010568491517,-0.1012284535458065,-0.02858200436855523,-0.026666173434951836,0.24791408195133086,0.32253589736897326,0.035348494467438187,0.36532502307977793,-0.04028660900104896,-0.3370413077950905,-0.33589960784062306,-0.49054288048196093,-0.2642826161202528,-0.07948982282960915,0.05783880088638383,-0.10648647459315093,-0.04636368774694757,-0.12299604400490807,0.007033953872011044,0.011204795506935957,0.05349985097224749,-0.05097413871806526,0.019337387030138833,-0.04070029732870299,-0.05709099189491476,-0.07183364295884102,-0.20189428038491478,-0.22860187200746537,-0.26851442680730414,-0.3373975962867839,-0.37179874688911,-0.09863011982587401,0.44893264496940544,-0.007337617860531105,-0.3994244404033121,-0.05112648337726308,-0.10948648511060599,-0.42901552436182333,-0.24338678786812765,-0.17605435765726968,-0.23374542525948708,-0.21185703457642538,-0.15229089672727492,-0.14537697322596935,-0.1037122982374484,-0.016845547452280944,-0.011947421680997883,0.03558078441251832,0.03791642820214972,-0.09654532283675908,-0.10437381519227264,0.030456886806064055,-0.009318428345968,-0.12242201930087435,-0.2757796471439201,-0.1970085331231116,-0.22022645956885736,0.10883241307219951,-0.19322909194118285,-0.07771545027838374,0.37718572281340856,-0.1875789704291945,-0.5744726529709115,-0.4536098798107228,-0.02395096059864067,0.017814167349640444,0.07821230404770307,0.2565113496146961,-0.3719368362918109,-0.3111112207443767,-0.10983352404422642,-0.1866102581941147,-0.2995277638960028,-0.08509441563829757,-0.057453471596332545,0.07830357248423564,-0.010134088327777785,-0.07698159695600164,-0.07403874436666029,0.07332506797304236,-0.01490745455213243,-0.18618774744500335,-0.30442061069862764,-0.32169715069400184,-0.09015840108104098,0.03090899286425066,-0.11109518043174453,-0.3842829680534897,-0.20701199377136764,-0.3364676633871908,-0.27798546746039,-0.33035087844025607,-0.2303626776978458,-0.05185640515570261,0.10492022124742131,0.09605197776556305,0.11861196233240971,-0.22482386236816967,-0.02358631644525508,-0.3340365562646418,-0.2886124144583914,-0.0938524297939735,0.05789721123471839,0.0953693493357113,-0.03763953458851399,0.012385919877712762,-0.04152540655312731,-0.009015240450214025,0.0004365534647700927,-0.1539551235223854,-0.41015233426794584,-0.04035294618306655,-0.025267940710561,-0.12018047689622446,-0.3020917075753683,-0.16021699321444718,-0.29604103127939235,0.1392829966464335,0.013534085809972562,-0.042198789588107806,-0.13139861208300205,-0.10162284105996733,0.23055984839358237,0.24711723514185163,0.0761395723254032,0.0528858599043851,-0.01499979522540589,-0.055934699323657806,-0.14109429392553408,-0.2458079721456279,-0.08858714054727418,-0.04323735322191964,-0.13679195924521992,-0.006145199029312725,-0.03406134824672699,-0.13260188231127418,-0.014523545595292718,-0.12340565193473205,-0.31790408734130465,-0.23461204867883267,-0.12084118706780271,-0.11747616194597454,-0.16065514091575994,-0.06181491532986402,0.0536322723470132,0.3883902396549684,0.03311208072433012,0.060661491267441664,0.08649650406579436,-0.014183845148468259,0.20152291519492513,0.23798555687157755,0.18698399013850645,-0.1061335099481409,-0.1395901797980894,-0.11476367898675763,-0.40145496938755204,-0.4119398492483235,-0.024493187167241495,0.036901037696612723,-0.06245482906394352,0.047443008855807926,0.06330547649717846,-0.08584248858865623,-0.0074991937533825485,-0.17888170359282235,-0.1986618418995669,-0.509592098167743,-0.14484432030348052,-0.03671565653406066,-0.22725406220583125,0.17497804493021554,0.01738784410974357,0.05160180934321193,0.1866955251178001,-0.11018381357868248,-0.21053843939339126,-0.04772925408255537,0.24357859795315814,-0.27788567344577186,-0.4430314818302284,-0.21503946625381695,-0.20647295790907577,-0.28508896088327934,-0.39110056229514617,-0.11414319320367838,0.020824453360503353,0.10688625178678529,-0.006817004975172607,0.016352983875008373,-0.006475369437624025,-0.06105007500513497,-0.05427032347957709,-0.007670968286998954,-0.15725924670985553,-0.2577741871775278,-0.2528921465890892,-0.27105688075597706,-0.4724508755589633,-0.579283769229903,-0.5382642313214281,-0.21020579208189707,-0.175357079260869,-0.3032273747355696,-0.5930338433126403,-0.1037773925529048,0.02267882990112166,-0.23158834767316247,-0.5443504286900991,-0.3426937763016353,-0.35429696915675735,-0.16038118660778747,-0.3396693646820207,-0.1261317714645197,0.11513638983617923,0.039976251970037596,0.000978318417957543,0.008304736541499918,0.01717734614737508,-0.0038337531103138055,-0.10694587547000482,0.2799280739871186,0.04730896303788537,-0.056441530830908845,-0.46764774883675464,-0.4398488062339996,-0.5822021042548265,-0.9759840491904866,-0.858714317377403,-0.3994746220595261,-0.34676384273097977,-0.5986255821506961,-0.3230476796237115,-0.10257540112029774,-0.20679029378957756,-0.4361221068040311,-0.3508534698384324,-0.2285291602515702,0.10025144604971754,-0.2261112986305024,-0.4843369053839299,-0.03282866262402835,0.1216584491929821,0.07251765720173141,0.027702520573575747,-0.13428260033447503,-0.0015614362168923695,-0.052819244271000744,0.031301123628881544,0.16195389689478532,-0.09202305223228428,-0.030306028877983712,-0.05089974768056967,-0.22010620575215906,-0.533312577159798,-0.6410913639934588,-0.5137521633366606,-0.4916747366302564,-0.47466054639588134,-0.47997039233148037,-0.2269610798175512,0.010097655157978933,-0.3034446620456593,0.08139032374654205,0.08424011385094338,0.12378817631943725,0.08271237858045834,-0.1652534922300226,-0.23829891524254276,-0.10716425220214151,0.09390459217127331,0.0742883663871391,0.00248638653166513,0.04585383345943333,-0.020651104456754235,0.04616227470007018,0.0035090582050215833,-0.012722315460865583,0.009159908028655185,0.3097921629603391,0.02508315350081146,0.24693582728847419,0.23289245281284635,0.0735441859211798,0.25502114616465976,0.048829783517563834,-0.3855715328180537,0.0503402052475498,0.37910630192004324,-0.005426036590414431,-0.11918160608818625,0.18555673034934697,0.28319073453727367,0.03778409047589938,-0.11200326760683996,-0.23814997359291107,-0.23116004786889066,0.022684942047685678,0.007151196601764284,0.037282825621784914,-0.10004079554077884,-0.03417768865853253,0.03640773933707054,-0.012463012430224059,0.145577955470397,0.1782656191979855,0.21040277625547463,0.43068302548036713,0.37663314456000946,0.5217292134329901,0.8154499810328043,0.9537747765593195,0.5844292305248707,0.008582342559935766,-0.09089459908906755,0.16839771794590397,0.03646820258221889,0.3044639571363499,0.20027835067553176,0.08604835478679325,0.31324456666604644,-0.06424228380339214,0.12337436053600101,-0.010253649704723842,-0.10345184369716749,0.17608346593118548,0.056734905532364814,-0.03795042724180269,-0.03566068314547462,0.04748067332644099,0.030449546648820477,-0.006985657476388706,0.12346994339572102,0.1497813244744448,0.1752432314087819,0.3132060882377477,0.32680414281315995,0.43921211046923675,0.7359000865663821,0.8166500215960188,0.739356251583411,0.027344184549191245,-0.201092850709328,-0.21897755090285653,0.28668067085899684,0.6137711191367308,0.02911011654880861,0.33234549716368256,0.20396001427114824,0.03145481959184058,0.4157319070935153,0.000610873262821864,0.09661441525039555,0.2200073732225766,-0.0041683455888429834,-0.053860897056810575,-0.015850471764500457,-0.10115963930231388,-0.004309794184885634,0.0078837425273353,0.10289267469550302,0.028678652643487693,0.2637122977652146,0.47817281916307347,0.3178156923142917,0.32595214936762973,0.4593505435055456,0.17851421159119765,-0.053927854552426824,-0.25951673045171664,-0.5690211243573416,-0.401720955419865,-0.24807137053277742,0.4478124882831398,0.1290262906885719,0.18652030241017786,0.18896362333592262,0.025163415403445532,0.06477544138139156,0.09630104555918095,0.19089179523519434,0.2790632342402412,0.0437890501491242,0.018443825884836347,-0.09838391862515465,-0.013014784565988993,0.03122715166179962,-0.061437476457321484,0.0214117944023143,-0.056548864346550286,0.1340080025016852,0.33253491921673495,0.31029707860360667,0.39214848279210107,0.1402696293324648,0.1361894528531974,-0.38235076932088585,-0.33840844409735804,-0.42339826278406856,-0.41731871423080075,-0.19286862472058472,0.3186481588768376,0.04777078821052597,0.4701157280983885,0.4919987217892342,0.5553169819504828,0.5390116174235666,0.17389144638651732,0.3120550285927516,0.21966973993629532,0.06254102372526489,-0.14483582338905227,-0.04265158633735759,-0.011480349150564808,-0.0186485980081381,-0.0858419916045596,-0.015314094715805485,0.04338525783757724,0.02649765897857833,0.22508699700006227,-0.12688555978606564,0.07928366001244445,-0.06899562865145305,-0.142302241563811,-0.39039289078860606,-0.5507950146471768,-0.47823186539104573,-0.23378368750999526,-0.3335417750854241,0.08561803103243329,0.131192081241555,0.28807345252134164,0.029404992565287738,0.5063611507498316,0.6607217641264873,0.31979751873782514,0.2846321556435795,0.2500326107529201,0.1224472438112313,0.08238540095478543,0.059293276285831316,-0.022661825381336168,-0.06258968763501115,-0.002860332198118278,-0.008653277226991742,-0.16821319253540243,0.008701619391458708,-0.009581754235174796,-0.24606810808324575,-0.34880127533872707,-0.42916582913256857,-0.5198921086337587,-0.5023523596157299,-0.18693048227799905,-0.23179770184081602,-0.3198638321114956,0.03404604904454511,0.19925365973045928,0.01962400075444183,-0.053703894237455245,-0.012880566375773821,0.5664748048072831,0.3928779604096763,0.2686728343095242,0.16898684315188678,0.3029131452149245,0.013433253737155287,-0.01062684357694994,0.10921552075012184,-0.07915178193285453,0.03491204452235588,-0.021771891858617817,-0.007899738517530144,-0.08245728961342631,-0.1088573716197482,-0.020146454184629053,-0.17416511339049076,-0.36227342534904844,-0.38303688381336476,-0.3727012076320069,-0.40609597882831266,-0.38805577519891155,-0.3901115179752259,-0.2765363094625843,-0.037322963740581916,0.26446806383548105,0.10254546926197342,0.05263943298758428,0.11583765350820927,0.1813224643180053,0.2524766577536292,0.26882180908333053,0.13717709475243,0.004039718282136254,-0.013817021868394192,0.005979620405341105,0.008936245008139554,0.02017075228796453,-0.01408635578645726,-0.042633773303901244,-0.0338441079573419,0.0021183312111323995,-0.08364183492823211,-0.0532891427192947,0.04739397528257011,-0.012676191460986228,0.07151561839838445,-0.05995677635744119,0.0792033045264061,0.09975977441385092,0.139565712041726,0.1698668538779815,0.14590065493938478,0.08693917803200678,0.05793340423134059,0.03809229820929656,0.10925979551661649,0.1756826408197079,0.24416787713842064,0.06436884728131287,0.13482110389641583,0.03977322182964679,0.06749248258489188,0.009433595964892898,-0.014450016353677958,0.009175992767139712,0.026873537916908052,0.058635793286547076,-0.031559108477811786,-0.01368615630318268,0.020634523905106762,0.026114456770533246,0.08440004651307602,0.037140129009561054,0.04911787799004277,0.04386295243498757,-0.011699306559634937,0.023751948881397093,0.061590623297439466,0.05429955767287566,0.018636322266649928,0.11869060485420468,0.11293405281680126,0.0021232385475368994,-0.03891154248491825,-0.009623570386011266,0.1716343606013795,-0.003716633331606275,-0.13150663056537168,0.03637356097578664,0.01238167147595795,-0.014495365180753901,-0.05609122868550253,0.035600150928916295,-0.12633192057596845,0.003998576380872422,-0.030082733942259073,0.04829422384698506,0.0026968087539515117,0.03248790443821573,0.07344767607215218,-0.03497878084013411,-0.0032094219121093655,-0.08248747075155649,0.0796917107223665,-0.06784551277623274,0.022354715101036367,0.03907326347274439,0.020565948241259586,0.0053805527270400395,0.08360394734049104,0.07677586198636407,-0.10583408428213119,-0.00031382730432039113,0.11129912369022402,-0.018160851742145215,-0.09224983743915902,0.006238360914068797,-0.01534647639364953,-0.03604841938149752,0.02939044086391744],[0.015707113394310558,0.06363656609981967,0.015624552855078836,-0.033333759832481664,-0.019647255905231396,-0.014085592222643755,-0.004768823600947423,0.0017370636445551723,-0.013586827251464942,0.030986043578711955,0.016594497184372968,0.09558261885010623,0.06669964350342829,0.04851185487138523,-0.016203443258945873,0.08667897723916206,0.06763790424363941,-0.02733190944113915,-0.06431764876173111,0.006159354276422046,0.02161364091574893,0.12619108985616537,0.07202957531497639,0.004391440246403202,0.053042858108964856,0.0742906343607285,0.028040621166325944,-0.027266238520839762,-0.09026124158076382,0.02009973392648155,0.005243175029731349,0.008618180275855142,0.08926608515742,0.021394559546157828,-0.07396896727988644,0.04668010528792789,-0.0454842165457649,-0.024248485739291618,-0.0049578571768480245,-0.10959187170865071,0.0044658409020276926,-0.03460436136385465,-0.019089480909949875,0.06632028367061174,-0.11274740676509898,0.0687803581405557,0.013667318682205906,-0.0004965514019885662,0.06516734678827833,-0.010816546985557379,0.05068548124405132,-0.03836314784434504,0.019004169310344866,0.04395040299293468,-0.059625977692203715,0.009980963204310096,0.017830148794034554,0.0038709679697425323,0.051468085245266706,0.06441474565080625,-0.01504931509586122,-0.11392879082559473,-0.06532950810701665,0.013219108430202806,0.10277318172470028,0.020450294567217746,-0.06683774332123442,-0.05188722648456829,0.08776012999617203,0.043963494335638204,-0.05054445155041434,0.08481438942332241,0.002118321458168538,0.10099567510291166,0.14897427123530593,0.09975880545034052,0.09825013836139253,-0.014955634512285572,0.11015091053314238,0.09978168031951926,-0.027379069943181487,0.08160983557507964,-0.05456382648817814,-0.06448365918440617,-0.014181588848652286,-0.07521244448704946,0.08576605821970695,0.01554479074234263,-0.0059240136662744945,0.02216843119474731,-0.02477438141794088,-0.006988244072146923,-0.035535907694766646,-0.04261191743930662,0.03328842279012144,-0.018803129075634178,0.16709815868538944,-0.02566533856907727,-0.12370936080259615,0.15645555099241537,-0.0523585683526046,0.20833444094655537,0.30289034099789197,0.34758712762224403,0.23506276988029734,0.19167353850915878,0.10625897783209948,0.0013933444645433954,0.013468018329281257,-0.06844321423407823,-0.09647872933834639,0.05578592585929234,-0.11247485719770041,-0.004748606133053751,0.047998455379247185,0.08001337978255996,0.01755485555433891,-0.0018248608209979306,0.02738547951926227,0.007676216323797129,-0.08745803236495224,-0.07201177183806003,0.09926898869636872,-0.14092546937668357,-0.11914525130918864,-0.34616879541093354,-0.01605722008155215,0.06662237575667548,0.029359742763255033,-0.09735452425899502,0.23113119831477247,0.15485928767128893,-0.0961009092167563,0.12734971127344138,-0.09932270447067837,0.254877919537004,0.16784881673816174,0.03021584209086006,0.03078646808232542,-0.04212912726017452,-0.03849468626402109,-0.029093043705646235,-0.022892992225508755,-0.012755906234910226,0.018506665412949666,0.19271006354657783,0.22660508082197342,0.0631442400574389,-0.22674475480349654,0.09260865906252509,-0.1448316353074627,-0.23289202901864034,-0.2772817506262902,-0.0559131395684054,-0.05415016052747019,0.07736462575026815,0.43049807881265095,0.40121092362948496,