{"params":{"input_size":784,"hidden_size":25,"hidden_activation":"sigmoid","output_size":10,"output_activation":"sigmoid"},"hidden_weights":[[0.016105674373106806,-0.06968906358915039,0.004679701369211114,0.007560154500343986,0.000644281485212357,-0.021157295263506206,0.03561387076827646,0.024661677364500843,-0.00013032586270891763,-0.019483724982161926,-0.0670302452033082,-0.021824622789503548,0.11823085419772353,0.03554390208018252,-0.002606934987728464,-0.06605334970152428,0.08912868657136906,0.0246650493111478,0.053483754391134446,-0.00737827964792074,-0.09113902427655464,0.013633437428941644,-0.04213936391499764,-0.009074590456322706,0.020306017741071117,-0.016090293161992317,0.0746448090278097,0.08212177907220206,0.11577001230627094,-0.02881519042545804,0.0037487856934640094,-0.025377264933514478,-0.023202094510093085,-0.03211849321408283,0.012423010403888749,0.04825529763085482,0.050585139181114,0.0658131999194735,-0.04117776393978638,-0.0069544119924286754,-0.016623779638381145,-0.17146622164021122,-0.029042413969745592,0.013904112142543694,0.02931310069918219,0.008645199716322438,-0.0029265778981664077,0.06312229613544379,0.015966832173307764,-0.04628082718191023,-0.09791213348125963,0.05885566582033022,-0.010494262208878278,0.0016858564029934445,0.07286018565012198,-0.01596793250529965,-0.037663929702540615,0.02351975435161701,0.08295906091238797,0.11265882924242113,-0.05140130727493538,0.02802352157755062,0.013896009166703615,0.07436206819504264,0.026100614463500257,0.1424574034431781,0.03165950266633287,-0.14147635977141618,-0.16290805988570053,-0.06615002667336418,0.2318928148408858,-0.0271103924594689,-0.16462848448546752,-0.10919599546415296,0.06852617876530805,0.08994480506271275,0.12565328194970526,0.047676954603283826,0.01549458519441767,0.01569519828519113,-0.07151201611046619,-0.014420556993520106,0.0264570307129677,0.08921276542457247,-0.008007234060119037,-0.08294852229409452,-0.0013970669756436524,0.002910118541984573,0.06720453120536972,-0.03012611904432433,0.059010126338677575,0.07339248380205501,0.14751784382308158,0.48444832312386954,0.40925221864708683,0.10208446763421336,-0.23872631427402313,0.02247053054229749,0.005604611473322107,-0.0763181166923698,-0.23104602258786053,-0.2640943891246278,-0.0039573050326477625,0.4297623530816437,0.8504508467927734,-0.05003352802637083,-0.30422725270169454,-0.21746238454887956,-0.03334322117924261,-0.02195672913437235,0.0037904680780515457,-0.025171834263765413,0.005998144573924881,-0.0035579845254342757,0.01458386657064265,0.0926283335016228,-0.048589922389705505,-0.038651661341327956,0.13142966384295796,0.30790415679563704,0.46496567858518384,0.7202001083376413,-0.09842736369995193,0.524047891360258,0.08464727268318689,-0.2937231777675721,0.48359187195004977,0.316825187389978,-0.005056488561167565,-0.008179238379587577,0.7267341095200267,-0.052855912234661705,-0.36715297026637417,-0.41762594006334747,-0.4802836553270939,-0.05176527437074194,0.43955469955975174,0.11565766143273998,-0.009171075923823317,0.021453343489468236,0.02443878059833419,-0.0023888745268816226,0.10901104537779624,0.0665762014462659,0.3361276488577218,0.1996142828514902,0.4638371541305207,-0.04855207513064908,0.20475202698354505,0.356095716970058,0.569086580100905,0.8334936945947021,0.3781359992273224,-0.3516867333116032,0.21796885064362506,-0.4706941382777025,-0.16975321433795418,-0.015508236319645215,0.28601293765789854,-0.29915243570144234,-0.11620657241818633,-0.26103967191582983,-0.1849028846757001,0.2837870301108008,0.561184521683748,0.25242127835942535,0.1102893177495434,-0.07137869090456907,0.07740723818017826,0.043555229062117846,0.032841465367348124,0.31580989147258576,0.5080749948060076,0.26397417422000674,0.7665556424379695,-0.2938996760231307,-0.1957397798662426,1.0785376031152007,0.599967980000189,0.03412150737630322,0.35391371177596215,-0.11951354812401958,0.5150015879286479,-0.4042790156184887,0.13382334598080292,0.16790947596273229,0.5690529546543771,0.05773487914686477,0.010080074393478411,0.49047990522474233,0.3959943434428711,0.1187973044379894,0.3660347021685057,0.3210653869271079,0.2472600175505822,0.003947914519907768,-0.003513518369799155,0.011118707629042929,-0.02456027451756272,0.1850653350448749,0.1833490266426119,0.5573464110544097,0.23510742343799018,-0.5986551065996977,0.3748931668399544,0.21140772746399003,-0.3337850107490074,0.9430391261421592,0.7262690243967921,-0.07838066810389699,0.7546314755003906,-0.4525751889608421,0.35670655970650883,0.19361526028576484,0.2559266494513035,0.5646131073662198,-0.3432931933502872,0.09009652457434515,0.7518177172979486,-0.04384000191782012,0.18000578528557992,0.5403206765494657,0.29922028784695215,-0.02825284883397085,0.003166781048364152,0.03526366041115194,0.03672136315926278,-0.19646049457147052,0.02814674377476663,0.31762390259615064,-0.4035988672375604,-0.6488953096599146,0.12685267097702305,-0.26961444569240656,-0.3790367268551903,0.08289775611402622,-0.04688551527749654,-0.7023787814803829,0.6925218035322672,0.80781156473751,0.8253556134369102,0.5163649122173926,0.19892442340326993,0.017572562564348467,0.13928050484761537,0.14432323585895054,-0.016438663518102786,0.30222194506327393,0.4745712840048644,0.7165417089709641,0.2812571399341186,0.005508932145026282,0.006109124234430312,-0.0008861096290075545,0.12819018189420373,-0.2662381084736723,-0.23180214288273884,-0.19114398053869913,0.05592589816652347,-0.24574021366443213,-0.16010700824754878,-0.2729331731855773,-0.34279011271374943,-0.4723138851860463,-1.0631735217938663,-0.7266409907560671,-0.642347293545638,-0.08265921284923153,-0.12119271241354831,0.23965681972059136,0.14956536194074505,-0.1405038444581774,-0.061331462436194285,0.13394149560167884,-0.3697357898305343,0.10044297368800528,0.41015664821217823,0.4226846043279941,0.14929556654084294,0.05423490851033953,-0.023076422070472048,-0.052848610346940245,-0.030528446636483887,0.11715976152531767,-0.3054206347982528,0.006101822321303416,0.3289578069326545,-0.6498234692691124,0.11108372948419283,-0.5144820001250249,-0.8146314497498025,-0.6359450756683352,-0.22294368179486806,-0.37962973230701086,-1.4071873737195386,-1.6576659302465984,-1.1680978491564795,-0.11186464715348769,-0.9241863726434894,-0.6938311479315661,-0.7077730120140864,-0.8473089050735212,-1.281836051508475,-0.6813021771472859,0.06121459974714252,0.2649757222860058,0.19613546169854654,-0.013580191251425476,0.08489912674111197,0.020667479048636913,0.009467996261287507,-0.15063307262506886,-0.02993796765988056,0.3024767725068663,0.4279216959670742,-0.9097294173836146,-0.6988163618756326,-0.46425610498164255,-0.05461231042663977,0.2394936264633817,0.28807211978229325,-0.9390656375611074,-0.5826116833624757,-0.9520252706263138,-1.8203885376274092,-0.466542002368645,0.006909492217399655,-0.5261375541897926,-0.6607934440326283,-1.3937682512639495,-0.9758350149750822,-0.402880667922141,-0.16766739539518474,0.06518451928680617,0.08026812113265937,-0.05446322968625064,-0.006899457304343147,-0.019716736636525078,0.010878851163050469,-0.09533815576369367,0.23335767819961062,-0.03214838378148804,-0.04096900377535408,-0.3413352903511938,-0.20600388759036858,-1.0268538903253013,0.8825076722984817,0.37340953548644257,-0.7585080010031319,-2.0092361378180525,-0.8950562410033363,-0.040871651361045515,-0.9084108652680968,-0.6089650031223666,-0.18419934270387814,-0.6115614537946801,-0.10497405817598446,-0.6060062996030714,-0.5384535621095751,-0.6031727286241153,-0.2305861911795834,-0.1077122888992326,0.04233724273404375,0.03945393165161303,0.006080890439993384,0.00019446315049129144,-0.06301624553586972,-0.09181666645702623,0.13525281938027003,0.34536372315453645,-0.07193115579719674,0.029067141112724862,0.18622861404678762,0.30797799032615064,-0.021993706875643743,-0.963578146382526,-1.255205607989815,-0.5166655422622822,-0.36105421750471717,-1.0051219714721926,-1.1036472177833208,-0.165288179875087,-0.9825224890007167,-0.4125934609596359,-0.00802501828317373,-0.10346385147651929,-0.23726535459889447,-0.4182569916516249,0.1726958542255427,0.010777320041040416,-0.07897011238035946,-0.0813552709471517,-0.015458495187347052,0.028994850426049764,-0.051111860006474434,-0.08093894096967007,0.016158037151628,-0.34815749728351364,0.4071163892937046,0.18333794824632552,0.2826686756861598,-0.2736400503213912,-0.09722184892843849,-1.6153628561003397,-1.295188919377407,-0.5985231506453125,-0.1566407177201488,-0.3328274351114083,-0.7145238555187686,-0.9513296020870268,-0.3265815918810797,-0.9963738060063192,0.3234963439323272,0.1031574577854538,-0.28207279878822705,-0.35265203811680274,-0.05739400753462731,0.03956882511506516,0.04225376680202771,0.048884947025544585,-0.0024815621657269136,-0.1059825297135821,-0.03203582214036336,-0.06330653524967249,-0.18096220312912875,-0.49788482853008365,0.042323694166621094,-0.5269319326133627,-0.6767236816231904,-1.0230680138729826,-0.43401890414857375,-0.7545458050437339,-1.0931094529411074,-0.922599434018387,-0.8561065615654516,-0.8756108140110472,-0.24432936491590537,-0.7998240041739219,-0.19841858610021837,-0.4398834257270277,0.13800631276452982,0.5335821669854274,-0.46236440878150215,-0.5290264699502402,-0.11469576078413907,-0.04901515524176217,0.1482118537610052,0.1956731932058417,0.012021391671399513,0.014888128273261629,-0.0015878292495959993,0.07589328905837558,-0.319540116487604,-0.8431758319722326,-1.742247633006189,-2.220138873629155,-1.2184988762919216,-0.43513711363650426,0.16744633920570778,-0.16680560188346447,-0.2279261044145016,0.28277395917296577,-0.7126829241738356,-0.45204333394103585,-0.714170308485039,-0.7953727370916086,0.2843191926599021,0.16318555155950965,-0.6627834437062199,0.40733504117471575,0.005362793714903506,-0.44302415891912234,-0.326325561216304,0.027217902662842436,0.1936457513009004,0.1331016467547867,-0.006299844128383398,0.059520137863901076,0.03455829596073298,-0.0029967231129606497,-0.2752805923308625,-1.4173819514617094,-1.7910204762629782,-2.14166147712954,-1.835727814804187,-1.4352627586236404,-0.4392669530785484,-0.9480826654209942,-1.0269715050331913,-1.6220709435325007,-1.565448555530974,-1.339604090835045,-1.9608019263524428,-0.6190935157322296,-0.17451000914259931,0.27673211334321185,-0.4220018372452489,-0.1027522314238325,-0.38087566802153405,-0.11910242612235897,-0.35594102739406935,0.4148476276107061,0.070109130865416,0.07721388866713885,-0.06141340299597705,-0.009620522002069514,0.06307854223182,0.21459396820573284,-0.010894889112637014,-1.0472935834836963,-1.2776789359123915,0.1965913980461881,-1.2917158784220366,-1.1737922495856077,-1.2435326782008937,-1.4768475655657567,-1.3684252415547935,-1.2484614277512651,-0.9379875019966257,-1.3234539367642766,0.1582254490661956,0.11358745767621631,0.05276842658145993,-0.021516625254023827,-0.2847506070007908,0.22168680260755502,0.12548599453865522,0.02315645300350468,0.21165133076587317,0.2545193494309153,0.05882766847891095,-0.03205086104954354,0.09304910377317595,0.05628222365393229,-0.010183040794259513,0.20613124554953263,-0.2700029558129921,-0.3629896372204891,-0.13395458579015343,0.2676132011540655,-0.5174509093178244,-1.032758272749017,-0.700327721227898,-0.13950488883628248,-0.17115528262867838,0.3933442073933071,0.056512877988713676,0.8755822654158443,1.1654434468890855,0.7915581133711218,0.14734149143482708,0.422024312593195,0.9183255163321996,0.5181789101961254,-0.33028728895063975,0.24089285141957523,0.2530394233596819,0.1462600531289283,0.1153344818277275,0.018863197024067354,-0.00653128767518766,-0.08411599225617503,-0.027940074703212848,0.46813181465980075,0.03700566520187241,0.9142770856126192,0.7331768720613819,0.35188013945389995,0.29539016213209546,0.7517267698868912,0.37921340175486595,1.4064061491408557,0.8519241324671163,1.269905409782168,1.091216259321793,0.8976399154943256,1.7424355052408689,1.0304833334828836,1.222928303480693,0.6902831333116973,0.7049330704559668,0.22667499033981103,0.7360818554893834,0.8426939997154871,0.37751912018333367,0.08312702016591905,0.02672011334688202,0.09748881205889728,-0.10659749961727481,-0.04674668037549265,0.0886271034213636,0.34757244892620903,0.42373212195994037,1.2186384582726832,1.500891684185355,1.2031612140769208,1.3039126723094723,1.1139581780718117,0.7958460551878493,1.1231174920340175,1.0325428748407537,1.500871476856034,1.7695947604809454,0.9044120439623581,1.056335976564732,0.687977534267281,0.6515802193460415,1.0219362406345114,0.22883652516198505,0.757124261108892,1.0950922076136964,1.2824037666967514,0.4727128790686353,0.059829368924375,0.06269741869404886,-0.016953018541462157,0.028479721596451554,0.04330119924429869,0.033402854118237645,0.18619647460690797,0.5170733999642431,0.8434757017304807,0.6675293866586174,0.5288849908791163,1.6158623798973726,1.0929763427038333,0.5706239726781986,1.0148430793403767,0.47769453296291203,0.3386128582923529,0.9705890162197235,0.2546079663091438,1.006138442580757,1.1603995939485383,1.005990885737203,0.7591316190178884,0.06346278801748102,0.20103714432018022,0.5276513114097298,0.9291235224997973,0.4257775103611567,0.07764016948201297,-0.05458723158715308,0.04166537734253715,0.02159918332401911,0.003623425145023757,-0.05216353241848263,0.10174929726925948,0.6768900062460559,0.9129080375982067,0.897477988434892,0.42816015439583616,0.4805541822987226,0.7157751291246207,0.47508940147390494,0.8991642581765608,0.8691542571475699,0.5034897313331134,0.2300364416772871,0.45599764045154106,0.33057940397553776,0.4120895785614266,0.7179355823764958,0.01811600798913508,0.49121463050250214,0.31066714726841993,0.6185154642442037,0.6501226123894251,0.4238292589875415,0.009849220388479298,-0.019208751203970937,0.07313143370048639,0.03112335358296008,0.02869614780043076,0.12286181103051216,0.041089987371410695,0.08497371736193574,0.3140438983648302,0.300846054174569,0.8860242403825072,0.506321321372101,0.3084963990453011,0.6802124428957852,0.5945351834354924,0.6157711963881745,0.5448898984096991,0.8223707290466973,0.5561902674795659,0.46099565257514863,1.5070598091429224,0.9646839638327295,-0.0677603545325692,-0.04499884217165939,0.4323896175137822,0.6258118551810558,0.35277152097154035,0.06465416428905352,-0.03046274660552756,-0.015458646266448101,0.004857841784266796,-0.05580745829372581,-0.03175196971155816,-0.027466358037676455,0.04249909272381353,-0.1616035071186628,-0.04574063696860185,-0.17243643678866022,-0.38174404572391096,-0.47020389883879393,-0.19114272918065664,-0.07044969681965432,-0.11512557475745058,0.2612957217692227,0.2687439385529219,0.3044962960567767,0.3418510242265369,0.5653027807777998,0.24002614173844383,0.4432444060258656,0.38323584524214055,0.17286766334951684,0.06757992058129295,0.032352472183422416,-0.011232867480134266,-0.03489223735623671,0.006501179122440714,0.028438037014784076,-0.0006123916516369635,0.01832717873558377,0.03397521112700809,0.036660760027237914,-0.031197356532077537,0.015352102953252546,-0.07971328868996816,-0.18053432576593195,-0.19316208167757695,-0.09330556050959332,-0.19294601258022423,-0.2228450414273505,-0.427822450067539,-0.1810028754164643,-0.26604585693881555,-0.36796338024899655,-0.15831704620469583,-0.16493485650529008,-0.2468009347820246,-0.06389048800728225,-0.10753277537306542,-0.04053921209497528,-0.058885137056679096,0.01170623420784555,0.00692809972405154,0.0543760215200006,-0.04948803065892093,0.0055392387578871985,0.026449377059196793,0.0028955358668839013,-0.048324167849268636,-0.010924995731701949,0.07125823000095073,0.031685101849935074,-0.1001917145686793,0.06942451451820765,0.10129029056344187,0.012249469359645297,0.007475922068612577,0.016099426275179053,0.022113614891378048,0.0004808305060470851,-0.02375552173990397,0.003907883066878414,-0.04336396945604979,-0.08620993169563249,0.0765362421528269,-0.08140964052128505,-0.026206168932575973,0.05087199670394374,0.06659870670336218,0.003498090953647486,0.010717795054994705,0.03514272658624805,-0.017893332571362955,0.027843296630747857,-0.01324483969560471],[-0.011681176891326335,-0.03509730392457534,0.09035933181102665,0.0027506873638176864,-0.02022148457652059,-0.060738496785158476,0.03150962877497783,0.050894654182071196,-0.0066851938725924044,-0.01916498162237533,-0.0456325896515891,0.02300543662450857,0.02555140276451357,0.08321839033878833,0.0802634788712502,0.006691920117675431,0.00768856218833465,0.024317716123050025,0.009553615254791934,0.06491686863370788,0.09392686136421656,0.014810013281567263,0.08390499704715054,-0.010477030345559395,0.0016378187177900488,-0.05542588148935994,-0.006400150953348697,0.051314216424153535,0.02511970056731148,0.06915355376357044,-0.046877280374177266,-0.029713914283625048,-0.03214716694432506,0.025118767819364632,0.08142808091789262,0.015515607066701409,-0.021986059350761807,0.13309220955401965,0.006395653599360049,0.03413596086359962,0.2182248511779396,0.08986148003214747,-0.16213160176135227,0.09993054482919755,0.05190956538917621,0.09739408694563724,0.19465997900027085,0.29118255494031237,0.11897956336978738,0.1889976166758155,0.1561898177715066,0.02938823569738226,-0.017451630574119133,-0.08419686922091459,0.07062027075738513,0.023341868613556173,-0.0669487455741861,-0.03066278596336494,-0.041835113325794746,0.02457168577221299,-0.09154534368782723,0.001985258870314107,0.017648628671141905,0.15600902655704993,0.3806961685663553,0.05094769061449906,-0.018834475195549854,0.14854599338386612,0.3244652163045472,0.27901592732987757,0.6260922260814118,0.6696750151075941,0.032529981667579866,0.46656661656084975,0.3328037672487316,0.5512731410739131,0.28699301883417994,0.052392656358894334,0.13121135121108024,0.23036306131985052,0.0019478745557155786,-0.040578403296984714,0.02061531207225273,0.07556501035654266,-0.04819330505585991,0.009147459798742695,0.03841671635131288,-0.07029977726650492,0.04414225389822489,0.08007784951851418,0.20533520112811599,0.07584112382620828,0.08796873586522429,0.4689423132618038,0.10062577357023435,0.4472296757046786,0.5542861748854744,0.8402441669392297,0.8380895184974204,1.0879360153850208,1.0046650775863224,0.12375944484834081,0.3633238462442615,1.0001690916175823,0.44510657603037646,0.13590619383219307,-0.0565198378591936,0.07420515131170762,0.03937513733968428,-0.07663040210537535,-0.05524886035078223,-0.06398364630832215,0.059636350050204484,0.04266559578279326,-0.03401568682811021,0.041604545009118775,0.18280120843634923,0.3057388172604499,0.02806793019560229,-0.08340663179948198,0.10438890589319444,0.20922093657166496,0.5712383404617289,0.15915023123540478,-0.2462079251157095,0.4155838203839346,0.16226026615955777,-0.10533695875668225,-0.6933431315749503,-0.39717010327338553,-0.6175731252099103,-0.07223242646986207,-0.09648000991516001,-0.5029114518891866,-0.4610129027208529,-0.5327538526844146,-0.2559447985043761,-0.0611893726411976,-0.09414788623536176,0.006992702506045366,-0.017482734285199527,0.008277452686376778,0.02214713215337906,-0.15432647382489437,0.0858907870387993,0.23127431282184485,0.18008978738600662,0.2499804256835934,0.42351630612757707,1.048126795884295,0.7007784445479072,-0.2188760364238216,-0.29648109951374596,-0.3871614707083546,-0.4072188546545318,0.06998165353783052,0.9119363817605516,-0.2125663115966332,-1.1828570501703626,-1.4533913937530918,-1.0204635169116612,-1.1182378683714655,-1.0225929185204805,-0.7081881267585519,-0.15224302961291875,-0.006064860623191994,0.047992063977148815,-0.010023584925843848,-0.018984855540589884,-0.0786752105177531,0.007428048830861965,0.048885193530045966,0.14266011301685202,0.23567044749633523,0.7602396614279705,0.09148558835011658,-0.10005909487763709,0.5393596801391013,-0.11605077634675995,0.38434202401759887,0.14318119402501728,-0.23697561168070666,-0.04891045985917372,0.053267751060845345,-0.0020459669491131593,-0.5470310136877055,-0.969116408504426,-1.121089400468969,-0.8567023313777512,-1.0643345697593323,-1.363713947747912,-1.2974728079402562,-0.4889091903227746,-0.22736436001861576,-0.017199496501440297,-0.0241407567937834,0.04812208069848997,-0.008686643575087765,0.07307305855555353,0.056058690685463326,0.26224353183640164,0.16190363176713712,0.44057807324939097,0.19816437267603107,-0.044320265999137354,0.40648124124779045,-0.2868664331443574,-0.054249315029995394,0.1499078166856843,0.18582747046964446,-0.29208749242928156,0.07479650496583691,-0.27085769681506855,-0.1396669657470316,0.05460954896804925,-0.3962132280955941,0.21278768978613347,0.1807962687062667,-0.9485203971773436,-1.2224331519564946,-0.6992208963113175,-0.306583868540269,-0.024832110884960686,-0.04861330693097078,0.07857387539505652,0.035784330833614764,0.06294321164721876,0.3830414760851759,0.6098479631481154,0.33880726131332467,0.21685331046389392,0.9898929653838568,0.28449719741839535,-0.013307014090628334,0.2864277872227861,0.25882950410930294,-0.4749061435874636,-0.16145521036854252,0.07614542123259632,-0.1294726423779615,-0.4148304917212582,-0.8262483273199275,-0.6922894843233403,-0.7273646774897613,0.16787745645806804,0.007992632393248164,-0.08943267677632269,-0.34182482520752505,-0.22936834133928485,-0.4066302851378178,-0.17709808938232052,0.04822214568008333,0.08323126994755002,0.092534391801574,0.25897400664312586,0.41211519384686335,0.9218546171194426,0.6713161371929635,0.27898725825017323,0.2178876127618258,-0.0505293057985082,0.32693153807421327,-0.009493578797047842,-0.1435722940858895,0.46705841665239556,0.06038191886020535,1.1426420271191828,0.3377800837181548,-0.6931670301822778,0.018211127615546194,-0.33035386358753854,-0.21374018048031698,0.5850530584729989,-0.30247516726376883,-0.1730297052435579,-0.15068895696212006,-0.2153036446433738,-0.5773441403182951,-0.08812375494923758,0.061566141854607306,-0.07483980753043047,0.003334014255246843,0.2813396835703902,0.21799905527229868,0.6721076440452787,0.4155641097844633,0.4233161194410197,-0.09943921299675657,0.03370795146060045,-0.14174379365945133,0.11117845998758485,0.3151622662787253,-0.47996620196419926,1.0294996640322505,-0.005960627053687377,-0.23859160817907468,-0.0012354910807332005,-0.10141232639331177,-0.5351062477753568,-0.7918328685504978,-0.10150358834227134,0.033424199711478364,-0.36713937186766876,-0.2664785833014843,-0.28131053747973617,-0.42145492626456743,0.03667913180891631,0.0018141951568325506,-0.026586325546739425,0.04775888802188092,0.4322916678906267,0.48326577689770006,0.9279719360819496,-0.09219225258692211,-0.5871106960177818,-0.12824956664581605,-0.48456808666485734,-0.1771128382417894,-0.21471733406213128,-0.1996391515528792,-0.33302010242387875,0.46433409211960613,0.4665657177656163,-0.9674154818213845,-0.4256133991542112,0.2517345659037782,0.42204684868357983,-0.07802166072570091,0.5411240230474489,0.28458150156301604,-0.46405840743285176,-0.16579869902116665,-0.46532751643483,-0.5017048356944264,-0.36152101675560133,0.02375482372679275,-0.0062626092457951175,0.18624104940414968,0.18516850400743187,0.8855204884626748,1.0059843683239689,-0.32585510971347464,0.07007003805054288,0.883561636769751,1.0197805182203716,0.1564346816887947,-0.6149922570471824,-0.6358381019022374,-1.8582092967984822,-2.4753560129773526,-0.0321933597279425,0.14292939724315465,0.6414947974225824,0.6247412501070876,1.1043223480465607,0.3289825213107762,-0.43607177847284007,0.4598223212398083,-0.1579894121585925,-0.18485264216753053,0.09465406710077512,-0.08073920886753584,0.1468270157405103,0.04214750822977051,-0.022082887911462207,0.012478702614943646,0.21564928583465776,0.8460741186058994,1.00184357440885,-0.14879772422963164,0.5028505765843244,-0.15965670213842542,-0.3662028424499496,-1.1909850841286675,-1.1410290972827635,-0.24422229031188442,-2.00890663005716,-0.9107050376339053,-0.20878858600009853,0.5218763841445455,0.24060664799315615,-0.3047367557416201,0.13345206609583357,0.2505366171249946,-0.4453980238421274,0.24694378360279748,0.01594746784179426,0.2953709688760509,0.25222742469095216,-0.02481420377064328,0.05842530199107358,-0.05490768745507408,-0.08956826656871465,-0.051148287543264934,0.09137119463290505,0.17802337797156892,-0.1985002378781951,-0.1766548017823629,-0.6692970712618507,-0.7712925931744933,-1.181754060326299,-1.056494659481933,-0.23837316738470093,-0.9325479434841772,-1.3027902658263961,-0.3118095396758418,0.17313678350243117,0.1755892933505079,0.4592353860894641,-0.3891789415219726,0.3985784130057975,0.7796053658438953,0.27389108116701427,0.8410141454804759,1.0631692001686632,0.682878584680999,0.08751569836886106,0.14878602272324856,-0.04870959184520147,0.010733383997914948,0.040863789336079794,-0.05437061601341109,0.00015756050978024417,-0.1441769930597416,-1.1130826546194583,-0.4293830324169042,-0.22629986143224148,-1.1585617660716778,-1.4026417578392216,-0.35788090375255266,0.1754937272743429,-1.1065029033549323,-0.8207935129847717,0.7190701764010661,0.8331853777328972,0.8583700407370427,0.07479649979383231,0.22682849923957216,0.017276855106975235,0.09037528201889865,1.0071941912692972,0.30089401222339685,-0.0763086938935467,-0.38315306028655594,0.3029144905855385,0.11086054681086936,-0.1496373799655197,-0.022464399180110135,0.06122634115453364,-0.07513245282814722,0.04048237201144288,-0.2515055632372796,-1.3688828335037695,-1.1300589968936994,-0.21620208088267462,-0.5321571034788195,0.12868866216817235,0.39538971792955796,-0.7982243885138351,-1.5773512012573825,-0.5094553915145502,0.805116069264229,0.6477822616184055,0.03292566646630761,0.4902963209608784,0.3226570209475022,0.30710878068913117,0.6796097592375396,0.2053547375473556,0.635148819478297,-0.10231836664815772,0.005448211721410223,0.5844324050034886,0.09661126452209133,-0.09199645229607509,0.02241094872371354,-0.0013821604585776389,0.05695502066113955,0.006204698467768186,-0.2648458109504285,-0.874992729490135,-1.0624814742881967,-0.8352185938646787,-0.7141585451167857,-0.680093574720815,-0.7304896603982108,-0.6738437738314158,-0.7307872073472892,0.0778609995417729,0.4371398803507519,0.9002815908534907,-0.01335895685793211,-0.1715828492213365,-0.04174246352272101,-0.25593084210445116,0.04093799956610747,0.48497228115564756,0.09348205737421522,0.7537098899367247,0.532567465807884,0.2946764768646316,0.2057039839361347,-0.042543602625811076,0.01746098730693638,-0.025215715538432004,-0.016345831083819266,0.04960804643628694,-0.1945119918995192,-0.5431180588331604,-0.7005571134126107,-1.2047100081232083,0.6225717662336672,0.0954567918383839,-0.6652247678736642,-0.5841234152030039,-0.1659484608611004,0.6892290906110126,1.012014667482915,0.9573268605148402,0.6090468750008531,0.2838622701649077,0.4502343829943907,0.48356435609447174,0.07350807637113152,-0.39013116201326764,-0.39431289520566504,0.2557550006142073,-0.0720785532588766,-0.17734697936894053,0.09524069204598241,-0.015425452969494371,0.005050802220482701,-0.004381527057046464,-0.0619992373803493,-0.11572091052099906,-0.2588521670295012,-0.5555165444100827,-0.9828232031145089,-0.7414805698040022,0.05870317339178915,-0.26757817980064874,-0.25235934430617213,-0.061047149940307945,0.31852027370563657,0.8642742719726315,0.0672622563239035,1.2529773385273337,0.4262699279782213,0.5777261161170983,-0.1734766804353115,-0.29206911464165364,-0.4343176029274895,-0.35775003186577387,-0.6930696263877149,-0.6275872614957064,-0.313812795850714,-0.14545299939630968,-0.05981320001230298,-0.020424731339231485,-0.05013445812789978,0.008012131557644542,0.10257284721533107,-0.020325074465675386,-0.19403540057277838,-0.6439801966237142,-1.018115304981107,-0.7053731493937726,-0.25844818195299823,-0.04495909427735247,-0.8697321126248687,0.011605563274734368,0.26220631981274173,1.226674765782883,0.7996210769422125,0.8002775486115877,1.0923370126588132,1.0438805239686506,0.7327887246605188,0.22683989058851006,-0.47821280959433277,-0.5463369100467824,-0.45960051505980554,-0.1831182896023852,0.045330716074157236,-0.02794202702413348,-0.1561737452982915,0.16437207015372768,0.06548228316214577,-0.037583466547847874,-0.011968426667726814,-0.05674256536664472,-0.17596847356982478,-0.6848596444337224,-0.43848511349439073,-0.33776947395184803,0.01997365735613672,-0.009805569752063101,-0.29436299252235426,0.32968653387942215,-0.5083147509330277,0.21581762336909338,0.7776348288849994,0.09978488652296938,0.08743581583953397,0.4023758106784643,0.11200167211664908,-0.4343430314370452,-0.8540889699369845,-0.6408573768927239,-0.24242685878677914,-0.5522066182035414,-0.5627818024799258,-0.29536434160966224,-0.048084787152201665,0.10683601011856764,-0.0021174012237178113,-0.013536987635087169,-0.05849850493736651,-0.18596755175430857,-0.21541561449952148,-0.33273955657123505,0.09387385974811908,0.3124765219535093,0.5970030392005868,-0.19700240301550123,-0.215348213975528,-0.08138268215128466,-1.7220885233982468,-1.220357105522372,-0.921512465117041,-1.623003738962735,-0.8187819691224517,-0.9787472682271433,-0.351219207546958,-1.1377847841767303,-0.6380168451702677,-0.7394599995057602,-0.9368621257192643,-1.1335788557851612,-0.9561795728850867,-0.3420762624600733,0.049096501054747735,0.024910210065634104,0.03568156218892581,0.08710724922036657,0.0488891628756395,-0.061165189467097404,-0.21813491900429693,-0.40989476272858505,0.16038985916593654,0.5903818762634954,0.8829348980964525,-0.7309853452555676,-0.5797451401976156,-0.6357538334476994,-0.9594572820628746,-0.2538644235861918,-0.22896853232171846,-0.6146096635666489,-0.0482798832118506,-1.049316734495339,-0.21937105989795513,-0.9937337772047059,-0.7249976724960988,-0.8328377799510357,-0.9910773527645116,-0.9606962684086233,-0.5842109264649803,-0.11263741643359917,-0.010277096537482239,0.00497581814893328,0.01810212229775894,0.029584366678048157,-0.022037773020005272,-0.031714109284844604,-0.06559725861151694,0.08377298480056593,0.5197043749770912,0.7334502035323542,0.8599599221039799,0.6331246855410801,0.4556266969078245,0.6723486360379691,0.1557691927409827,-0.19113101778789052,0.5645494256384936,-0.3539809406116899,0.11881684641846975,-0.6674592901157259,0.15516879686883842,0.02510481063269176,-0.06906755958131477,-0.2482802489401445,-0.764208435737213,-0.666118090967859,-0.32140129104414783,-0.0842087873458018,0.05030183183585828,0.04485044492476009,-0.02446811792315556,0.031584692161010175,-0.00042312993427630303,-0.01718746197751785,0.0712545316257785,0.24774112371406432,0.3326175530769403,0.18417616745124882,0.47101409234756536,0.6805327049004385,0.5272696873303163,-0.07432500301520922,0.4335170476266651,0.9848895039307793,0.764231683434389,0.06892012500823104,0.28218633590239683,0.3563355088281335,0.62634407117239,0.7510933418297904,0.17820796391888855,-0.009919639386862387,-0.2512484648359196,-0.27902740453273867,-0.13506388807828887,-0.010085415911709104,-0.05846047754363739,-0.04020889415156441,-0.05351541888799302,-0.09859978963887937,-0.06877371529859488,0.0661525549739619,0.061540460434998334,0.052446813988545726,0.016904176973314512,0.10569591974609996,0.10540065329304091,0.14068892895838783,0.48500631351017565,0.6098241159699872,0.7021565190065561,-0.041552897053031314,0.6273148203266151,0.9857723965161533,0.5479821829411184,1.0496449178782783,0.9687453527545279,0.8693932002448185,0.6562109636926321,0.24375329786924121,-0.13002617746993372,-0.13240436138608455,-0.06826702242210127,0.038115282702598716,-0.016447242193885957,0.008809780687184321,0.03231253280915289,-0.012479871376238247,-0.023023568818414112,0.02895873571679615,0.04309999486749127,0.03528405235169706,-0.06837602804559322,-0.03051406821143949,-0.01785367869930995,0.06048012869390987,0.12403725938363669,0.19215594445504294,0.0422906318045249,0.13667471510132967,0.3681725300549149,0.09570218740742086,0.0435049038249324,0.2971447261902616,0.35372786560387887,0.33877652624003385,0.1927623360335824,0.06065694594415487,0.03612601127713117,-0.13430006470834777,0.05798251948894538,-0.01695288521139921,-0.02698326244073348,0.008099218808756596,0.01159840524137027],[0.002750561767511753,-0.01511514161872291,0.09663378933553608,-0.06226859812369633,-0.024448400269533942,-0.034464042380909325,0.045641990758376404,0.06825875852482188,0.0753119349252222,0.0365561864402882,0.0404972944484081,-0.011688106922237472,0.08951253009864314,0.06461971669529767,0.021965951358029204,0.015403330115403574,0.03330828605431995,-0.0023255036196360864,-0.07405950450222071,0.10027101717437938,-0.05165299190162463,0.03318916012679214,0.012536207078430964,0.004483323722260633,-0.016051983986348974,-0.07294072170373825,0.004654650794753557,0.04583076854618944,-0.1269360375706902,0.00031314630381875963,0.06903748198143263,0.06218312096454331,0.0840324742945886,-0.0669923325070135,-0.03408020792505823,0.04118213736778026,-0.08952797781268874,-0.012674288370411608,-0.03291679044990588,-0.00308375691737351,0.05814497899216143,-0.04426567467566982,-0.028656311023307502,-0.04412001912475012,-0.017933302880074924,-0.027687173599391587,-0.06688977869229001,0.0007647208052309815,-0.007768790030021417,-0.024671030309554448,-0.06617615949482597,-0.021270777335001937,0.059579576587861116,-0.05862488858635632,-0.047731515406699815,0.013627158852604843,0.03890116845407315,0.018668027357396828,0.006543562596489682,-0.0016442459683076568,-0.025120886850342937,0.09081814953601103,-0.038170202196121376,-0.15742263152959637,-0.040972628358486654,0.13932441063663026,0.162404691293307,0.07469319626174013,0.0828139402120604,0.19094003812097965,0.11936258574982973,-0.21142732103580614,-0.2712758717560623,-0.19120658923910236,-0.2083544852712927,-0.08999194972213512,-0.04064212436323169,-0.05402936431618085,-0.041613293946717776,-0.08220252704434555,-0.022909258356140612,-0.014798879555741917,0.06563829387507765,0.04642252036613709,-0.01727158533451774,-0.015744570418359603,-0.01599709137887,-0.027029727999067953,0.011500442731958964,-0.1759545815285817,-0.08268689184891247,-0.04335899045146353,0.1545745308428387,0.07402649851155657,0.3074380769218395,0.7653229713764256,0.47518929836361934,0.2967106710607376,0.17993381000008177,-0.44040625428550395,-0.5270035937388785,-0.4363970935781102,-0.6606397948158603,-0.510882518471221,-0.37438472014723273,0.1314454466971322,0.26234322816879463,0.10163126660396853,-0.037395164495394075,0.031837959119054224,0.012211751623744944,0.027789148572327543,0.06162660984791639,-0.07241066341475348,0.012373033001421863,-0.07151230657616121,-0.07960104108664566,-0.3331821656237481,-0.4466531456422557,-0.36981488192365397,0.003519503896440305,0.2419263825823559,-0.0050372645482484575,-0.29573192874426624,-0.9888287784092956,-0.21556174334188502,-0.20000857776688863,-0.7269213608160827,-0.6198448994289291,-0.18949370724323325,-0.1849914894652987,0.6996973290284304,0.5124244044643947,-0.6888595911037032,-0.31777602254325243,-0.4551992021692318,-0.11381412563969913,0.02973892724890612,-0.08038446761600623,-0.023595682258912367,-0.0034561646810146976,-0.03010018601220263,-0.029835309220457927,-0.2897392258098347,-0.14821881938787265,-0.6549917624071376,-0.466248138431939,0.06718770358068012,0.3287224108861968,0.19918172471524745,-0.18672476796485035,-0.24726071576373548,0.412053921651572,0.10953764139378831,0.11247061524676752,-0.331383884584749,-0.8772798175036626,0.9763308475095199,0.3692883437751752,0.14771647453838396,-0.11011585531253616,0.3423585656496517,-0.24057595779216484,-0.7614066059731859,0.04318566995833232,0.04972358605459725,0.029660642211966463,-0.005329711213979035,0.006470303347714476,0.00933894774416434,0.1529805723630986,0.031150720038240844,0.21360717908513094,-0.052197735059124915,-0.29428318123874125,-0.10258869272550578,-0.15826427952636052,-0.11501506883703566,-0.37731369939384146,-0.6463642704472882,0.787968163541383,-0.09870533381996502,0.027719294734768737,0.19951261294719333,-0.2979392715672382,-0.17333148682707034,-0.17743853828029166,0.4915065240049324,0.09096786539243844,-0.2376574111629344,0.05163740279115873,0.019276311911820138,-0.0674442866593835,-0.07278065114878446,-0.08539594887399767,0.024018628943338137,0.014716327037405134,-0.0962895861657503,0.19522864528466008,0.26437965651305106,0.6257546193922866,0.15190846445578113,-0.19557345277439564,0.06899542185268089,0.19555319077958963,0.3823849400518938,-0.11957919445003537,-0.2608729367481659,-0.5869175203986168,-0.2624662889091376,-1.3467209078889084,0.08701620840457773,-0.8000797282322374,0.13769913849729246,0.47253973815046896,-0.01168865027775156,-0.15739406240153087,-0.22137134302203115,0.6200281116595961,-0.07794316913646905,0.06282225263218896,-0.036075872814815654,-0.2648260277781502,0.018239842578993155,0.023978496831043045,0.005880996997298715,0.18152345629373678,0.3490728629058925,0.8276722300238095,0.6491981889584856,-0.16611390634548268,0.5994045045360106,0.5009615779997546,0.1753967868560787,-0.2460107206825635,0.20908979371586037,0.11736221859849656,0.5089371402969721,0.1798871417485078,0.2996311009135106,-0.39578318653656575,0.28599380054678997,0.0330645814105094,-0.34404543509275615,0.42926571506099337,0.5336171961966361,0.5247013974011066,0.01035701934449073,-0.646569080357274,-0.452074096880745,-0.016309239210346195,-0.0023209744090304076,0.004942207491339984,0.011179302330442677,0.2204178736990553,0.2846259676993818,0.06615387229150346,0.4137706098003469,-0.3819749398091183,0.010868794865418448,-0.1950610853374238,0.0981733998850766,0.09514010494751414,-0.20535172941935648,-0.1632155188476398,0.22123487641625145,0.10809966460178126,0.1936277705070312,0.5933329355685747,0.431627138033893,0.7262785477982809,0.23626502459952267,0.19777828769055392,-0.12442153896053382,-1.1731145551463311,-0.20555409294875276,-0.9551655155188852,-0.9596259921315593,-0.11372058576906477,-0.07055605410114608,-0.056911703034291335,0.040541826015492104,0.2615623521725912,-0.49611908978640357,-0.5114755773222158,-0.054437121363349154,0.41103700719918357,0.3707303361586938,-1.0934229579057329,-0.48140598964900855,-0.03071866601803333,-0.33698028175484995,-0.34770386712046053,-0.8459827991851523,-0.9588974688873141,-0.40731690736663445,0.35254220013061616,0.5335075379175029,0.7411587627452042,0.573667426277347,0.31228646093560586,0.15231608934901172,-0.3992738477430778,0.48445534584350153,-0.28026100390949754,-0.9030899051159194,-0.1480124714205375,0.10244725193399276,0.005595925038615876,0.1449682236847775,0.35566319240037514,-0.2975100324625541,-0.7065428889318012,0.29341054996816496,1.2593553772862167,-0.09557437741772644,0.38387622532186155,0.24488924671860013,0.2021126202662665,0.5857204240552665,0.15335406690393627,-0.6058422537770961,-1.3867631924333617,-0.8229781936235593,0.08125410582054951,-0.9171292078118535,-0.4935807421270701,0.3604613168280386,-0.31858327907808337,0.23204121426249905,0.9286871704679088,0.789967501370317,0.2720254479261364,-0.07364967825644698,0.005798300709248795,0.0048059081267307355,-0.05018496401648694,0.02318100040368899,0.3385586239180838,0.38852049438570924,-0.06172913237178475,0.06286925064680528,1.213885551850382,-0.12312164834756686,-0.027836228960487118,0.01638667982377777,-0.3017354048632747,-0.9693088821704016,-0.4872797018514375,-0.30061671892353387,0.03888736948352047,-0.088077180165986,-0.2198225329817565,0.536492991396973,-0.5189830694661872,0.2855587472992466,0.07389307123114895,0.4477752533136402,1.2785576329971713,0.7477656031704575,0.8112469378190738,0.010593548462245543,-0.12356186283968529,0.0241415315707953,0.02415969266915515,0.009798606464142191,0.1519015083789952,0.47611092461350235,0.5981432184083568,0.1029345092401499,0.24383533843597568,-0.5008436837780827,-0.17361002458451022,0.5648606485781005,-0.2677362692208655,0.13363718990230533,-0.8337159437116367,-0.49939705018417757,-0.7947359280478083,-0.04921929238263529,-0.8929411554277592,-0.5093283997228658,-0.008231743493309844,-0.17064479419524864,0.6287696201185188,0.6297036897888784,1.2278759149041716,0.7724904131790201,0.6152739568224836,0.05608882386947906,0.007513419301946583,0.05248049965265043,-0.09567362089399684,0.02853396324950668,0.01146574267318061,0.3388069183988407,0.6602884319394731,0.8669905298761262,0.5890299720206998,-0.22312702903179207,-0.0875476969393602,0.1082022408823295,0.24304192211846853,0.4452632461218811,-1.148342884662252,0.6052236848932366,-0.6723113545831862,-0.07047299415973865,0.36184938932815613,1.158073923829555,0.6594878203548113,0.9394577891776088,1.0498686822469654,0.19326842378277384,0.37611206369094424,0.1860331538411962,0.21056942577490395,0.1268500263796668,0.08492005451555489,0.030829756091326127,0.03549679173475265,-0.1135632456001874,-0.09217874031277264,0.38440336119207824,0.9919048473243262,1.5608275472393374,1.957757259527658,1.9415740203604952,1.154895674650271,-0.2309058593066727,-0.507058201708825,-0.5694742295740931,-0.8838811329770189,-0.40046486965429684,-0.34355363367192265,0.01991743297892353,-0.14045063057963927,0.6020665113979448,0.044179511155387166,0.6447932992418103,-0.19645848277204112,-0.08883819092199122,-0.44466058128638414,-0.14714935541181398,-0.16561882388207827,0.2996547102265857,0.08894544540964365,0.0021719011563576594,-0.03359761114829041,0.0036228190793309036,-0.136131865170162,0.08369022237814801,0.6273326308227755,1.655673332854437,2.81113331333599,2.966062985914004,3.6725127328093463,2.6567380174301354,1.1477346165271194,-0.10800838247055891,-0.9131341726558528,-0.0758516061745986,0.3467807151849341,0.18180219047424537,0.3012519825732293,0.345572242920309,0.08892222582428208,-0.4381079333642493,-0.4592736698476026,0.18502143066209742,-0.14422230352402482,-0.1120378838221607,-0.16924810399254803,0.4222792171113861,0.20493355380900036,0.015418140399919233,-0.009005799544549019,0.009366858765964227,-0.16907578932736017,-0.27932338107136334,0.2273698146770055,0.34184839498513697,0.9668979059637451,1.5892116253927824,3.500624777207595,5.995012693212742,5.839267074371741,4.880931208324982,2.8800402058828105,1.4943264637000613,0.7847338951766332,0.8118549882940781,0.968913904981997,0.6006484644028481,-0.2500152683795165,-0.23850309621519528,-0.11275687011510722,-0.25215262322997134,0.3151346861183103,0.07949447097177613,0.6934007065343862,0.5402652626730289,0.15960065011549862,-0.010582080770737051,0.02977304012437122,0.00438369510126222,-0.13855844215481156,-0.682336304970342,-0.41497708875856587,-0.1156760848827426,-0.5981506305727046,-0.8344598661184484,0.31628970969153564,1.820848275721125,2.9953919453177225,3.763340462446384,4.0974872329095415,1.539456677121922,0.24526661204254366,0.14045175968568044,0.22864384044045583,-0.07546669555439399,0.11268746487897735,-0.24671818728746928,0.2301472352141033,-0.8251780188873282,0.17891610803440205,0.2563716734394362,0.6738609313387046,0.4794956224614649,0.21532809195084665,0.021810369904836174,-0.028690649412281548,-0.07672390921498283,0.07100071128218634,-0.42818543050047564,-0.3112593962813157,-0.9853494629169174,-1.2246774820617503,-0.4300189414309223,-1.3647887871020632,-1.8388284855909687,-1.4879219994318573,-0.04066069019846768,0.8388528152701458,-0.15879638274891708,0.03449737075833599,0.3389858149078028,-0.4892144500794436,0.13681876571636173,0.3975601162560059,0.35780855973214215,0.08819148920897742,0.022297334843441426,-0.36581160071251173,-0.38345210902200877,0.3388853730833027,0.09873329460237741,0.07754725056096196,0.01869329800492481,0.021645593711940917,0.01865466130992662,-0.06262908573412851,-0.496541414713551,-0.7397155515361948,-0.7966334697428575,-0.46468890485464337,0.37858977813024614,-1.282585737779757,-0.43465478303534333,-0.4505582339602606,-0.9499203398535165,0.010276006020983115,0.9036418341695314,-0.016812661543395557,0.7672896369743984,-0.28818801184731807,-0.29376032085503023,-0.540697181429084,-0.25033665550183287,0.0025605444042847325,0.622281871960498,-0.7042235424242985,-0.26759653983733334,0.17433758429576776,0.09579570020498587,-0.007441625637954183,0.03478322648309313,0.02876878199414817,0.019300487666687474,0.0047119781254043895,-0.6344184458537416,-0.9750103382035966,-0.4523757888506748,-0.32930523440969783,-0.7416550015337706,-0.8121676093840052,0.2910246524576687,-0.20191382534546543,-0.44513654675535186,-0.1930595446905173,-0.2202837339840964,-0.00745395990626453,-0.08233532699558839,0.7410563728720716,0.547929924735021,-0.12446468566843996,-0.21757196440861135,-0.20757150397012947,-0.3675184573171828,-0.29063292631854504,-0.24224794933985863,0.254544309452003,0.08187499113550886,-0.026519651071893094,-0.017310849485940232,-0.03679922122900637,-0.01482656858144588,-0.017339618512049473,-0.2761109793937349,-0.45288623575020237,-0.5382583576008103,0.28255891958266827,0.22996288960428712,-0.04804057026448892,-0.6109469706674056,-0.8151522423627969,-0.21870439188949714,-0.595053552127428,0.2274363689652947,0.16472913050767374,-0.5932349292746674,0.31326057936222246,-0.07258145506736362,1.0001918457935988,-0.005964940454534026,-0.5888565322436107,-0.48703512293756274,-0.4931768940458262,-0.2847479352361585,0.23361797732651715,0.30039009480471146,0.030642486824380023,-0.06974493631254688,0.027601957562949236,0.026252339032775247,-0.1647569593323183,-0.32328287486483653,-0.38054041184762755,-0.22180788589659886,0.06541069309812232,0.25748975057435003,-0.24854174958223638,0.07242717203246657,-0.18505456291042038,0.0808194371022623,-0.23882079252079638,0.10513410007144214,-0.1555413972419324,-0.06797396493691896,-0.4354054900510863,0.507150495404179,0.311388498754118,0.1726214332709362,0.18717045084266398,0.08123220582244899,0.07106003783793162,-0.06843622653954085,0.1320670243038692,0.09097416031241942,-0.07498268011539679,-0.023373294515391045,-0.09057686965040977,0.08236308647409059,-0.14847188303284353,-0.12271204543861128,-0.3887670190254326,-0.5495630932061721,-0.45131319904989037,-1.2571375422636264,-1.161935993026479,-0.42244134942908035,-0.9067884933654569,-0.20366011538185003,-0.06851083979191513,-0.3142146633487042,-0.15589643422236502,0.047908706902707085,-0.14890914301935892,-0.4035676340057898,0.5091386408582104,1.1221817542144832,0.5057929553296173,-0.018683312428799715,0.16032716207045566,0.051095766511406564,0.11591334518332054,-0.032148916656583426,-0.01182707406220815,0.06415617436916674,-0.044413675999951274,-0.03379021135182102,0.0735295556311735,-0.01628881308035899,-0.131704779415343,-0.6376888373741177,-0.8290835089901949,-1.0481036208037688,-1.2606960361423392,-0.04926704781531853,0.04841581796983578,-0.14331884371736847,0.05220445963968634,-0.009558286292538517,0.7244165514968245,0.6061825368854475,0.36933103366153713,0.4163880462093393,0.547922537519683,0.08691163599737199,-0.21951647601171276,0.0949580900326252,0.0999780885815721,0.04072165109271858,-0.013852193494762409,-0.033581972489749264,-0.048402127334612126,0.04408397855704586,-0.058351358151081764,-0.00316283964872033,0.05021021700496456,-0.007533044345232176,0.09684173920474427,-0.28866975716131327,-0.2237032925788903,-0.0218366835511204,0.1729765990805325,0.1769563346477811,0.36427102954388135,0.27391558450464504,0.14817307699252086,0.5153413104073551,0.22647825592959753,-0.2809922678555081,-0.48469386322345437,-0.2861797273693064,-0.002544850450381895,0.21317413900726478,-0.052865833301521996,0.025579575745962303,0.10866591325703467,0.02844721955607489,-0.012818970949826996,-0.011294998536586479,0.025200533815932184,0.03260976193195776,-0.039535957348148174,-0.021859998929796308,0.0077120176062516815,0.011114743327314186,0.014866140854975977,-0.022119644521793692,-0.0334328172947354,0.0505773025904594,0.07563696481786072,0.00017460620994426206,-0.007181341710070272,0.0052002789243243,0.011189726570492393,0.15946936338264714,0.17984857840819132,-0.09709658250131226,0.23028883661189986,0.28609294817201614,0.26725111091647863,0.22705886691620303,0.13060479915768528,0.08498616441469793,0.11012970440403645,-0.026539352192682247,-0.09053759844554894,0.07639470377373594,-0.07269568085529601,0.006047713861834297],[-0.06581400356899696,-0.019605360045672166,-0.03769846399990579,0.04894934421533093,0.043739743893898925,0.10565626028729945,-0.01214894944287046,-0.024169326863973342,0.09738545440055808,0.027449343117264876,-0.011856850703779105,0.03843760587116785,-0.011686008234248082,0.059398494213556904,0.0032578376588869276,0.01029168529543729,-0.006196940433148093,-0.07352647490479472,-0.002379110251427106,-0.06727880845512318,0.07650427414288949,0.04815062933390415,0.06865859241617275,-0.019002515624048717,-0.0016256640387653156,0.05283227477659028,0.06797922145316199,0.004779962088070028,-0.0685204382129581,0.0938735312973368,0.0757838407587101,-0.008200005688220293,0.07693570650465664,-0.08874476916869749,-0.006879841465717549,-0.04076235843044039,0.08511301726556153,0.013686972620654651,0.0510652763065332,0.04656421528818547,-0.04127275959900511,0.03702617791662229,-0.06643789078909287,-0.11842296131380446,-0.18430917620054663,-0.12269136922143573,-0.022012316414411086,-0.040598964347195135,-0.03280910414588739,-0.0587219025822175,0.11569770915304314,0.0036075147235440225,0.0016765600453899968,-0.020966523928269594,0.03898882090600058,0.09917211276290178,0.029536168133881845,-0.07643328498794762,0.011738578591766696,0.02772804780025643,0.08683667747797036,-0.005313580973239597,-0.0384891845051324,0.016310637287825894,0.05818543127168046,0.12820926080762884,0.11892087016474427,0.14039669220807832,-0.0900440183000787,-0.30524561180043247,-0.15310106567567244,-0.26690720963206904,-0.00043800080673129095,0.30494391973693297,0.20706335901076028,0.25459786580235144,0.2721106433018439,0.15611853104534648,0.14319861189114616,0.11438188057038554,-0.028194497180677586,-0.03691116738237683,0.020586833878761437,0.013990405629494872,-0.14183349128660727,0.024291163645614976,0.07092620575384681,0.04951740094054917,0.004676438784365057,0.0104133686470536,0.2571033801666501,0.19464392236623113,-0.03891217365219207,-0.09011486676037918,-0.041932640518335236,0.0806538705777519,-0.2738140469827703,-0.40826240720004503,-0.2533575198354811,-0.13170065129973527,0.03785948739647887,0.34434276271729714,0.8762126637920222,0.5391599897027998,0.19652332896704364,0.52652560681444,0.5341390836638813,0.3963144280306106,0.040385106051085376,0.03808623421057901,0.048439658194369406,0.046854892671779065,-0.014012453211170943,-0.009029025679415412,-0.01850662808135126,-0.07713486796989397,0.14920725028623608,0.14796006821090277,0.1421947222634071,0.39234165027827933,0.23100819265275,0.1649580838807527,0.4986843539313591,0.44727578236841997,0.5547429991186056,-0.0034488957565467194,-0.0755356980938279,-0.5817864878261757,0.10889167585600987,-0.44323391677421337,-0.3590528931516736,-0.42989158415475986,-0.018343535195672552,0.9276486716906701,0.9617818306207015,0.6349702084519754,0.5334187571342458,0.1747177344212301,-0.0251863397787003,-0.01870455412943095,-0.03886840385298915,-0.057574541906220855,-0.011577366322108916,0.011331321586053173,-0.09431561183237866,0.08818704329416854,-0.19778423533745532,0.0474786696584811,-0.01439401645585089,0.07150238499999557,-0.013163631345505923,-0.31603017455561916,-0.0007987190803413713,-0.4849546517520362,-0.42439559508645747,-1.0279289394360795,-0.024972944007661067,0.5968280929614588,-0.20291015998931278,0.7142173577423172,0.5976682008716858,0.03371470634512269,0.272506646289896,0.4417250987248071,0.3925966769856312,0.2346928669481952,0.09994802849042168,0.0037440104193306577,0.02709682572088295,-0.01632895221647871,0.10215653036886588,-0.1639545312347577,-0.09588721219662288,-0.11249887110325521,-0.5056601524330648,-0.6113121680372366,-0.3185352497964644,0.46641661393419115,-0.29967996525418616,0.10051823575531174,-0.2405279319651861,0.11230995882601856,-0.6704008823419674,0.6826368196745065,-0.3165255251833415,0.39110589325440315,0.10290320919642054,0.5979374950359947,1.062451590497929,-0.39378064197849655,-0.3539764874714048,0.24387121057373398,0.5430452917735183,0.3263444501951231,0.0461911523452115,-0.0761178007631102,0.07235622154398212,0.04180305270338499,0.032201166078714295,-0.04340298094675892,-0.03180089763762791,-0.29442228944201526,-0.4666372915545037,-0.7979871808656552,0.18904228984514532,-0.11726816407160995,-0.20347635302906797,-0.1210303896650172,0.2581445145069441,-0.6218094154857526,-0.7840962158999002,0.8254603381100196,-0.27636437806451747,-0.09876278942631872,-0.11593158556816348,-0.6342754095489109,-0.06965531383845013,-0.4083188910183263,-0.22917782374200246,0.16522539525971064,0.5560310460760151,0.374738783143738,-0.010980892759869312,0.06043294404850152,0.0722739568633787,0.035648881256600484,-0.07291942315469123,0.13173542283342887,-0.14455293594115526,-0.4963224263508954,-0.27945410074381755,-0.05801864592963154,-0.4038735101669327,-0.654169703077842,-0.19242432830751935,0.4523653645576933,-0.5661760303606084,-0.8122681227241494,-0.9141836674462521,0.03150811741796786,-0.06393667186902391,-0.12808160515975656,-0.4623758424355894,-0.8420656228543418,-1.0206800374370195,-0.9193623519841072,-0.48517483501301206,-0.5677439186241984,0.6408078970727171,0.41051315317779086,0.14028454944772822,0.0006094660309637414,0.105478288349744,-0.045861748704814596,-0.11790882154867267,-0.11210112235931854,-0.3207202537712342,-0.2772450856085959,-0.09457619248472839,0.026872562998168883,0.00030796797107499697,-0.41994480077194357,-0.43389240816732333,0.24993612385168587,0.11244471039529581,-0.9637075808696598,-1.7230026800279208,-1.4989603231252717,-0.8110319605820825,-0.7404568447487024,-1.0760883955999259,-0.5287958897152253,-0.29776850330290877,-0.19724150297778803,-0.2734736082595357,-0.3637863249477207,0.0018278986315324148,0.3660894876732067,0.029853696751827696,-0.0018850767759827623,0.11106254355481994,-0.043631569715357345,-0.22613963652146385,-0.16005531816675808,-0.09358026517562235,0.10336381351922844,-0.13497810883511907,0.4448620826659671,0.17071157792471145,-0.4538946864631824,0.028336924121088968,-0.5938580354047384,0.31827125817448726,-1.2328077993840738,-2.84236179732907,-3.2465074721554483,-2.0206550452995806,-1.9532371553585475,-0.4460245289435929,-0.5203968593880827,0.10054236513680125,-0.27204857623352313,-0.016799890979762085,-0.03619296094824865,-0.1832279384154924,0.07493926002229559,0.1307544596296198,-0.007230957058993685,-0.042356614130219024,-0.00583685392895847,0.05711819025707667,0.28641544168735783,0.6016513615141665,0.49865828870687623,-0.08923591211834686,0.0873874220707,0.4884768264677861,0.2604278857851818,0.25024804186823224,0.602431444703603,1.6756041695967212,0.8837490612417686,-0.2048275007844523,-0.933974581899469,-1.1919732583307991,-0.24179943652059707,-0.35208026001006215,0.3352349158597637,0.482332782094534,0.026749557997775217,0.20200959670096316,-0.13656111658636916,-0.06835909322714213,-0.1834038312264094,0.027499649542164134,0.026083692536795287,0.06443120981887471,-0.041249566638062556,0.06638574447927381,0.4132331627845835,0.7348582050026431,0.9480359438515843,-0.017579367457703155,0.15869775468760985,0.624368155755099,0.5307271297724111,1.0451980509703536,0.3365934162798697,1.4751495177847969,2.264572906842148,1.5966118945039869,0.7483113205453442,0.0583634208694375,-0.2938541948912526,-0.08865507894838401,0.21730489184539956,-0.46131627090822475,0.11615923526734433,-0.3026965020192304,0.3208864318440129,-0.005341066672075762,-0.4506462214975237,-0.031222828248018152,-0.026300281519580866,0.04356230744238285,-0.06890399644606632,-0.03521376638114066,0.5124255911633891,1.0697344763852423,0.8635112111156636,0.5912406471232365,0.4592369275271598,0.9143484838722982,-0.12970918113531188,0.2212527992691982,0.8882107905850051,1.407930682081499,2.680130170774677,1.410482346645151,1.702673342896134,1.2442771510500619,-0.0535365416144239,0.23606297670564186,-0.048256818950088015,-0.19643028338443497,0.07577630330036463,-0.3576277680122845,0.04152714073988233,-0.4153535722985756,-0.4186527079147201,-0.02146883332810017,0.04352287269909785,-0.03149567378881145,-0.008529996071272358,-0.04449859196405401,0.5261535883983627,1.4547471820964395,0.7556915061397278,0.6393402413226208,0.31106991902267156,0.01956661823488555,0.6552826831114923,0.15611346402546827,0.5852734491340755,0.7237441980609367,0.34184098536301694,1.0701665930530886,1.4111415400304488,1.1131991995372732,1.2577003954505246,-0.7299010272233629,0.05769363048185001,-0.5760125321611592,-0.12708584217068242,-0.07913095814649787,-1.094256883342038,-0.6312585504908337,-0.2581329587448624,-0.05842171644032825,0.06562492337224879,-0.0333667629674888,0.06447267138167276,-0.045777890596828956,0.6001356555597771,1.4583422075944332,0.5103892137829499,0.9503413309548512,1.0000277701007108,0.06257200061943666,0.4593605237287036,0.3226893415090018,-0.005415414942790839,-0.012735831514525831,0.835792750334077,0.24957656789192836,1.1256899423733948,0.8431928356538457,0.6154408259384572,0.261358428795894,0.7727391891372521,-0.08735907495815462,-0.11869168886091176,0.24074814021171895,-1.3404990948648658,-1.0337037060782683,-0.1488419209632866,-0.26181981814142813,-0.03486862843876625,-0.019289498689930826,0.06864116155652199,0.06529391681248417,0.713729270044836,1.5449223419582498,0.9986816910959717,0.836005082029985,1.157626752455515,1.0301041980295709,-0.04327809354468041,-0.09496991424090367,-0.6018053820652989,0.5738491814302583,1.3651370431260161,0.10344967414646217,-0.13716690027165893,0.6401315934805225,0.4051914271593991,-0.1361359980261764,-0.24001078616790839,-0.4269158790796016,-0.6141451696436988,-0.38029928769580396,-0.9327810327918583,0.11896169371437063,-0.07269622538401234,-0.28772448263271894,-0.02249096063555039,-0.030001161736646607,-0.04977952905094863,0.0837206684977329,0.7269240854125009,0.6552475415057667,-0.38779942847350096,-0.12698249330807318,0.503181104158908,0.159640116806128,-0.15179342129795062,0.07510330526247809,-0.06898216882863856,-0.29453684847581335,0.06591295592731528,0.8593172192022729,0.6613652826634578,-0.12280424111473691,0.8335016829536854,0.8886245116805733,0.7035051145700779,0.4612027873043699,0.3132085870385656,-0.3825800799546957,-0.5841534789116908,0.11179810653608263,-0.23704926009144417,-0.16070254598615386,-0.05401131149149025,-0.04115486932045988,-0.08756545567742428,0.021835079782045515,0.6421642924134019,0.22426447458708842,-0.5975950073431952,-0.2195872685590327,-0.8327396563081966,-0.7198153851069657,-0.39634429533286325,-0.30271084434321827,-0.7928972244476038,-0.31208351092730025,0.11807064964893176,0.5457368990828806,0.5390346219999583,0.4842575769292705,0.6122122892317864,0.0021976273284254754,0.1795119173417249,1.0704870259465673,0.723812505452453,-0.024792723827602992,-0.2909966756748878,-0.33648448481177246,-0.12580581499717075,-0.04369407024736859,0.0710497202299633,0.015359587316520009,0.040401065184542194,0.046129110971508167,0.5932254419066854,-0.08963064780708539,-0.049298752960307377,-0.2008722845150424,-1.0961077580466152,-0.06322725649195372,-0.9079719646569743,-0.49776759858417563,-0.1581000237513694,-0.17034415478150108,-0.9257190652073028,-0.9656462198272956,0.6042678957451593,0.31941347234484524,0.777757875753206,0.5433419382908098,0.08913103399626383,-0.179599152709143,0.5839098447089996,0.14857079905986956,-0.5433779502396923,-0.3328244497751044,-0.09708060987840698,-0.016236185830289847,-0.089870078225874,-0.06004457833797074,-0.02108153470950819,-0.0019574468305032827,0.5656846081527211,-0.008316785052487436,-0.07923322345854951,-0.40315061935093094,-0.7239761758239883,-0.6508520700027951,-0.011607212654570747,-0.17101844213949952,-0.4846944687829575,-0.6854860262149138,-0.681794715637856,-0.6110107922038169,-0.12229192822236983,0.19259791795017006,0.010170984756405285,0.6602547873309714,0.8363028903022511,0.6979187011312719,0.6056661990187662,-0.24665215504708057,-0.2427398090285284,-0.3470225209062927,-0.025294270883530163,-0.04228328691139204,0.09045973993106599,-0.030644388414768516,-0.05100428971519252,0.2969323553377244,0.3307289440873433,0.10432401233657486,-0.4547645699252133,0.06749819940700741,0.08158599669916428,0.33377549146619107,-0.46706257087696074,-0.6461396275868785,-0.6616692714365202,-0.29182885699506517,-0.45477252809626445,-0.5050192018798062,0.5609758901515307,0.20215400522067178,0.8568435547179645,0.2492895092246855,0.1827110781642583,0.2582977274311062,-0.3371671965095503,-0.24646023334287587,-0.39727626901486657,-0.42954272295415463,-0.17782191853413798,-0.08484070731640363,0.06646274462590601,-0.0481095806893748,0.03684381777035034,0.29734164853224115,0.32160133341560015,0.3456668680190101,-0.4332018820233101,-0.0905564119375389,-0.5404635748049741,-0.7237206814003716,-1.0248800832450222,-0.18937429099483907,0.045218293942901146,-0.2742510313699375,-0.38907273135306475,-0.28352127699665053,-0.5543650029953887,0.22065213627394228,0.725613707923524,0.5614396696102332,-0.0692010510212239,0.20230420902114069,-0.036527787757250046,0.18856946817668677,-0.5983375141566082,-0.3858574523894819,-0.03507559782725611,-0.027512883849006835,0.009662703908968177,-0.026108541697534435,-0.10731328545443833,0.0859326576721147,0.3846926263439602,0.4144620902064433,0.19697277561923796,0.18450470411247283,0.002592640325890133,0.3915550363985746,-0.054070298392528506,0.6585021205705469,-0.7373343158155112,-1.1654973435627816,-0.42640186771815797,-0.25680446055081396,-0.175206346085736,0.507930146728095,0.3685993625978787,0.4197150453578558,0.3840624562463747,0.8862128554947052,1.0730726723101747,0.7440631679470021,0.15631391174825018,-0.27942237340923143,-0.06534294205094265,0.011329421014376753,-0.0031733309784588615,0.13004539510657523,0.012316925163796406,0.16296881328616755,0.3717776880472928,0.5882161005389178,0.3682272088215215,0.3027892163611175,0.6027088361310673,0.6134306130290461,0.08991776016747599,0.9660228297138554,1.0214094542560415,0.4534738341563574,0.3611117716698723,-0.2594032116840116,-0.6149808753721038,0.3192106912828993,-0.16265845823871516,0.09941674339173973,0.13420158654191422,0.8070248901043546,0.8969335564023229,0.5887564239798775,0.4202950072352349,-0.04098574133624112,0.0949864872382235,-0.027282720259821033,-0.042705969605167364,-0.08612241562549633,-0.04275512037348668,0.07178824919062843,0.0701046321285064,-0.009312915428510612,0.15333279487443094,0.30042193337649997,0.6974039053714512,0.9452979466495749,0.537961724971598,0.8831438090943706,0.4324651648801906,0.1551248577682466,0.09691347408390213,0.3473235737990148,0.34370237169162965,0.3492217513049325,-0.006442951695528204,0.0379143538695797,0.2559090466633262,0.5524932958808189,0.5389653842288511,0.32975716876857575,0.08789906496958792,-0.102593615621438,0.029382168622799753,-0.07091127923875165,0.04103241885224826,-0.024897298863729038,0.041016672742284425,0.018888760554346934,-0.017120649490967,-0.013795755843709914,0.23147735419528412,0.38437965327798573,0.49186500274279277,0.33154459614936443,-0.20857451261737595,-0.13784295197695642,-0.03298181007337453,0.8842312771769428,0.23797760067399037,-0.07254946968019003,-0.40705121491600643,-0.008117366260549277,-0.09299881185113759,-0.20190181781186864,-0.39461872713958984,-0.043995758940489856,0.13168133260682716,0.08744571267393005,0.0019115745520086682,-0.02025320597538321,-0.05787851864050557,0.09103437457660286,0.026988914187158604,-0.07105822402054394,-0.009391775903693963,0.032870718280047374,0.003507486537424296,0.04654041695593926,0.027624050188243994,-0.03642348897987177,0.15890002775172232,0.12005023431373273,0.04036689050255241,0.038893635575425335,0.1248254888189909,0.15239538465062594,0.14178050514269122,0.1532338089364424,0.09014996953601055,-0.1507561121430877,-0.19562667062975939,-0.10129226484453893,-0.09597880993198875,-0.03242834007321507,-0.02615223555330971,0.167602460721526,0.03200667979777972,0.004544643531970628,-0.00789931963740822,0.0033911400985874034,0.09747631850052127],[-0.09027647628677378,0.015607396746218765,0.011708725549826098,-0.08941788701169044,-0.05560998712267924,-0.020273521652070275,-0.010072797802064036,0.07129640513057586,-0.039713911400798434,-0.013163179822231176,-0.052238808518137135,-0.0053092118483753035,0.07839619458951984,0.026115980495405807,0.024345361485501173,-0.010015387098114418,-0.04467243647337595,0.005392419667768959,-0.0449801870831575,-0.06578550997087874,-0.008265804150168426,-0.007540234872318655,-0.10938752187200426,0.007074013310321424,0.04230854903488259,-0.006233265272122242,-0.03177772434817441,0.08864437801195965,0.01982616836012039,-0.05561879151865072,0.07378721037606173,-0.02869440350553789,0.10084224328294882,-0.012502990047747456,0.0017444554362896522,0.043708662170059,0.0595810438798638,0.08103204685493112,0.11549173465277139,0.016732651878563397,0.1196705702451323,0.03702006763778783,0.039834494414537173,0.017054239730220577,-0.06191405099704677,0.06884691095088871,0.049321695449432296,0.010300821619522041,0.04987227532848593,0.049779590538836856,-0.016021592485393962,0.06404437658697988,-0.03470639141284376,0.039056710839242906,0.02674298851553171,0.025115195603450192,-0.029921840446235404,0.05216175284986573,-0.016250475345180593,-0.022275391545733415,-0.059216387082564964,0.07040487039128575,0.07307757871582342,0.12715405492396636,0.21903517841048706,0.3081700454263849,0.4243125315799238,0.2834519599308129,0.29280683144771796,0.3414706766294842,0.27443600877228874,0.05439071449238502,-0.09423065231648874,-0.08463383721842895,0.0015944462939700092,0.04983205390280293,-0.020341882163171742,0.11800063906348311,0.14581598069940094,-0.0070232064226267606,0.07757657479416985,0.11476943576048898,-0.005075585125094928,0.026862079304779223,0.021193234880207457,0.011211929578742393,-0.05418493377244908,-0.03284205944014747,-0.03455292076812332,0.016186956898506036,0.025017902864813885,0.15596738088604215,0.42841388282352766,0.6772616903913675,0.663698125464757,0.4251465911530742,0.36926979091192813,0.7428305457788964,0.6473183797644161,0.4624208844059,-0.16616255729005006,0.07240131526179983,0.5530295530061303,0.3130705867613374,0.2864715953072591,0.33935854747548777,0.05319564310257449,0.09593107341021417,-0.07585718855748115,0.05324371518102428,-0.020847454271766385,0.008477918934884025,0.09620673396819454,-0.0945305111792976,0.0030954489011891986,-0.05963557276159539,-0.05221850503349254,-0.05140379620512229,-0.028037352656734384,-0.12934146089045143,-0.09161728790962115,0.14136430208491954,-0.024175876632868902,-0.005161522455548844,0.4576245723078877,0.259446137425176,0.3610220252031522,0.2983689744934137,-0.28169186675587016,-0.10611403113802816,0.2042231796660373,0.23534832737987826,0.6960804109404375,0.7062627544971946,0.6126574331146124,0.28470004626243356,0.17638734546096924,0.055147871330150845,0.07908463834507777,0.007396219725659228,0.03564417352710219,0.005995431710291133,-0.0737868773784067,0.11608974342643935,-0.23062316957113985,-0.08922597630206515,-0.026923584081329482,0.13339452134679022,0.3358028914030291,0.20952353407836308,0.4548728424999199,0.8513815788990582,0.5463947728934531,0.8431789523246113,-0.11783372910219467,-0.5642281176956623,-0.887608653384829,0.05351156509071441,0.9429381718136701,-0.4633561032001323,0.04816713628532055,0.8701093823591054,0.8779448380715941,0.43878585224189187,0.28155052483313237,0.10555913608773028,0.05019302641011534,-0.05724233525951126,0.03685575022512282,0.051303410626759596,-0.027109332873491633,-0.14481007459355222,-0.21999238955853614,-0.06846087013692999,-0.4887815140453954,-0.029812558562168627,0.47181521418051037,0.2317283022823342,-0.5504416564879747,1.0896075509782446,0.9970150414552739,0.34427731619946467,-0.31425594142623764,-1.0097531423174453,0.48254449244223113,0.053012469716222976,0.17815198409420172,0.34954488448268717,-0.12662148071332235,0.16294027292235405,0.17140580726609309,0.07979319710547088,0.2257734477434041,0.1481181522279078,0.019382302601201922,0.061390674461093545,0.07710053701535788,-0.07077499629084344,0.024665182777503743,-0.42157225467553094,-0.7621821165650552,-0.46215137856403227,0.16156636593191026,0.29198404165050196,0.3637239937604715,-0.4150098439057022,0.017575750467713147,0.9550964050984968,0.8057942731201854,-0.7444509091273025,-0.28032384356431805,-0.23362448759717877,-0.18853744724999058,0.15043776108166626,-0.12073209457354793,-0.07373296380731838,0.20690761824600912,0.2882882287239595,-0.8767993722131091,-0.2768114361869045,0.21035387528600677,-0.07166832184912739,0.025300858869173957,0.001012602108375928,-0.09608370832852929,-0.046461475171810075,0.009198987568289413,-0.36403258723760384,-0.689006337750843,-0.06953862983601092,0.31458953396747974,0.17158994170972158,0.6480125247560656,0.44961965399400117,-0.06949861698521669,1.1145093336919971,0.8044256054716176,-1.4535485230911998,-0.4237984204920776,0.14253330456320387,-0.8457481646088013,-0.8314622892113975,-0.4261947197120612,-0.5305754865729784,-0.5044009123795581,-0.7347695409524061,-1.5495896340962414,-0.7900078862472977,-0.18062792887804047,-0.034498383196637485,-0.03972707938305744,0.015356012462156515,-0.031172082499688492,-0.013389113183183332,0.13281353104204408,-0.03312778846208585,-0.38921290697004957,-0.23709414541549934,-0.0495380855772372,0.8871975633707471,0.25136516203307274,0.6843268027768128,0.768789928573338,2.1874841760330614,0.37619669838560427,-1.7828112795426705,-0.4557426931326294,-0.24057134127221957,-1.1456456341409982,-0.9427211666161829,-0.3147890590920099,-1.004598762958017,-0.5680272539699156,-1.1729378620644688,-1.8585340497927358,-1.051299626491328,-0.41753054425095,-0.014016110480021101,0.1600466502536746,-0.03803143434415179,0.029357300756557944,-0.04370649170125391,-0.04670155844349534,-0.16946210903409545,0.14988994408390224,0.18036292025001074,0.2904967255522028,0.1664614699924143,0.556937740454504,0.9432466176925508,0.6930533991899589,0.49939416496209393,-0.7999431729142417,-1.5831546187416619,-0.4572787543974288,-0.34843180340838575,-0.26710002057540433,-0.11512549323252244,-0.28157566848123466,-0.6440822095227359,0.10750239134405001,-0.2561779224025986,-0.43738463721202203,-0.4803003271323526,-0.1464910373185054,0.25453781511037005,0.006844024419256056,-0.03968173040293375,-0.01576118274583847,0.01627862469529135,0.0369406465664798,-0.15923799734447835,0.26952242829861445,-0.05698204491042669,0.8377190429947416,0.6525333943320041,0.5395942399331664,0.5094522095480717,0.9890961073592784,0.14249451464464763,-0.7809862033755092,-1.1131358805356568,-0.5700964686338342,-0.5122703156988234,0.8963176481884887,0.774845542942186,0.565559704998868,-0.3541405755198619,1.2122925585549198,0.5670306352932902,1.0003301501309818,0.41811657652708534,0.26032040569694354,0.23439933699565366,0.0049276115069876465,0.1638520234958852,0.03921297067173301,-0.014772213602659005,0.03738602874434193,0.2650801421107048,0.8206708999532839,0.15352850447841956,0.9313847896820846,0.5767211765463509,0.3908152871885499,0.390061464399748,0.5029412973977512,0.0574053108775374,-1.3737859172572953,-0.2603223994155111,-0.273092154965903,-0.18131714766861082,0.2658740079101665,-0.5300156635368204,0.2940647544117283,0.41033490989514027,0.7422108986605309,0.9258617521028438,1.0953797695239837,0.8419843695597702,0.0006257268173163172,-0.004559297929907245,-0.007242578924352269,-0.012694480879919014,0.08017044244068766,-0.0421388885234658,0.006672828546973511,0.0592119308016528,1.4894118778465193,0.5532534133451581,-0.012512107389343382,0.5108196537550364,0.0343280460484754,0.6968155480999831,1.0909424722059242,0.0446732611252921,-0.536121625361264,-0.7602418465536684,-1.2601100588890108,-0.3718763766173226,0.21477740972759807,-0.1200806179188964,-0.47817782898781785,0.45942178356436014,-0.7937204308145948,-0.4244854872558489,0.3657724607932936,0.04626360571080632,0.05649167931705551,0.09902551770853942,-0.13443509384831848,-0.1168985561527546,-0.042209000465116546,-0.06565841517624049,-0.010486786846277539,-0.052315198025597844,1.3390516516912823,0.4327885916529087,0.3934822123956486,0.3217265152251149,0.962206325559992,0.4704999293220355,0.48817230647364035,-0.4089811973708525,-0.8454985687998217,-0.6349176753321922,-1.0294746955756295,-0.83861569057154,0.3506617997143285,0.11416075425648314,0.5947272020298451,-0.26827437893566786,-0.028207933203449328,-0.22426867420022623,0.7799685698847968,-0.12317073145271347,0.41181615757578405,-0.07606683643796693,-0.14956707440703815,0.012541637149891509,-0.03976183492914612,-0.06265729096874881,-0.06749599339565938,-0.045464972892523436,0.8651527494004719,0.6429213422263065,0.47252783991865926,0.6233687768108225,0.24459667385411255,0.3665063623885679,0.8749048210629444,-0.03113288532304309,-0.13523663725401283,-0.2055048311473964,-0.9897779291763567,-0.9029098211273521,-0.8841974378732295,-0.3355295042281611,0.17462723079905393,0.3835748510437413,0.03229084328064609,0.68304206018037,0.06620809298098247,-0.44905400340154167,-0.22094164655977694,-0.3481982676396203,-0.12207930421902387,-0.1576649118693414,-0.00494122696112394,-0.025113325105780102,-0.07277462830861955,-0.0627277229717029,0.11442499722608795,0.28611305342365645,0.12439243472732021,0.4157030032670046,0.23733049223956884,-0.14650833512342762,-0.6296006106170522,-0.441465115695047,-0.34227620060624037,-0.8762351239697433,-1.1396037490326172,-0.6908980015726224,-0.12059640104065045,0.01492123550212426,0.04422999486176489,-0.0176469286036865,0.6599950914027133,-0.13227307535846372,0.3695570470471824,-0.1416698165806921,-0.24245500923488283,-0.3212425614247419,-0.3679586301567032,-0.0747117446276366,0.05448885447583066,-0.04792309094801443,-0.009675868636803978,-0.13373173611511013,-0.264697824236525,-0.07628110270867036,-0.20733163308230132,-0.5226211008786125,0.39589219995430386,-0.08980191724210522,0.20545633678439706,0.019238907458747893,0.10422687087297147,-0.6713339426697186,-0.5428621639228715,-1.170432805998725,-0.4990218705200812,0.5494777222951841,0.4213459099068823,0.2685402447963255,0.6991156529484096,-0.31335142550551226,-0.175414134508816,0.34271032300536014,0.28757744918912825,-0.04016152014013729,-0.04069862907385135,-0.037253855352394116,0.06721458627180227,0.02301017999620621,-0.08666751352895405,-0.003999164574338,-0.03699844739859611,-0.4438792202155628,-0.4120053029739174,-0.24029064181688942,-0.05350119559226831,0.11185054876827406,0.40623430903202834,-0.061150785021678845,-0.2747619918081182,-0.4394032563019475,-0.6433742181855282,-1.138123117421211,-0.605810794663946,1.3657360433946193,0.5215531672911025,0.30678584026378264,0.6023461242779147,0.45517726727169394,-0.17239235222191687,0.37220040546569827,0.1902369875389135,-0.2225896880432777,-0.2282729954467191,-0.15830156842163834,-0.002230708189184388,0.012292149609182824,0.2916118111469482,0.4603113826775391,0.3086900007269487,-0.6886095819850362,-0.23170287260885117,0.3108227641626331,0.37422819617603637,-0.29238025381987304,0.09052368494494449,0.5491140919176546,0.30237556078871697,-0.5454938848199357,-0.9213213855825113,-1.320909521251717,-0.1464075865841689,0.7019777365706553,-0.008208750489634625,0.29554415186103383,0.24965521265307072,0.191524692947053,0.35641839155151134,-0.1945994660904164,-0.14034100599534144,-0.1001449866013934,-0.021161691664620137,0.025065170216484696,-0.00018916976671956194,0.0875909320249252,0.16533892714884388,0.3072907976503565,0.5882708926164315,0.2970589587080607,-0.2857160239121512,-0.9106436742094288,0.28190754802453266,0.07106823528520788,-0.5326355189045209,-0.8997477330068335,-0.473607126451089,-1.1386188515357945,-0.3144729814217861,0.8846274824565739,0.6874787057865862,0.2515319744601081,0.21837925396637659,-0.3654436411135819,-0.7048425238571492,-0.9438221885602788,0.011576326653592846,-0.25707536081710364,-0.2682692353438013,-0.032807962067563395,-0.09460745582863056,0.04418226208114823,0.060284771825299587,0.02220039823347426,-0.16046266738099058,-0.3218526828721406,-0.1934004012469556,0.7100557834697949,0.5384206140486867,-0.5959430305980296,0.02069226225770428,0.06437898488563819,-0.29195110625270687,-0.6999602931166703,-0.2990061268391587,-0.4111584385845062,-0.3974873883493798,-0.16711615512575556,0.4212426985782556,0.44593186588961586,0.4741490772504645,-0.24290091070508876,0.38370141270651187,0.0125393485776621,-0.33392351687884986,-0.17609746856272185,0.1959736349239212,-0.05844200032206461,-0.1281047447379574,-0.04630133327732201,-0.03742464902157641,-0.005715487332374147,-0.14155461362221888,-0.26737943764923333,-0.24196436325502396,0.06350489208638181,-0.3335993891816494,-0.16501033850280214,-0.09471449332849026,-0.7648852875483837,-0.5840731512004557,-0.49424665423873676,-0.34782338591866613,-0.4431745099155118,0.4732995853861787,0.38725806817408637,0.9020032394878228,0.08818325490760998,0.6397666502133427,0.025730040706777122,-0.4773589678939505,-0.5598153453956619,-0.36892831019476763,0.11599616323561877,0.025944290994272826,-0.07387071991743738,-0.052682343904674536,-0.02404803207978864,0.03478202617964063,-0.05037968952271092,-0.009556693794878902,-0.04980352133639702,-0.18585915924890228,-0.18211560404552085,-0.3271695132618615,-0.41659123980112284,-0.2850474212262134,-0.7456906075092501,-0.9269909907131189,-0.6070385894453132,-0.05631312999935656,0.21315061375007985,0.24257170819472898,-0.2922138626453671,0.6123952477640275,0.11696948710896675,-0.6214555709933656,-0.47724025783873736,0.012337042152883901,0.043291616115224286,0.04936709360497698,-0.005459528339137655,-0.0012873774720733424,0.004689260699882449,-0.008171717274901182,0.057985326590055675,0.04623690866616792,0.10010905306152144,0.016813606435717693,0.08847579779423947,-0.11512349362453052,-0.10482431926503252,-0.0848627801439345,-0.5666222437451452,-0.6027042906263744,-0.250053786909384,0.028031749478062088,0.32954863643349025,0.4241468739975799,-0.1493237387699967,-0.4137139643956242,0.7832043990803507,0.7555682683573013,0.6991619949821436,0.32244135743952784,0.8304035606831683,0.6444741437669507,0.8774589847485057,0.6600821393520641,0.36775360428618625,0.04155362590311481,0.0024659201383258767,-0.03624047352189934,-0.04577119269002396,-0.00974381541727838,0.0035287869674061794,0.07285111315851625,0.06998229049930549,0.07152382072301007,0.12621679384613022,-0.020089085532500273,-0.3464517720425981,-0.3391238467990758,-0.2949878323851859,-0.30289511334333674,-0.2627175249841077,-0.1671605648020161,-0.27784563224799164,-0.6528659510347593,0.03395065339487885,-0.15448035747999778,0.48019151165153545,0.7415992406477642,0.6117195441492256,0.4853164358702248,0.6564690211279411,0.4427590455165315,0.2566059775523553,0.11947922059009042,-0.04248249750666795,-0.05285959047082322,0.12253065126300228,0.06894306272037629,0.016830102513123422,0.04541508820505707,-0.06986764098932295,-0.03402639050393762,-0.04890295905661442,0.07557172275825988,0.07319666588971564,0.17255647442841368,0.23226873849977756,0.025756669745901357,-0.020699838932154234,0.028289323799938558,-0.1611152078760319,-0.02298648341434983,0.023658957056787416,0.19920379750719724,0.3978680655823627,0.42020523725012987,0.31471338272595206,0.34657561388517194,0.2264372839287405,0.04207527617538375,-0.006282782571158533,-0.028274966229472107,-0.024321042121923403,0.002974117074979726,-0.04777279956373753,-0.0020125497430888762,-0.03331253539700599,-0.04350638907065155,-0.05997360670986488,0.0005841203986836079,0.012232932830179906,-0.07129662305687301,-0.01613214897257043,-0.06368511366968593,-0.036849280284585985,-0.050775644902265035,-0.15842646841522315,-0.13481236530630936,-0.11720595513850501,-0.048250007848865954,-0.11333179477065898,0.10324091702113793,0.03847163948179411,-0.023772230574407936,-0.0020508626627615658,-0.06026749444343171,0.014325821176359468,-0.024514734110220496,-0.04534530342001576,0.04523560035773918,0.020101121112903648,-0.007271557511766352,0.062488549564373566],[-0.035798234542079976,0.0045048824186827915,0.011979360879663135,0.022432853502509065,0.058200854682421345,-0.06425520221917037,-0.07657941765024444,0.031625948811656666,0.010745980043465672,-0.05646595207196895,0.03939455610038315,0.13302403088193318,-0.014415567697075304,0.012615824193386622,0.021623546542392902,-0.03358362826198781,-0.02783735372189113,0.03977320028820893,0.03692158011889148,-0.001517904710407846,-0.0011753214574397903,0.008502492117406765,-0.03680457913233609,-0.0008207739020870596,0.024483712908596533,0.024657746030907687,0.0180825047284572,0.05012187537763847,0.005549407659911977,0.002693061183703862,0.05046836263276783,0.06162529382169512,0.06423746121487652,0.09134912407520887,-0.02989077475058099,0.02690822592675888,-0.017715166631859933,-0.026854648398399385,0.04832418926514253,0.055365596853108774,-0.02844357484428812,-0.004785968838034654,0.04553023350931376,-0.05075740283058169,0.0033392469376754934,-0.022560511502134648,-0.03304721541596559,-0.0040654869953210635,0.05799605865584144,-0.028013192596774126,-0.040894923269494066,-0.02582922864242982,0.01231707382873807,-0.013874118264694616,-0.06205765017293793,0.007758468283630451,0.1544157297213391,0.08643656041689446,0.1133583160988667,0.019395229087385092,0.03063918087385652,0.10426342356780048,0.015465274640560753,0.00566136166557144,0.07737117481993419,0.16044155191023207,0.11052154224571788,0.1409871436114814,0.13631272434154582,-0.0899279283187492,0.0492080242689173,0.04300829193739862,-0.010463249588757582,0.04748680585928193,-0.2047037652817859,-0.021669601844432895,-0.1195862954384727,-0.11448658940052996,0.03215475369880462,-0.08230380947324384,-0.13644418144372603,-0.00498445426093044,-0.03286685861829373,0.06376565035100581,-0.008885660169232507,0.057452625453307093,0.007180271829329116,-0.07945114249568189,0.06571781381578302,0.00029856883684548644,-0.06585103231389945,0.03601015885690863,0.005418190862844358,0.08263640928688416,0.054158342880964216,0.008525437908138367,-0.00148405953819527,-0.22140212781577479,-0.37838418575657556,0.3187650657046819,1.0641236332309965,0.3298065616266214,0.16215181770036974,-0.24993625105476186,-0.39760687409427503,-0.6473112736033698,-0.4895778212066438,-0.06679606385918986,-0.17680135638892625,-0.07115843153309642,0.05536154200298401,-0.04626306745825561,0.044070105299665326,0.036108018782112256,0.10994566212241363,-0.07275214286813425,0.02504032346790931,-0.04163164844779043,-0.04498160498487317,-0.02520172460338581,-0.010271888598019068,0.006281059101010083,0.23840364837821343,0.13779254116381096,-0.053188774893202895,-0.05850331196022949,0.2910798172164367,-0.05089732158407859,0.6011130133346817,0.4350811590955862,0.21441945710994018,0.13287636238455516,-0.6449537859714761,-1.5476789761878291,-1.4231684792567334,-0.5990191743353056,-0.11351276040009281,-0.18784415233071586,0.031916242887627184,0.060338364660438286,0.07976543287944705,0.007862593315444236,-0.015493355887301094,0.051378055628338117,0.15116754905830654,-0.1269314624193249,-0.4331424128661179,-0.4668883429777779,-0.3102386081777209,0.06968313254861921,-0.30814088133833833,0.28282456690635494,-0.25070289903834886,-0.8732003182533657,-0.8755584195650847,-0.32361159791164207,0.7790359371157948,0.050826059828130786,-0.08293549740895959,0.3331892759524844,-0.09591832774461596,-0.8777565148314682,-0.9631275741837136,-0.6629805209780646,-0.4697769282058712,-0.3965387407654058,-0.0515896337314574,0.007240449591748797,0.010210154358370192,-0.022584170040842864,-0.04301016932019449,0.1898000491399128,0.2611957909209975,0.12535454483396807,-0.0108152763390783,-0.15003146445468654,-0.15930291038352357,0.556251502890071,-0.2351584254152304,0.019875856905798482,-0.22127490653013274,-0.5366224329515787,-1.181145742048004,0.5776766643533235,1.2439054851980555,1.1687894199146505,0.5140083951231812,0.899596665798046,0.6731638008714602,-0.2470349247800348,-0.45184889737683853,-0.69163700791514,-0.7165208697080981,-0.5331831651563081,-0.027909400606603206,0.02038883555028859,0.024992014978343795,0.06027239936259271,-0.07992649628680672,0.29584198052762034,0.4721871194468245,0.31989826962296297,0.5080923257373385,0.05489494767828514,-0.15218869096122897,-0.20790891784544635,-0.3865000743037035,0.10188303582182913,0.33307453117298846,-0.5829063272428882,-1.4257781037203119,0.2701892286986817,-0.2839183180925995,-0.13108983567587892,1.1569463091309047,0.37398347942285526,-0.404261082091727,0.3629528977526673,0.349724523283864,-0.2659881600948898,-0.46505080627264034,-0.2706025940759905,-0.05803218705717721,0.06646881591696906,-0.022979226586632803,-0.0312780006624012,-0.12657936374824486,-0.23843581698896468,0.2734879092736022,0.1814825917466697,0.8466437133609511,0.1870811277019414,0.09930344636616946,0.45390455236419286,-0.3877318274632958,-0.7287616744537321,-0.8614716967018985,-1.6017938431913659,-2.053616215866916,-0.7207639056874061,1.1070632047799607,0.8842346006711554,0.6487540423398331,0.6321530235663725,-0.7160923117516774,0.06657070090355871,0.4468789122890261,-0.5328185010381079,-0.624758318022616,-0.5743300285053847,0.10279839499075799,0.05727825718267621,0.08614787342292571,0.007767995367197325,-0.083567268344614,-0.16896023323558076,-0.20827317022577116,0.08295723003828968,0.5807192342311586,-0.36800279581431605,0.40605234412228564,1.177061258700883,-0.2498250879898021,0.5389142415148784,-0.14648417772542774,-2.558069835692172,-1.7635710452433646,0.3890218337604305,1.6522076802427477,1.7098458202415074,0.5919236447873889,0.7937284644211385,1.1381135499095214,0.5296048248448487,0.43964145872232063,-0.04253487639289761,-0.3690786957896881,-0.41810108069585933,-0.1700272882587268,0.1124974049217472,0.0863153758879615,-0.0636852286203154,-0.14288347126907974,-0.14429267969787957,0.10244630212115585,0.20607545007469766,0.4071941424531981,-0.08355497117847255,0.3194696946720847,0.1698489481088923,-1.1443095578984022,0.04991110096918942,-1.6329421927073346,-3.177960012000723,-0.6825453382092818,1.4478329290791734,2.0684782242844615,0.9953545445721804,1.0207350188859665,1.3306057038771066,0.198755428278168,0.3693389735853776,0.2083503920256847,-0.14233005146537825,-0.527626074390575,-0.6598008066714863,-0.3812710971276656,0.0041087496220615785,-0.01474002624767245,0.00020561516989889349,-0.17662785733620195,-0.07773577111407723,0.12113038502374482,0.11550596322718683,-0.12543632306787145,0.020889960322658996,0.31315525456579946,0.1861519454642146,-1.0163286282896231,-0.5253779317350443,-1.6333249892802189,-1.53007154894396,1.511990041395658,1.139305356679225,0.7625334253568704,0.5080372522938753,0.38050714660811963,1.0669333159387333,0.3084227312715246,0.6188368468017797,1.4791097083040363,0.8300533699289744,0.015532372060744854,-0.4985984266317808,-0.148436615376459,0.016107285969453357,-0.0010354199414605795,-0.07249427357668183,-0.19310940067515006,-0.04032462917401923,-0.1181683535171542,0.04563363367896784,-0.6733436000881062,-0.9576290118758869,-0.6651850397956749,-0.18818949477903418,-1.1312294245949701,-0.9889089557298777,-2.2513133638806013,-0.29937953903725134,1.6828380019856715,0.5818439133814234,1.4220110540728623,0.8323228652273806,0.18111347958163668,0.5695709437571375,0.5752496834049278,1.2258458515466837,0.9653535803806973,0.5996299933941247,0.6991439250366199,0.11591942494679983,0.13735582081859207,0.0341605602554574,-0.045748921385876655,0.026046276452899204,-0.0555106516553731,-0.21112099698999517,-0.12260391917785306,-0.09626159589010065,-0.052871292054230405,-0.6908956410126875,-0.2500431826511569,-0.573299618709635,-0.4214390229767234,-0.7749062668994706,-0.7621033320370477,1.0818550383444083,1.4813938680024061,0.6439898536914646,1.04312543014998,0.8964686325547352,0.7298211162392815,0.7355249337858768,0.9435383013324975,0.5276764873256121,0.4493462167624482,0.38416069376392087,0.15214102215389633,0.3160383199300183,0.19949051912077764,0.044717455313946206,-0.021360989565262188,0.10330197774859698,-0.04099639495621686,-0.19769333448510898,-0.5490906324890112,-0.7081374118838556,-0.564476853221091,-1.0088341182145393,-1.2313756355119623,-0.7352486297521198,-0.476345225436516,0.019692091814017147,-0.08682881534914236,0.7778974774109503,1.2585192740278934,0.5871251769379161,0.6763913730608585,0.9461750941608394,0.7009818959876792,0.9456137097856903,0.22317508142633075,0.25509389421677475,-0.3368515097717728,-0.9843114466925511,-0.7048193379349803,0.2689169463695555,0.09281770805764344,0.04250406061749847,0.043848275393430246,0.005781723779428358,-0.0571103029435265,-0.3017927891194962,-0.6989881567585399,-0.7264874337066082,-0.9808813897825434,-0.9505976902625528,-0.12743380260363293,-0.686867907209079,-0.840668012896757,0.20120428312175886,-0.4932025609079484,1.0449769978790724,1.3102244642391752,0.3938893467378556,1.051946244926791,0.2237050645935318,-0.14013783758693352,0.2794800115208929,0.48709154973529145,-0.2914459300393413,-0.7777008783475994,-1.283657442582356,-0.8602703897899499,0.23615887607783245,-0.05122839566120123,0.05434018104526814,-0.004836040190562639,0.0525792670662767,-0.02842710551498077,-0.05932167365845398,-0.7738995410870756,-0.413506348280006,0.37807800121710833,-0.3410697588386641,-0.598132532059705,0.20263000714005724,0.6144288229763116,1.4650233094953093,1.1430551242944458,1.7267082328035928,0.6091299086117823,0.5693912948771677,0.584379470150537,0.4527369233430797,-0.3670906946549162,-0.36405034704976214,-0.6881153136649933,-0.8362887542308284,-0.6870067911691572,-0.9955257450136217,-0.4610044661209173,0.3602926845225347,0.061072152743252985,-0.0031707378930272497,0.002438904759379012,0.007051221942885376,0.030984314228590163,0.03373478770986571,-0.29302254979858405,-0.7897738326313904,0.10790685289738262,0.6447511825853626,-0.2631712324675117,-0.12158546742788794,-0.15481140180475847,0.6884066223035257,0.8009084159633288,0.8335303721372835,0.5424003223330209,0.4999894726448174,-0.03355712155230027,-0.1558922045487266,-0.4335752625470998,-0.6689373720705705,-0.9025922403761969,-0.41151172857518514,-0.7533618659435591,-0.6728311290551405,0.028977987152803086,0.581209158587445,0.009469532350793782,-0.049548573409754076,0.063451597624477,0.09185619839116617,0.0285310081456023,0.2131956540334668,0.04859870870569598,-0.44548547525455306,-0.50331198063745,0.520002337355878,-0.5782393139574693,-1.308608705479096,-0.7486480437716269,0.23209508581206617,1.3891797659503409,0.5772057135345258,0.7862559914528287,0.374565404035755,-0.44045146227625037,-0.22304447129060456,-0.07914720820340825,-0.30408708863231787,-0.21743024584639808,-0.4317803612548493,-0.24261174437116348,0.07372526509351358,0.22800796284054087,0.19910818924275955,-0.01131578693883778,-0.054436458808349325,-0.043608877364413864,-0.00823918091399186,-0.13269415603582238,-0.18731931830801438,-0.21410211877565288,-0.5596096949237815,-1.0144573572767306,0.3627559539049768,-0.46562289540677343,0.6107117315759035,0.9253047196402651,0.12904199379674614,0.3398539530806592,0.2500831419481389,-0.6801615713381289,-0.15904534303254717,-0.4105398778538596,-0.18955803155534937,0.31169123397215137,-0.044081903512166815,-0.2606481965043332,-0.10996889806997082,0.5240011826189225,0.3525249330553864,-0.16314934163459482,-0.11928623445655456,-0.07592953614719902,-0.03502777640255902,-0.025008221225748545,0.022290268074657966,-0.07620612487550381,-0.07522357650800984,-0.1684190115881991,-0.3573737328759204,-0.2615796642389499,0.5997161338428274,0.2929526212851163,0.503702281831736,1.1029625498224458,-0.1081857688771182,-1.080011410229581,-0.507341784710731,-0.4785836135498764,-1.0796723283041907,-0.5395045579631279,-0.07308078613269978,-0.38721753652851426,-0.1096189812706583,0.6749643752290714,0.24528184413323653,0.4100988118682694,-0.13073127308688207,-0.1583856114302727,-0.1518142237931873,-0.10239786642372115,0.0062836144451547055,-0.03956071707146805,0.13454255263310821,0.0012004513520467845,0.2483563777360708,0.11275103809898636,0.018827583426519794,0.020644389439693867,0.705956846244305,0.15874681639434263,-0.08390473165644662,-0.36734424767171486,-0.5304287668852546,-0.9244277458552529,0.6114812639830057,-0.12981469529779743,-1.19698398192468,-0.5362964885143824,0.1498254418906752,-0.7453306089031617,0.1566334550294207,-0.47793916056853764,-0.41506729620274807,0.006897571512784334,-0.1100272301372329,-0.21424390691779377,-0.4180813181887268,-0.07650048306191537,-0.04155576233906262,0.04947260696067054,0.013697018904417862,-0.04361628082225925,0.38559501748609015,0.38860402836378916,-0.08523708916379248,0.12480832209313979,0.5416515335567369,1.0504783343278599,0.13896414566727142,0.002940657319331691,-0.205940216365388,-0.38879941931830614,0.030566989517206187,-0.23880703034972126,0.006656378133148136,0.24992121180611937,-0.7304814385392878,-1.3371541034660905,-0.7738288640606968,-0.3377177489377788,-0.29727544975608583,0.17452286658425914,0.14230022205502,-0.15713153889397213,-0.19513591196173133,-0.04053566985726818,0.04754371835729514,0.02145317945874693,-0.06492392726531224,-0.042073267424388015,0.19613990591042463,0.3188049610503305,0.10277644043076192,0.03145790818014507,0.4816976693614022,0.27687393957413275,-0.4325766579515728,-0.9934208640250745,-0.005026883663324659,-0.06413677388847006,0.8658528858539258,-0.08997792066881502,-0.7381366845022195,-0.7369815695588212,-0.6794153627773293,0.7120157578104618,-0.2159555208313408,-0.036047038468299084,-0.06039445979293998,0.5295421664655622,0.44364669486482494,0.12871405611751308,-0.1460261593380354,-0.018034915569746603,-0.023251996656683198,0.10139805533418293,0.05170069601041065,-0.018571993344394556,0.0693620971964725,0.22274946632861303,0.10712402620205076,0.18484521724598343,-0.5287255700302576,-0.969342591860006,-1.16533998209187,-0.08534651182265032,0.10175062694397533,-0.8124797106367329,-0.1254648021833725,-0.037758652096002654,0.23247668851590766,-0.5145344712249347,-0.3322035825090884,0.19351771153050937,-0.7957766295983036,-0.1965094719604981,0.1924817167178728,0.24406798452000536,0.4130539470694081,0.0871278788002198,0.042187956598248595,0.05128588990782255,-0.056942680146179744,0.04205886661427657,-0.01922319465004283,-0.008296169559297368,-0.007273820581017649,-0.06352824201475132,0.07927759487760266,-0.0746183012199461,-0.24704400295327975,-0.1783124290532493,-0.010880328763753812,0.5702179443696186,-0.13311075631050467,-0.5241529197010104,-0.1550443250914973,1.212659082772465,0.4650459750702697,-0.05312558369438605,-0.31873473715846656,-0.7067407649552608,-0.6304566201009361,0.26603929476607135,0.19614092311272696,-0.1673720006894543,0.10919008830968739,-0.1068163705065675,-0.0012453062987197703,-0.05827591673676,-0.06591808963391102,0.019844136707367326,0.027391461448670835,0.03782927433022473,-0.020002812110972015,-0.06563682879704379,0.07488480430608252,0.047571300443341236,0.034996665611357676,-0.01705646979907729,0.19974276468298047,0.41144063854676977,-0.03995987833721984,0.06541519109455539,-0.24720604101779894,0.06016704138828877,-0.023091430973027394,0.08711568932237443,0.16670421823222928,-0.18282924838775536,-0.5639011172089559,0.0975877565730994,0.3422506246018637,0.011215051231086782,-0.024508198044795124,0.00026834465776852726,-0.054103070209801325,0.07503048518722828,0.10275801954937003,-0.017437957947605196,-0.04575184069977267,0.002194714243146511,-0.008309213047815478,-0.04135547654975583,0.0543370481692806,0.03198384022055031,0.01508951090882723,0.03515879972204688,-0.060450066652966074,-0.06239899504918446,-0.016954300208163763,0.06673116048563485,-0.02518790080647529,0.07578746864075722,0.10674136930285562,0.13239011289134137,0.05699490035160771,-0.05223883628964303,0.07171766996202744,-0.007092477280256796,0.0041686371324726815,-0.061266183995155134,0.06786651913097765,-0.015554747077774572,-0.03413348867674223,0.008517358088187177,0.04014690622262539],[-0.013068717773827116,-0.0037931864484505268,0.021892346762506634,-0.09355550536111952,-0.04945186997621527,-0.028875788179432413,-0.037564649534267275,0.01741814791862206,-0.024135819066268153,-0.0008095921364910692,0.009305996885840778,-0.01055647073769032,-0.05251215348561691,-0.01974711713494163,0.036430559608187196,-0.09524834043016953,0.08099457683220701,-0.03921840442599511,-0.00636356939183415,0.024707296567694888,0.0004356632573895435,0.10881551837198365,-0.0033502345246092385,-0.016292382256816174,0.017802752951231512,-0.059884689885043266,-0.013070495684123468,-0.04348047326863136,0.06412053147598319,-0.061120348083143504,0.05951622583722541,-0.06347147497236781,-0.021295752238590784,0.030618241199603952,-0.11342283657174954,-0.2633552833984536,-0.26823804533647877,-0.15714944682517318,-0.13766015627339254,-0.1401324831072409,-0.18516749166410823,-0.1662975145888863,-0.05374055566454694,-0.05785216447457446,-0.16692201667430856,0.04237078868433774,-0.07450063258999862,-0.09321172012035858,-0.012744256303266508,-0.05240609887580911,0.01055727440085254,0.02990304778468113,-0.04065221685039325,-0.04606064767899341,-0.008236277576690678,0.05990874867996771,-0.0005827806593654282,-0.021436328798291045,-0.0018173592345488347,-0.037035312886394736,0.013185777017158604,0.050170583829546395,-0.10378339378805537,-0.3700485727396443,-0.5017362893190102,-0.2497461048860487,-0.20683169150550712,-0.22128196147449733,-0.3915590018450179,-0.48961303680076,-0.48112477849920215,-0.5479728024498834,-0.48426361830423414,-0.10362082898165184,-0.174606298741245,-0.20150446675492106,-0.12311297336728828,-0.2564741403753816,-0.09898741484550808,-0.22054315892625623,-0.19900916162834564,0.04983887812954765,0.011043321908267564,0.08334595561022141,0.04226613887849457,0.06799143079312503,-0.08996224632313755,0.02551915522994799,-0.12663294559307192,-0.10753805907255494,-0.22796576531049162,-0.4259975700616532,-0.6425733292934164,-0.6312330957593288,-0.6149728041087773,-0.6372512006456849,-0.7631997606674583,-1.532184207676303,-1.179509533585603,-1.4373267008488213,-1.1738511191066576,-0.41642698609573336,-0.1405431761102128,-0.6111018762550278,-0.4828019318391935,-0.18445339306837139,0.1925920393236783,-0.003086894247139791,-0.1297852717428517,-0.04838831318382632,-0.001074792878413403,-0.004481042697351048,-0.009864063517932014,-0.05712256713639442,-0.027999557709761414,-0.04690853094904795,-0.0424485805224637,-0.11769674497652739,-0.39000125610220615,-0.2709717199102562,-0.5226271389503164,-0.8634570141078927,-1.2952880561475941,-1.099596727444038,-1.4965930491305302,-1.6537838751752012,-2.265403750864023,-2.4288038179170184,-1.1270472705614667,-0.5478866041050475,-0.42294357411846134,-0.7535483450496836,-0.13511702819061344,0.6273967654596498,0.37594185385615786,0.04456896555280806,-0.00801081007909595,-0.2510361699404849,-0.12237424691819858,-0.03201209096003462,-0.01304574510130916,0.005247884398743952,-0.05683059119249712,-0.016456824830230126,-0.09806743562150602,-0.3763267195764846,-0.5153969765570181,-0.6603687257496902,0.09568925705060402,-0.08703981705313807,-1.00813035869542,-0.1605451856824592,0.5308733368765314,-0.40662055770666355,-0.631562600021156,0.03700020880928722,-0.6676085856736059,-0.6412121354434556,-0.4757716111304926,-0.9402621535670039,-0.7709810883629565,-0.08642189003876645,0.5989506411950757,0.4636399357612194,0.2512080515965835,-0.11784663965026418,-0.07465695379448238,-0.055868165443734116,0.02575207959782521,0.025996358954430386,0.007165774314968664,0.13263658185478577,0.3952361734179205,0.2599388405363867,-0.08915616268946858,-0.24836050550453637,0.3590557562614332,0.22349485395961405,-0.9426494118422102,0.23106581355138817,0.2522228262859403,-0.18619043256582463,0.6656658487471558,-0.19612661789762298,0.5689172813487211,0.2679831655485237,0.2669127312610508,0.372215132304876,-0.15458718037589567,-0.5311721948143502,-0.1271098892852714,-0.02449600884005441,0.21573372807419713,-0.029788379465496798,0.008652054302979573,0.006147473124062766,0.07500002393844407,-0.015780918926680116,0.15957851697936787,0.23229344642186428,0.11407509212945803,-0.20921459729760927,0.25147097446832284,0.16268299282013146,-0.20664937935791478,0.24160863297661797,0.6290705139055832,0.27767071126421267,0.1533420968377928,0.3739308229080024,-0.6313421823990519,0.02121912458011707,0.03695726385825259,-0.06674928983868211,-0.4176334791381031,-0.0874643435689422,0.027149682469193914,-0.49018539084795315,-0.5602442488300393,0.23943054223833043,0.016097378910408636,-0.1959813477951507,0.009402701017608445,0.07182213916082826,-0.055126657963617126,-0.004401996521630829,0.13601434913901567,-0.053842068287270485,-0.2736288325325505,-0.22137471896323976,0.35686236394337795,-0.001903467821087302,0.4024279773969021,0.37182228104900344,-0.3441227613782013,0.4290385897441158,-0.6117026596261003,